{"learner":{"attributes":{"scikit_learn":"{\"_estimator_type\": \"regressor\"}"},"feature_names":[],"feature_types":[],"gradient_booster":{"model":{"gbtree_model_param":{"num_parallel_tree":"1","num_trees":"100"},"iteration_indptr":[0,1,2,3,4,5,6,7,8,9,10,11,12,13,14,15,16,17,18,19,20,21,22,23,24,25,26,27,28,29,30,31,32,33,34,35,36,37,38,39,40,41,42,43,44,45,46,47,48,49,50,51,52,53,54,55,56,57,58,59,60,61,62,63,64,65,66,67,68,69,70,71,72,73,74,75,76,77,78,79,80,81,82,83,84,85,86,87,88,89,90,91,92,93,94,95,96,97,98,99,100],"tree_info":[0,0,0,0,0,0,0,0,0,0,0,0,0,0,0,0,0,0,0,0,0,0,0,0,0,0,0,0,0,0,0,0,0,0,0,0,0,0,0,0,0,0,0,0,0,0,0,0,0,0,0,0,0,0,0,0,0,0,0,0,0,0,0,0,0,0,0,0,0,0,0,0,0,0,0,0,0,0,0,0,0,0,0,0,0,0,0,0,0,0,0,0,0,0,0,0,0,0,0,0],"trees":[{"base_weights":[2.909377E-3,-3.3099824E-1,1.5124924E0,-7.708625E-1,9.736957E-2,1.1576846E0,5.110238E0,-1.0564396E0,-5.668212E-1,-1.0258076E-1,3.6905003E-1,8.7774974E-1,1.7174745E0,3.8150518E0,8.285206E0,-1.2093937E0,-8.936236E-1,-7.2385746E-1,-4.9005446E-1,-2.3109792E-1,1.6392577E-2,2.3064944E-1,4.4481745E-1,7.7511907E-1,1.1363972E0,1.5583194E0,2.280248E0,1.2881091E-1,3.959568E0,7.4806924E0,1.9830621E0,-1.3694617E-1,-1.1091181E-1,-9.614386E-2,-8.15309E-2,-8.5849844E-2,-6.7350335E-2,-6.72682E-2,-4.4148467E-2,-3.067564E-2,-1.7812999E-2,-6.65069E-3,8.509706E-3,2.2015806E-2,1.5893248E-1,2.7770657E-2,4.8719864E-2,4.4272013E-2,8.1744164E-2,-6.28412E-2,1.1452939E-1,1.4051814E-1,1.7366703E-1,1.7495578E-2,2.3202045E-1,7.0576674E-1,3.7481543E-1,2.176179E-1,7.563017E-1],"categories":[],"categories_nodes":[],"categories_segments":[],"categories_sizes":[],"default_left":[0,0,0,0,0,0,0,0,0,0,0,0,0,0,0,0,0,0,0,0,0,0,0,0,0,0,0,0,0,0,0,0,0,0,0,0,0,0,0,0,0,0,0,0,0,0,0,0,0,0,0,0,0,0,0,0,0,0,0],"id":0,"left_children":[1,3,5,7,9,11,13,15,17,19,21,23,25,27,29,31,33,35,37,39,41,43,45,47,49,51,53,-1,55,57,-1,-1,-1,-1,-1,-1,-1,-1,-1,-1,-1,-1,-1,-1,-1,-1,-1,-1,-1,-1,-1,-1,-1,-1,-1,-1,-1,-1,-1],"loss_changes":[4.380289E3,1.340898E3,2.0033083E3,2.039856E2,1.9592516E2,2.2320715E2,5.48208E2,3.5328125E1,2.4358337E1,3.1776648E1,1.5930893E1,2.4549377E1,3.9170654E1,3.2148315E1,2.2319092E2,1.0535278E1,2.9974976E0,3.9710083E0,1.1943878E1,3.9488258E0,6.1568704E0,7.390236E0,6.854965E0,9.330963E0,4.9589844E0,7.801819E0,8.258484E0,0E0,3.6424927E1,5.7250977E-1,0E0,0E0,0E0,0E0,0E0,0E0,0E0,0E0,0E0,0E0,0E0,0E0,0E0,0E0,0E0,0E0,0E0,0E0,0E0,0E0,0E0,0E0,0E0,0E0,0E0,0E0,0E0,0E0,0E0],"parents":[2147483647,0,0,1,1,2,2,3,3,4,4,5,5,6,6,7,7,8,8,9,9,10,10,11,11,12,12,13,13,14,14,15,15,16,16,17,17,18,18,19,19,20,20,21,21,22,22,23,23,24,24,25,25,26,26,28,28,29,29],"right_children":[2,4,6,8,10,12,14,16,18,20,22,24,26,28,30,32,34,36,38,40,42,44,46,48,50,52,54,-1,56,58,-1,-1,-1,-1,-1,-1,-1,-1,-1,-1,-1,-1,-1,-1,-1,-1,-1,-1,-1,-1,-1,-1,-1,-1,-1,-1,-1,-1,-1],"split_conditions":[2.074074E0,1.0034071E0,4.5458517E0,4.964539E-1,1.5095891E0,2.8053098E0,7.3455377E0,2.6639345E-1,6.785714E-1,1.2403846E0,1.6906977E0,2.5066667E0,3.66E0,1.3469387E0,1.0193E3,8E-3,6.875E-1,5.150754E-1,5.7505774E-1,9.9270076E-1,1.180212E0,5.072727E0,9.9270076E-1,8.7677723E-1,8.1670535E-1,3.1666667E0,1.3731884E0,1.2881091E-1,9.4E0,-8.455882E-2,1.9830621E0,-1.3694617E-1,-1.1091181E-1,-9.614386E-2,-8.15309E-2,-8.5849844E-2,-6.7350335E-2,-6.72682E-2,-4.4148467E-2,-3.067564E-2,-1.7812999E-2,-6.65069E-3,8.509706E-3,2.2015806E-2,1.5893248E-1,2.7770657E-2,4.8719864E-2,4.4272013E-2,8.1744164E-2,-6.28412E-2,1.1452939E-1,1.4051814E-1,1.7366703E-1,1.7495578E-2,2.3202045E-1,7.0576674E-1,3.7481543E-1,2.176179E-1,7.563017E-1],"split_indices":[17,17,17,17,17,17,17,17,17,17,17,17,17,19,8,17,20,20,20,20,20,20,20,20,18,17,19,0,2,20,0,0,0,0,0,0,0,0,0,0,0,0,0,0,0,0,0,0,0,0,0,0,0,0,0,0,0,0,0],"split_type":[0,0,0,0,0,0,0,0,0,0,0,0,0,0,0,0,0,0,0,0,0,0,0,0,0,0,0,0,0,0,0,0,0,0,0,0,0,0,0,0,0,0,0,0,0,0,0,0,0,0,0,0,0,0,0,0,0,0,0],"sum_hessian":[8.688E3,7.115E3,1.573E3,3.51E3,3.605E3,1.433E3,1.4E2,1.461E3,2.049E3,2.077E3,1.528E3,9.57E2,4.76E2,1.01E2,3.9E1,7.5E2,7.11E2,6.7E2,1.379E3,9.98E2,1.079E3,5.42E2,9.86E2,6.88E2,2.69E2,3.74E2,1.02E2,6E0,9.5E1,3.8E1,1E0,2.84E2,4.66E2,3.75E2,3.36E2,1.78E2,4.92E2,2.87E2,1.092E3,4.09E2,5.89E2,4.89E2,5.9E2,5.39E2,3E0,2.01E2,7.85E2,7.9E1,6.09E2,1E0,2.68E2,2.06E2,1.68E2,2E0,1E2,4E0,9.1E1,1E0,3.7E1],"tree_param":{"num_deleted":"0","num_feature":"21","num_nodes":"59","size_leaf_vector":"1"}},{"base_weights":[1.24491E-3,-3.0265766E-1,1.0998337E0,-6.29042E-1,5.1850945E-2,8.290651E-1,4.0013003E0,-8.4080696E-1,-4.3364877E-1,-9.6618876E-2,2.4699396E-1,6.176719E-1,1.2390027E0,9.780299E0,3.5567589E0,-9.8696685E-1,-7.2385573E-1,-2.9400742E-1,-4.869234E-1,1.1634207E-2,-1.6613896E-1,2.1531714E-1,4.6471974E-1,4.9299377E-1,7.291703E-1,1.067167E0,1.4312531E0,2.310717E0,2.2274387E0,2.051183E0,4.7511396E0,-7.140953E-2,-1.0345113E-1,-5.297483E-2,-7.70621E-2,-5.8631208E-2,-1.7629093E-2,-6.9662675E-2,-4.0973004E-2,-1.6654624E-2,1.0476665E-2,-4.894251E-2,-9.599693E-3,3.229486E-2,5.537073E-3,5.1786173E-2,5.952454E-3,1.05922036E-1,4.6945054E-2,6.024469E-2,8.602952E-2,1.05256274E-1,2.833774E-1,1.2670891E-1,1.751069E-1,9.900456E-2,4.1818213E-1,1.1245053E-1,2.4610212E-1,3.3400986E-1,5.4731977E-1],"categories":[],"categories_nodes":[],"categories_segments":[],"categories_sizes":[],"default_left":[0,0,0,0,0,0,0,0,0,0,0,0,0,0,0,0,0,0,0,0,0,0,0,0,0,0,0,0,0,0,0,0,0,0,0,0,0,0,0,0,0,0,0,0,0,0,0,0,0,0,0,0,0,0,0,0,0,0,0,0,0],"id":1,"left_children":[1,3,5,7,9,11,13,15,17,19,21,23,25,27,29,31,33,35,37,39,41,43,45,47,49,51,53,55,-1,57,59,-1,-1,-1,-1,-1,-1,-1,-1,-1,-1,-1,-1,-1,-1,-1,-1,-1,-1,-1,-1,-1,-1,-1,-1,-1,-1,-1,-1,-1,-1],"loss_changes":[2.9289878E3,7.951647E2,1.4901577E3,1.4768396E2,9.54894E1,1.5001965E2,3.8139233E2,2.8618164E1,1.3716339E1,1.4090158E1,9.721062E0,1.5627136E1,1.7996521E1,9.7511206E2,2.6358557E2,9.121094E0,8.2789E0,1.768613E1,2.151941E1,1.2181127E1,2.5803596E1,2.141512E1,3.8450966E0,6.781372E0,9.5347595E0,5.1701355E0,1.2271912E1,1.5628719E1,0E0,2.3437958E1,6.730261E1,0E0,0E0,0E0,0E0,0E0,0E0,0E0,0E0,0E0,0E0,0E0,0E0,0E0,0E0,0E0,0E0,0E0,0E0,0E0,0E0,0E0,0E0,0E0,0E0,0E0,0E0,0E0,0E0,0E0,0E0],"parents":[2147483647,0,0,1,1,2,2,3,3,4,4,5,5,6,6,7,7,8,8,9,9,10,10,11,11,12,12,13,13,14,14,15,15,16,16,17,17,18,18,19,19,20,20,21,21,22,22,23,23,24,24,25,25,26,26,27,27,29,29,30,30],"right_children":[2,4,6,8,10,12,14,16,18,20,22,24,26,28,30,32,34,36,38,40,42,44,46,48,50,52,54,56,-1,58,60,-1,-1,-1,-1,-1,-1,-1,-1,-1,-1,-1,-1,-1,-1,-1,-1,-1,-1,-1,-1,-1,-1,-1,-1,-1,-1,-1,-1,-1,-1],"split_conditions":[1.9470198E0,1.0126582E0,4.1702127E0,5.638298E-1,1.4525386E0,2.6371527E0,9.4E0,2.6639345E-1,1E1,1E1,2.2E1,2.2040815E0,3.0980392E0,6.5E0,1.4E1,1.1E1,1.1E1,3E0,1.5E1,4E0,1.5E1,9E0,6E0,1.0053E3,4E0,9.6E1,1.7926323E0,7.3455377E0,2.2274387E0,1.6545783E0,5.726829E0,-7.140953E-2,-1.0345113E-1,-5.297483E-2,-7.70621E-2,-5.8631208E-2,-1.7629093E-2,-6.9662675E-2,-4.0973004E-2,-1.6654624E-2,1.0476665E-2,-4.894251E-2,-9.599693E-3,3.229486E-2,5.537073E-3,5.1786173E-2,5.952454E-3,1.05922036E-1,4.6945054E-2,6.024469E-2,8.602952E-2,1.05256274E-1,2.833774E-1,1.2670891E-1,1.751069E-1,9.900456E-2,4.1818213E-1,1.1245053E-1,2.4610212E-1,3.3400986E-1,5.4731977E-1],"split_indices":[18,18,18,18,18,18,2,18,12,12,12,18,18,3,2,12,12,12,12,12,12,12,1,8,1,4,14,18,0,14,18,0,0,0,0,0,0,0,0,0,0,0,0,0,0,0,0,0,0,0,0,0,0,0,0,0,0,0,0,0,0],"split_type":[0,0,0,0,0,0,0,0,0,0,0,0,0,0,0,0,0,0,0,0,0,0,0,0,0,0,0,0,0,0,0,0,0,0,0,0,0,0,0,0,0,0,0,0,0,0,0,0,0,0,0,0,0,0,0,0,0,0,0,0,0],"sum_hessian":[8.771E3,6.871E3,1.9E3,3.577E3,3.294E3,1.739E3,1.61E2,1.715E3,1.862E3,1.871E3,1.423E3,1.149E3,5.9E2,1E1,1.51E2,7.59E2,9.56E2,5.16E2,1.346E3,7.32E2,1.139E3,1.244E3,1.79E2,5.45E2,6.04E2,3.15E2,2.75E2,7E0,3E0,6.8E1,8.3E1,1.15E2,6.44E2,1.88E2,7.68E2,1.47E2,3.69E2,3.6E2,9.86E2,2.51E2,4.81E2,2.02E2,9.37E2,7.43E2,5.01E2,1.58E2,2.1E1,2E1,5.25E2,3.1E2,2.94E2,3.14E2,1E0,1.85E2,9E1,5E0,2E0,2.2E1,4.6E1,3E1,5.3E1],"tree_param":{"num_deleted":"0","num_feature":"21","num_nodes":"61","size_leaf_vector":"1"}},{"base_weights":[1.959038E-3,-2.4198529E-1,1.4457921E0,-5.906308E-1,1.7625584E-1,1.2457014E0,7.252112E0,-8.207303E-1,-3.7954637E-1,-2.8290054E-2,3.5018513E-1,1.0428154E0,2.7629223E0,6.2073593E0,1.8764781E0,-1.0088717E0,-6.9851565E-1,-4.554157E-1,-2.8075287E-1,-1.2458389E-1,3.10426E-2,2.50909E-1,4.587759E-1,8.639503E-1,1.4465696E0,3.2963493E0,2.135337E0,1.7624657E-1,6.2761396E-1,-1.3157281E-1,-9.6096545E-2,-7.750549E-2,-6.5798834E-2,-3.689048E-2,-4.9326275E-2,-2.5218425E-2,-3.8925007E-2,4.3957423E-2,-1.2816717E-2,1.0002919E-2,-4.303636E-4,1.4018756E-1,2.4465952E-2,3.0956015E-2,4.959577E-2,7.833387E-2,1.0686588E-1,1.1256843E-1,1.544359E-1,2.8488645E-1,3.9617214E-1,1.6571306E-1,2.5276616E-1],"categories":[],"categories_nodes":[],"categories_segments":[],"categories_sizes":[],"default_left":[0,0,0,0,0,0,0,0,0,0,0,0,0,0,0,0,0,0,0,0,0,0,0,0,1,0,0,0,0,0,0,0,0,0,0,0,0,0,0,0,0,0,0,0,0,0,0,0,0,0,0,0,0],"id":2,"left_children":[1,3,5,7,9,11,13,15,17,19,21,23,25,27,-1,29,31,33,35,37,39,41,43,45,47,49,51,-1,-1,-1,-1,-1,-1,-1,-1,-1,-1,-1,-1,-1,-1,-1,-1,-1,-1,-1,-1,-1,-1,-1,-1,-1,-1],"loss_changes":[3.0875132E3,1.0935924E3,1.4629548E3,1.9834155E2,1.2132584E2,3.7450952E2,3.8869165E2,4.4270874E1,1.5874786E1,8.96243E0,1.975328E1,7.696179E1,4.1168335E1,1.1673584E0,0E0,1.0025513E1,3.1782227E0,3.766693E0,2.7844849E0,1.2652159E0,2.3681326E0,6.598198E0,4.723282E0,1.1588806E1,8.648071E0,1.1342102E1,8.756561E0,0E0,0E0,0E0,0E0,0E0,0E0,0E0,0E0,0E0,0E0,0E0,0E0,0E0,0E0,0E0,0E0,0E0,0E0,0E0,0E0,0E0,0E0,0E0,0E0,0E0,0E0],"parents":[2147483647,0,0,1,1,2,2,3,3,4,4,5,5,6,6,7,7,8,8,9,9,10,10,11,11,12,12,13,13,15,15,16,16,17,17,18,18,19,19,20,20,21,21,22,22,23,23,24,24,25,25,26,26],"right_children":[2,4,6,8,10,12,14,16,18,20,22,24,26,28,-1,30,32,34,36,38,40,42,44,46,48,50,52,-1,-1,-1,-1,-1,-1,-1,-1,-1,-1,-1,-1,-1,-1,-1,-1,-1,-1,-1,-1,-1,-1,-1,-1,-1,-1],"split_conditions":[2.2362869E0,1.1257367E0,7.3455377E0,6.252354E-1,1.5095891E0,4.1702127E0,1.0193E3,2.6639345E-1,9.072165E-1,1.263339E0,1.8365122E0,2.9584055E0,7.5E1,1.012E3,1.8764781E0,-1.8114144E-1,4.0374333E-1,1.1E1,8.3E1,6.773541E-1,1.1466432E0,4.370861E-1,1.1680442E0,2.6746411E0,1.3737586E0,5.726829E0,1.7148969E0,1.7624657E-1,6.2761396E-1,-1.3157281E-1,-9.6096545E-2,-7.750549E-2,-6.5798834E-2,-3.689048E-2,-4.9326275E-2,-2.5218425E-2,-3.8925007E-2,4.3957423E-2,-1.2816717E-2,1.0002919E-2,-4.303636E-4,1.4018756E-1,2.4465952E-2,3.0956015E-2,4.959577E-2,7.833387E-2,1.0686588E-1,1.1256843E-1,1.544359E-1,2.8488645E-1,3.9617214E-1,1.6571306E-1,2.5276616E-1],"split_indices":[17,17,17,17,17,17,8,17,17,17,17,17,4,8,0,17,17,12,4,14,19,19,14,17,15,17,16,0,0,0,0,0,0,0,0,0,0,0,0,0,0,0,0,0,0,0,0,0,0,0,0,0,0],"split_type":[0,0,0,0,0,0,0,0,0,0,0,0,0,0,0,0,0,0,0,0,0,0,0,0,0,0,0,0,0,0,0,0,0,0,0,0,0,0,0,0,0,0,0,0,0,0,0,0,0,0,0,0,0],"sum_hessian":[8.764E3,7.498E3,1.266E3,4.089E3,3.409E3,1.225E3,4.1E1,1.955E3,2.134E3,1.567E3,1.842E3,1.082E3,1.43E2,3.9E1,2E0,7.67E2,1.188E3,1.205E3,9.29E2,5.97E2,9.7E2,9.64E2,8.78E2,7.52E2,3.3E2,7.5E1,6.8E1,1E0,3.8E1,1E2,6.67E2,4.05E2,7.83E2,3.7E2,8.35E2,7.38E2,1.91E2,3E0,5.94E2,3.28E2,6.42E2,4E0,9.6E2,1.77E2,7.01E2,5.43E2,2.09E2,8E1,2.5E2,4.8E1,2.7E1,3.3E1,3.5E1],"tree_param":{"num_deleted":"0","num_feature":"21","num_nodes":"53","size_leaf_vector":"1"}},{"base_weights":[-1.8838064E-3,-2.706124E-1,1.0627598E0,-5.6498283E-1,5.9163906E-2,8.1247145E-1,3.8776472E0,-7.609986E-1,-3.9194623E-1,-8.831066E-2,2.2150692E-1,5.9063125E-1,1.1813622E0,2.8861153E0,6.6938453E0,-9.339852E-1,-6.7429775E-1,-5.353197E-1,-3.4967035E-1,-1.7934306E-1,-1.6588127E-2,1.4565332E-1,3.0366465E-1,3.356701E-1,6.3962525E-1,1.0586193E0,1.5810332E0,1.1551248E0,3.049295E0,5.575168E0,1.7513796E0,-1.1834053E-1,-8.7506056E-2,-8.078838E-2,-6.36207E-2,-6.128347E-2,-4.302724E-2,-4.100568E-2,-2.7538717E-2,-3.3858474E-2,-1.641378E-2,-2.1315945E-2,4.3567122E-4,7.925259E-3,2.2709409E-2,1.2803346E-2,3.338697E-2,3.925627E-2,-4.319063E-2,5.3952493E-2,7.377726E-2,9.688207E-2,1.21102E-1,1.4316306E-1,1.9522505E-1,1.437691E-1,-8.3526835E-2,4.3090868E-1,2.8087556E-1,6.0328835E-1,3.8275915E-1],"categories":[],"categories_nodes":[],"categories_segments":[],"categories_sizes":[],"default_left":[0,0,0,0,0,0,0,0,0,0,0,0,0,0,0,0,0,0,0,0,0,0,0,0,0,1,0,0,0,0,0,0,0,0,0,0,0,0,0,0,0,0,0,0,0,0,0,0,0,0,0,0,0,0,0,0,0,0,0,0,0],"id":3,"left_children":[1,3,5,7,9,11,13,15,17,19,21,23,25,27,29,31,33,35,37,39,41,43,45,47,49,51,53,55,57,59,-1,-1,-1,-1,-1,-1,-1,-1,-1,-1,-1,-1,-1,-1,-1,-1,-1,-1,-1,-1,-1,-1,-1,-1,-1,-1,-1,-1,-1,-1,-1],"loss_changes":[2.5254077E3,6.842278E2,1.2502148E3,1.2601196E2,7.962494E1,1.3310205E2,3.855713E2,2.554181E1,1.1814056E1,1.13772E1,9.820961E0,1.2564178E1,2.8398071E1,2.7266113E1,3.502068E2,7.4887085E0,5.4191284E0,3.3924103E0,6.75914E0,1.8039932E0,4.0192723E0,4.4433765E0,3.9837112E0,7.4623413E0,8.021606E0,5.286255E0,5.080536E0,7.387452E0,1.7896667E1,4.904785E0,0E0,0E0,0E0,0E0,0E0,0E0,0E0,0E0,0E0,0E0,0E0,0E0,0E0,0E0,0E0,0E0,0E0,0E0,0E0,0E0,0E0,0E0,0E0,0E0,0E0,0E0,0E0,0E0,0E0,0E0,0E0],"parents":[2147483647,0,0,1,1,2,2,3,3,4,4,5,5,6,6,7,7,8,8,9,9,10,10,11,11,12,12,13,13,14,14,15,15,16,16,17,17,18,18,19,19,20,20,21,21,22,22,23,23,24,24,25,25,26,26,27,27,28,28,29,29],"right_children":[2,4,6,8,10,12,14,16,18,20,22,24,26,28,30,32,34,36,38,40,42,44,46,48,50,52,54,56,58,60,-1,-1,-1,-1,-1,-1,-1,-1,-1,-1,-1,-1,-1,-1,-1,-1,-1,-1,-1,-1,-1,-1,-1,-1,-1,-1,-1,-1,-1,-1,-1],"split_conditions":[1.9871795E0,1.0266666E0,4.5458517E0,5.638298E-1,1.4434782E0,2.6358025E0,7.3455377E0,1.9734345E-1,5.7505774E-1,1.2075472E0,1.7026379E0,1.0411623E0,3.5245903E0,3.3392856E0,1.0193E3,-1.8114144E-1,3.0769232E-1,1.5E1,8.3480173E-1,4.2168674E-1,4.7826087E-1,1.4683545E0,8.850772E-1,1.7130241E0,2.2362869E0,1.5691893E0,4.1702127E0,1E-1,1.6965401E0,2.996551E0,1.7513796E0,-1.1834053E-1,-8.7506056E-2,-8.078838E-2,-6.36207E-2,-6.128347E-2,-4.302724E-2,-4.100568E-2,-2.7538717E-2,-3.3858474E-2,-1.641378E-2,-2.1315945E-2,4.3567122E-4,7.925259E-3,2.2709409E-2,1.2803346E-2,3.338697E-2,3.925627E-2,-4.319063E-2,5.3952493E-2,7.377726E-2,9.688207E-2,1.21102E-1,1.4316306E-1,1.9522505E-1,1.437691E-1,-8.3526835E-2,4.3090868E-1,2.8087556E-1,6.0328835E-1,3.8275915E-1],"split_indices":[17,17,17,17,17,17,17,17,20,17,17,20,17,18,8,17,20,12,17,20,20,20,20,14,17,15,17,5,14,14,0,0,0,0,0,0,0,0,0,0,0,0,0,0,0,0,0,0,0,0,0,0,0,0,0,0,0,0,0,0,0],"split_type":[0,0,0,0,0,0,0,0,0,0,0,0,0,0,0,0,0,0,0,0,0,0,0,0,0,0,0,0,0,0,0,0,0,0,0,0,0,0,0,0,0,0,0,0,0,0,0,0,0,0,0,0,0,0,0,0,0,0,0,0,0],"sum_hessian":[8.825E3,7.047E3,1.778E3,3.723E3,3.324E3,1.634E3,1.44E2,1.744E3,1.979E3,1.742E3,1.582E3,1.022E3,6.12E2,1.08E2,3.6E1,5.79E2,1.165E3,4.48E2,1.531E3,7.67E2,9.75E2,8.24E2,7.58E2,1.66E2,8.56E2,4.71E2,1.41E2,1E1,9.8E1,3.4E1,2E0,1.07E2,4.72E2,2.54E2,9.11E2,2.55E2,1.93E2,8.42E2,6.89E2,6.5E1,7.02E2,9.3E1,8.82E2,4.55E2,3.69E2,1.12E2,6.46E2,1.55E2,1.1E1,4.27E2,4.29E2,3.01E2,1.7E2,1.04E2,3.7E1,9E0,1E0,1.3E1,8.5E1,2.5E1,9E0],"tree_param":{"num_deleted":"0","num_feature":"21","num_nodes":"61","size_leaf_vector":"1"}},{"base_weights":[4.3987203E-3,-1.6938907E-1,9.0403914E-1,-4.088824E-1,6.858631E-2,6.6821355E-1,2.5932133E0,-6.127516E-1,-2.7794746E-1,-1.3323346E-1,2.2513412E-1,4.6137556E-1,8.841734E-1,1.640032E0,3.3406603E0,-8.725241E-1,-5.701906E-1,-4.3993732E-1,-1.850875E-1,-1.935223E-2,-2.574693E-1,7.1827926E-2,3.368839E-1,2.6356405E-1,5.695066E-1,7.834929E-1,1.4185407E0,1.1783313E0,2.6297617E0,8.671574E0,2.8889153E0,-7.920356E-2,-1.0126903E-1,-6.2140286E-2,-4.264297E-2,-5.5708017E-2,-3.598843E-2,-2.7616879E-2,-1.2447011E-2,-1.24227395E-2,1.1137285E-2,-1.2716007E-2,-3.841018E-2,9.052053E-3,-2.74543E-2,2.2045637E-2,4.303256E-2,1.6293654E-2,7.299243E-2,4.9278174E-2,9.239085E-2,3.8268205E-2,8.4181696E-2,6.53963E-1,1.18046574E-1,-6.6353625E-4,1.4418046E-1,2.7630687E-1,7.7559166E-2,2.3324786E-1,1.6346209E0,1.08403124E-1,3.5664243E-1],"categories":[],"categories_nodes":[],"categories_segments":[],"categories_sizes":[],"default_left":[0,0,0,0,0,0,0,0,0,0,0,0,0,0,0,0,0,0,0,0,0,1,0,0,0,0,0,0,0,0,0,0,0,0,0,0,0,0,0,0,0,0,0,0,0,0,0,0,0,0,0,0,0,0,0,0,0,0,0,0,0,0,0],"id":4,"left_children":[1,3,5,7,9,11,13,15,17,19,21,23,25,27,29,31,33,35,37,39,41,43,45,47,49,51,53,55,57,59,61,-1,-1,-1,-1,-1,-1,-1,-1,-1,-1,-1,-1,-1,-1,-1,-1,-1,-1,-1,-1,-1,-1,-1,-1,-1,-1,-1,-1,-1,-1,-1,-1],"loss_changes":[1.3664655E3,4.1750555E2,5.61933E2,9.7288025E1,1.1613956E2,5.5115234E1,1.1777551E2,1.5279602E1,3.3387848E1,2.2716915E1,3.5438904E1,1.3475052E1,3.154541E1,3.2544083E1,2.0613708E2,1.4429932E0,8.783295E0,7.395401E0,7.783512E0,1.1516371E1,1.2624214E1,5.6836295E0,1.2927536E1,1.05338745E1,1.0720383E1,1.1670197E1,1.0810451E2,1.7180954E1,3.7891388E0,3.0242456E2,1.0618805E2,0E0,0E0,0E0,0E0,0E0,0E0,0E0,0E0,0E0,0E0,0E0,0E0,0E0,0E0,0E0,0E0,0E0,0E0,0E0,0E0,0E0,0E0,0E0,0E0,0E0,0E0,0E0,0E0,0E0,0E0,0E0,0E0],"parents":[2147483647,0,0,1,1,2,2,3,3,4,4,5,5,6,6,7,7,8,8,9,9,10,10,11,11,12,12,13,13,14,14,15,15,16,16,17,17,18,18,19,19,20,20,21,21,22,22,23,23,24,24,25,25,26,26,27,27,28,28,29,29,30,30],"right_children":[2,4,6,8,10,12,14,16,18,20,22,24,26,28,30,32,34,36,38,40,42,44,46,48,50,52,54,56,58,60,62,-1,-1,-1,-1,-1,-1,-1,-1,-1,-1,-1,-1,-1,-1,-1,-1,-1,-1,-1,-1,-1,-1,-1,-1,-1,-1,-1,-1,-1,-1,-1,-1],"split_conditions":[2.1483421E0,1.0269058E0,4.194872E0,6.7346936E-1,1.196319E0,1.7578348E0,3E0,8E-3,5.638298E-1,7.4E1,1.4318181E0,1.017331E0,3.3396227E0,1.28E1,9.4E0,1E1,1.6E1,3.0498534E-1,1.143116E0,1.4318181E0,1.1E1,2.2176309E0,1.8318965E0,1.5E1,1.7130241E0,1.2671121E0,9.4E0,1.4781721E0,3.1259115E0,6.5E0,5.072727E0,-7.920356E-2,-1.0126903E-1,-6.2140286E-2,-4.264297E-2,-5.5708017E-2,-3.598843E-2,-2.7616879E-2,-1.2447011E-2,-1.24227395E-2,1.1137285E-2,-1.2716007E-2,-3.841018E-2,9.052053E-3,-2.74543E-2,2.2045637E-2,4.303256E-2,1.6293654E-2,7.299243E-2,4.9278174E-2,9.239085E-2,3.8268205E-2,8.4181696E-2,6.53963E-1,1.18046574E-1,-6.6353625E-4,1.4418046E-1,2.7630687E-1,7.7559166E-2,2.3324786E-1,1.6346209E0,1.08403124E-1,3.5664243E-1],"split_indices":[19,19,19,20,20,20,10,19,19,4,19,20,19,2,2,3,12,19,20,19,12,15,20,2,14,14,2,16,14,3,19,0,0,0,0,0,0,0,0,0,0,0,0,0,0,0,0,0,0,0,0,0,0,0,0,0,0,0,0,0,0,0,0],"split_type":[0,0,0,0,0,0,0,0,0,0,0,0,0,0,0,0,0,0,0,0,0,0,0,0,0,0,0,0,0,0,0,0,0,0,0,0,0,0,0,0,0,0,0,0,0,0,0,0,0,0,0,0,0,0,0,0,0,0,0,0,0,0,0],"sum_hessian":[8.738E3,7.324E3,1.414E3,3.65E3,3.674E3,1.242E3,1.72E2,1.426E3,2.224E3,1.605E3,2.069E3,6.36E2,6.06E2,7.7E1,9.5E1,1.98E2,1.228E3,8.09E2,1.415E3,8.38E2,7.67E2,8.73E2,1.196E3,2.26E2,4.1E2,5.12E2,9.4E1,5.4E1,2.3E1,6E0,8.9E1,1.3E2,6.8E1,9.03E2,3.25E2,3.26E2,4.83E2,5.64E2,8.51E2,4.65E2,3.73E2,3.79E2,3.88E2,8.29E2,4.4E1,5.34E2,6.62E2,1.87E2,3.9E1,3.39E2,7.1E1,6.6E1,4.46E2,3E0,9.1E1,1E1,4.4E1,2.1E1,2E0,4E0,2E0,2.5E1,6.4E1],"tree_param":{"num_deleted":"0","num_feature":"21","num_nodes":"63","size_leaf_vector":"1"}},{"base_weights":[1.3980246E-3,-2.1386287E-1,7.0039874E-1,-4.6941093E-1,-2.3667607E-2,5.4029274E-1,2.9264772E0,-6.5905905E-1,-3.858371E-1,-1.3885301E-1,1.0931602E-1,4.0476412E-1,9.1770774E-1,2.369529E0,4.3978066E0,-8.373912E-1,-6.0521865E-1,-5.385512E-1,-3.3118257E-1,-2.311899E-1,-3.2990213E-2,-6.730831E-4,2.4846976E-1,2.1094055E-1,4.926687E-1,7.1468246E-1,1.1005672E0,2.5974643E0,9.677884E-1,8.3757085E-1,4.577318E0,-7.521241E-2,-1.11627E-1,-5.306813E-2,-7.267817E-2,-6.4427815E-2,-4.7961272E-2,-2.1189295E-2,-3.7286546E-2,-3.9701767E-2,-1.9210963E-2,6.819622E-4,-2.1551056E-2,-2.2308765E-2,4.6604257E-3,2.3824215E-2,1.0244446E-1,9.917366E-3,3.6159802E-2,3.9697967E-2,5.8026195E-2,6.2792554E-2,1.391908E-1,1.2945536E-1,9.358449E-2,2.2388358E-1,4.9043342E-1,1.981037E-4,1.5470748E-1,1.23646855E-1,1.9887686E-3,5.0471514E-1,3.093395E-1],"categories":[],"categories_nodes":[],"categories_segments":[],"categories_sizes":[],"default_left":[0,0,0,0,0,0,0,0,0,0,0,0,0,0,0,0,0,0,0,0,0,0,0,0,1,0,0,0,0,0,0,0,0,0,0,0,0,0,0,0,0,0,0,0,0,0,0,0,0,0,0,0,0,0,0,0,0,0,0,0,0,0,0],"id":5,"left_children":[1,3,5,7,9,11,13,15,17,19,21,23,25,27,29,31,33,35,37,39,41,43,45,47,49,51,53,55,57,59,61,-1,-1,-1,-1,-1,-1,-1,-1,-1,-1,-1,-1,-1,-1,-1,-1,-1,-1,-1,-1,-1,-1,-1,-1,-1,-1,-1,-1,-1,-1,-1,-1],"loss_changes":[1.3260696E3,3.274828E2,7.3796643E2,4.5313354E1,5.920305E1,9.870715E1,1.034834E2,7.923279E0,1.6498016E1,2.0236488E1,2.7458046E1,2.4209274E1,1.8184357E1,3.0395386E1,1.9812927E1,3.9400482E0,5.75766E0,2.9624786E0,7.2502136E0,7.0912704E0,7.0205264E0,1.0557112E1,6.0415382E0,7.4909554E0,7.992096E0,1.3520706E1,7.3201904E0,6.182318E1,8.948598E0,9.539254E-1,8.789124E0,0E0,0E0,0E0,0E0,0E0,0E0,0E0,0E0,0E0,0E0,0E0,0E0,0E0,0E0,0E0,0E0,0E0,0E0,0E0,0E0,0E0,0E0,0E0,0E0,0E0,0E0,0E0,0E0,0E0,0E0,0E0,0E0],"parents":[2147483647,0,0,1,1,2,2,3,3,4,4,5,5,6,6,7,7,8,8,9,9,10,10,11,11,12,12,13,13,14,14,15,15,16,16,17,17,18,18,19,19,20,20,21,21,22,22,23,23,24,24,25,25,26,26,27,27,28,28,29,29,30,30],"right_children":[2,4,6,8,10,12,14,16,18,20,22,24,26,28,30,32,34,36,38,40,42,44,46,48,50,52,54,56,58,60,62,-1,-1,-1,-1,-1,-1,-1,-1,-1,-1,-1,-1,-1,-1,-1,-1,-1,-1,-1,-1,-1,-1,-1,-1,-1,-1,-1,-1,-1,-1,-1,-1],"split_conditions":[1.862745E0,8.3480173E-1,4.5458517E0,3.0498534E-1,1.3141025E0,2.7669172E0,7.3455377E0,2.4390244E-1,5.150754E-1,1.196319E0,1.4784111E0,1.26E0,1.8421053E0,8.9E1,-8.455882E-2,7E0,6E0,1.3E1,1E1,4.2168674E-1,6E0,5.150754E-1,9.3E1,2.2040815E0,1.3521218E0,1.4E1,3E0,8.5E1,5E0,1.3E1,1.7E1,-7.521241E-2,-1.11627E-1,-5.306813E-2,-7.267817E-2,-6.4427815E-2,-4.7961272E-2,-2.1189295E-2,-3.7286546E-2,-3.9701767E-2,-1.9210963E-2,6.819622E-4,-2.1551056E-2,-2.2308765E-2,4.6604257E-3,2.3824215E-2,1.0244446E-1,9.917366E-3,3.6159802E-2,3.9697967E-2,5.8026195E-2,6.2792554E-2,1.391908E-1,1.2945536E-1,9.358449E-2,2.2388358E-1,4.9043342E-1,1.981037E-4,1.5470748E-1,1.23646855E-1,1.9887686E-3,5.0471514E-1,3.093395E-1],"split_indices":[18,18,18,18,18,18,18,20,20,20,20,20,20,4,20,10,1,12,12,20,1,20,4,18,16,12,10,4,1,12,11,0,0,0,0,0,0,0,0,0,0,0,0,0,0,0,0,0,0,0,0,0,0,0,0,0,0,0,0,0,0,0,0],"split_type":[0,0,0,0,0,0,0,0,0,0,0,0,0,0,0,0,0,0,0,0,0,0,0,0,0,0,0,0,0,0,0,0,0,0,0,0,0,0,0,0,0,0,0,0,0,0,0,0,0,0,0,0,0,0,0,0,0,0,0,0,0,0,0],"sum_hessian":[8.811E3,6.737E3,2.074E3,2.874E3,3.863E3,1.936E3,1.38E2,8.77E2,1.997E3,2.07E3,1.793E3,1.426E3,5.1E2,1.02E2,3.6E1,2E2,6.77E2,5.24E2,1.473E3,1.105E3,9.65E2,1.002E3,7.91E2,4.46E2,9.8E2,2.44E2,2.66E2,8.7E1,1.5E1,2E0,3.4E1,1.56E2,4.4E1,4.23E2,2.54E2,1.84E2,3.4E2,3.83E2,1.09E3,2.09E2,8.96E2,7.93E2,1.72E2,1.75E2,8.27E2,7.82E2,9E0,2.57E2,1.89E2,4.71E2,5.09E2,2.18E2,2.6E1,1.19E2,1.47E2,7.7E1,1E1,6E0,9E0,1E0,1E0,2.4E1,1E1],"tree_param":{"num_deleted":"0","num_feature":"21","num_nodes":"63","size_leaf_vector":"1"}},{"base_weights":[3.970528E-3,-1.504381E-1,8.1061596E-1,-3.749355E-1,7.258147E-2,5.875787E-1,2.3915725E0,-5.369804E-1,-2.6841757E-1,-2.541779E-2,2.1320584E-1,4.4688997E-1,8.077737E-1,6.6248407E0,2.037103E0,-6.270061E-1,-4.5360103E-1,-3.6361337E-1,-1.7897347E-1,-2.168786E-1,1.2593628E-2,6.985647E-2,3.0376452E-1,5.282455E-2,4.8382846E-1,4.7240883E-1,9.1185725E-1,1.657197E0,1.7387742E0,1.5909612E0,3.8710895E0,-8.77681E-2,-5.9445836E-2,-3.730649E-2,-5.3997107E-2,-4.3376636E-2,-3.0544782E-2,-1.5954806E-2,-4.2243548E-2,-2.9699529E-2,-4.510636E-3,-1.0528694E-2,6.9554164E-3,1.7458265E-1,6.117203E-3,1.3642835E-2,3.3783536E-2,1.7514927E-2,-3.40387E-2,5.174444E-2,2.0861778E-2,1.8623663E-2,6.789193E-2,-2.4713077E-2,9.3844675E-2,4.4047125E-2,3.372168E-1,1.1113347E-1,2.3074766E-1,4.952076E-1,3.2797867E-1],"categories":[],"categories_nodes":[],"categories_segments":[],"categories_sizes":[],"default_left":[0,0,0,0,0,0,0,0,0,0,0,0,1,0,0,0,0,0,0,0,0,0,0,0,0,0,0,0,0,0,0,0,0,0,0,0,0,0,0,0,0,0,0,0,0,0,0,0,0,0,0,0,0,0,0,0,0,0,0,0,0],"id":6,"left_children":[1,3,5,7,9,11,13,15,17,19,21,23,25,27,29,31,33,35,37,39,41,43,45,47,49,51,53,55,-1,57,59,-1,-1,-1,-1,-1,-1,-1,-1,-1,-1,-1,-1,-1,-1,-1,-1,-1,-1,-1,-1,-1,-1,-1,-1,-1,-1,-1,-1,-1,-1],"loss_changes":[1.0930747E3,3.6882306E2,4.9577795E2,6.3219788E1,5.0940308E1,3.7960022E1,2.4760278E2,1.0637238E1,1.8812027E1,1.5860832E1,1.9684738E1,1.0993469E1,1.6358978E1,6.662464E2,1.26392456E2,5.1650085E0,5.0780945E0,4.245865E0,5.347706E0,4.9546204E0,1.2221073E1,8.466018E0,5.256119E0,3.2341847E0,6.2940826E0,6.728874E0,1.1510895E1,1.9381151E1,0E0,4.2798737E1,3.5731812E0,0E0,0E0,0E0,0E0,0E0,0E0,0E0,0E0,0E0,0E0,0E0,0E0,0E0,0E0,0E0,0E0,0E0,0E0,0E0,0E0,0E0,0E0,0E0,0E0,0E0,0E0,0E0,0E0,0E0,0E0],"parents":[2147483647,0,0,1,1,2,2,3,3,4,4,5,5,6,6,7,7,8,8,9,9,10,10,11,11,12,12,13,13,14,14,15,15,16,16,17,17,18,18,19,19,20,20,21,21,22,22,23,23,24,24,25,25,26,26,27,27,29,29,30,30],"right_children":[2,4,6,8,10,12,14,16,18,20,22,24,26,28,30,32,34,36,38,40,42,44,46,48,50,52,54,56,-1,58,60,-1,-1,-1,-1,-1,-1,-1,-1,-1,-1,-1,-1,-1,-1,-1,-1,-1,-1,-1,-1,-1,-1,-1,-1,-1,-1,-1,-1,-1,-1],"split_conditions":[2.1672413E0,1.0269058E0,4.1702127E0,4.8370928E-1,1.5052817E0,2.7669172E0,9.4E0,5.361842E-1,9.8366606E-1,5.06812E-1,1.4619377E0,6.6484517E-1,1.3555578E0,6.5E0,7.3455377E0,-1.8114144E-1,1.3751314E0,5.7505774E-1,2.2565367E0,1.4E1,1.2785715E0,3.5227272E-1,1.15674E0,1.4573197E0,2.9076922E0,1.22E1,4.857143E-1,7.3455377E0,1.7387742E0,1.4E1,1.8445721E0,-8.77681E-2,-5.9445836E-2,-3.730649E-2,-5.3997107E-2,-4.3376636E-2,-3.0544782E-2,-1.5954806E-2,-4.2243548E-2,-2.9699529E-2,-4.510636E-3,-1.0528694E-2,6.9554164E-3,1.7458265E-1,6.117203E-3,1.3642835E-2,3.3783536E-2,1.7514927E-2,-3.40387E-2,5.174444E-2,2.0861778E-2,1.8623663E-2,6.789193E-2,-2.4713077E-2,9.3844675E-2,4.4047125E-2,3.372168E-1,1.1113347E-1,2.3074766E-1,4.952076E-1,3.2797867E-1],"split_indices":[18,18,18,18,20,18,2,20,20,20,18,20,15,3,18,18,15,20,15,12,18,19,14,14,19,2,20,18,0,2,14,0,0,0,0,0,0,0,0,0,0,0,0,0,0,0,0,0,0,0,0,0,0,0,0,0,0,0,0,0,0],"split_type":[0,0,0,0,0,0,0,0,0,0,0,0,0,0,0,0,0,0,0,0,0,0,0,0,0,0,0,0,0,0,0,0,0,0,0,0,0,0,0,0,0,0,0,0,0,0,0,0,0,0,0,0,0,0,0,0,0,0,0,0,0],"sum_hessian":[8.774E3,7.365E3,1.409E3,3.67E3,3.695E3,1.236E3,1.73E2,1.454E3,2.216E3,2.178E3,1.517E3,7.56E2,4.8E2,1.2E1,1.61E2,6.96E2,7.58E2,1.072E3,1.144E3,3.6E2,1.818E3,5.88E2,9.29E2,6.5E1,6.91E2,1.15E2,3.65E2,9E0,3E0,1.31E2,3E1,7.7E1,6.19E2,3.95E2,3.63E2,4.83E2,5.89E2,1.061E3,8.3E1,2.45E2,1.15E2,5.92E2,1.226E3,2E0,5.86E2,1.58E2,7.71E2,5E1,1.5E1,6.15E2,7.6E1,4.9E1,6.6E1,8E0,3.57E2,6E0,3E0,8E1,5.1E1,8E0,2.2E1],"tree_param":{"num_deleted":"0","num_feature":"21","num_nodes":"61","size_leaf_vector":"1"}},{"base_weights":[1.2094999E-3,-1.4109944E-1,7.7235365E-1,-3.126518E-1,8.706753E-2,5.5178106E-1,2.2640524E0,-4.644316E-1,-2.0564674E-1,1.1636306E-2,2.0086263E-1,4.6225932E-1,8.3090067E-1,6.554202E0,1.9363338E0,-6.439902E-1,-4.308684E-1,-1.1278233E-1,-2.427286E-1,8.792566E-2,-4.5364115E-2,1.6800347E-1,3.5920838E-1,6.320687E-1,4.1165218E-1,6.261879E-1,1.0803001E0,1.5906429E0,1.608366E0,1.5450823E0,3.5019622E0,-5.9019607E-2,-8.2422644E-2,-2.9404446E-2,-4.6312645E-2,-3.4839388E-2,-2.6764295E-3,-4.5675155E-2,-2.0033985E-2,3.8515398E-4,2.5855994E-2,-2.6585499E-2,3.2191293E-3,2.3937497E-2,3.6349174E-4,6.718009E-2,3.42372E-2,-7.192677E-2,6.489255E-2,4.741576E-2,7.739702E-3,4.038435E-2,8.275937E-2,1.2743822E-1,6.808167E-2,-3.4661412E-3,2.897819E-1,1.0981146E-1,2.1589981E-1,9.657934E-2,3.6388472E-1],"categories":[],"categories_nodes":[],"categories_segments":[],"categories_sizes":[],"default_left":[0,0,0,0,0,0,0,0,0,0,0,0,1,0,0,0,0,0,0,0,0,0,0,0,0,0,0,0,0,0,0,0,0,0,0,0,0,0,0,0,0,0,0,0,0,0,0,0,0,0,0,0,0,0,0,0,0,0,0,0,0],"id":7,"left_children":[1,3,5,7,9,11,13,15,17,19,21,23,25,27,29,31,33,35,37,39,41,43,45,47,49,51,53,55,-1,57,59,-1,-1,-1,-1,-1,-1,-1,-1,-1,-1,-1,-1,-1,-1,-1,-1,-1,-1,-1,-1,-1,-1,-1,-1,-1,-1,-1,-1,-1,-1],"loss_changes":[9.5869403E2,2.887038E2,4.4655762E2,6.828E1,2.7173666E1,2.9275787E1,2.3335217E2,1.0208771E1,8.48172E0,8.28793E0,6.505974E0,7.4826202E0,1.3976379E1,5.42017E2,9.504816E1,2.1507645E0,6.3475037E0,1.4319334E1,1.5920876E1,1.1690935E1,1.8664942E1,1.2281729E1,9.067879E-1,5.136505E0,1.4525536E1,6.830818E0,9.056549E0,1.922147E1,0E0,3.412445E1,7.5948486E0,0E0,0E0,0E0,0E0,0E0,0E0,0E0,0E0,0E0,0E0,0E0,0E0,0E0,0E0,0E0,0E0,0E0,0E0,0E0,0E0,0E0,0E0,0E0,0E0,0E0,0E0,0E0,0E0,0E0,0E0],"parents":[2147483647,0,0,1,1,2,2,3,3,4,4,5,5,6,6,7,7,8,8,9,9,10,10,11,11,12,12,13,13,14,14,15,15,16,16,17,17,18,18,19,19,20,20,21,21,22,22,23,23,24,24,25,25,26,26,27,27,29,29,30,30],"right_children":[2,4,6,8,10,12,14,16,18,20,22,24,26,28,30,32,34,36,38,40,42,44,46,48,50,52,54,56,-1,58,60,-1,-1,-1,-1,-1,-1,-1,-1,-1,-1,-1,-1,-1,-1,-1,-1,-1,-1,-1,-1,-1,-1,-1,-1,-1,-1,-1,-1,-1,-1],"split_conditions":[2.1875E0,1.1560694E0,4.1702127E0,5.638298E-1,1.6678383E0,3.0980392E0,9.4E0,8E-3,1E1,9E0,1.9E1,6.7E1,1.6393641E0,2.2E2,7.3455377E0,7E0,1.1E1,3E0,1.4E1,4E1,1.4E1,9E0,1.0536065E0,1.2941177E0,1.1E1,1.28E1,2.3746989E0,7.3455377E0,1.608366E0,1.4E1,1.012E3,-5.9019607E-2,-8.2422644E-2,-2.9404446E-2,-4.6312645E-2,-3.4839388E-2,-2.6764295E-3,-4.5675155E-2,-2.0033985E-2,3.8515398E-4,2.5855994E-2,-2.6585499E-2,3.2191293E-3,2.3937497E-2,3.6349174E-4,6.718009E-2,3.42372E-2,-7.192677E-2,6.489255E-2,4.741576E-2,7.739702E-3,4.038435E-2,8.275937E-2,1.2743822E-1,6.808167E-2,-3.4661412E-3,2.897819E-1,1.0981146E-1,2.1589981E-1,9.657934E-2,3.6388472E-1],"split_indices":[18,18,18,18,18,18,2,18,12,12,12,4,15,6,18,10,12,12,12,13,12,12,15,19,12,2,14,18,0,2,8,0,0,0,0,0,0,0,0,0,0,0,0,0,0,0,0,0,0,0,0,0,0,0,0,0,0,0,0,0,0],"split_type":[0,0,0,0,0,0,0,0,0,0,0,0,0,0,0,0,0,0,0,0,0,0,0,0,0,0,0,0,0,0,0,0,0,0,0,0,0,0,0,0,0,0,0,0,0,0,0,0,0,0,0,0,0,0,0,0,0,0,0,0,0],"sum_hessian":[8.734E3,7.374E3,1.36E3,4.209E3,3.165E3,1.186E3,1.74E2,1.739E3,2.47E3,1.904E3,1.261E3,9E2,2.86E2,1.1E1,1.63E2,2.71E2,1.468E3,7.06E2,1.764E3,8.14E2,1.09E3,1.046E3,2.15E2,2.04E2,6.96E2,1.59E2,1.27E2,8E0,3E0,1.32E2,3.1E1,2.12E2,5.9E1,2.82E2,1.186E3,1.88E2,5.18E2,2.9E2,1.474E3,5.46E2,2.68E2,2.83E2,8.07E2,7.29E2,3.17E2,9E0,2.06E2,2E0,2.02E2,5.86E2,1.1E2,7.7E1,8.2E1,8.4E1,4.3E1,4E0,4E0,7.8E1,5.4E1,2E0,2.9E1],"tree_param":{"num_deleted":"0","num_feature":"21","num_nodes":"61","size_leaf_vector":"1"}},{"base_weights":[1.9665952E-3,-1.4386018E-1,8.615517E-1,-3.6914492E-1,6.918568E-2,7.6042897E-1,4.36287E0,-5.4684347E-1,-2.8254083E-1,-5.7254862E-2,1.869711E-1,6.333025E-1,1.7445643E0,3.4995112E0,1.2693318E0,-6.690427E-1,-4.9388927E-1,-3.7450042E-1,-2.3716345E-1,-1.20126724E-1,-1.5732305E-2,1.4132021E-1,2.884591E-1,5.492719E-1,9.167691E-1,4.75458E0,1.6010523E0,7.297404E-2,3.5613303E0,-9.763255E-2,-6.2904164E-2,-4.906087E-2,-1.6362774E-1,-3.419208E-2,-4.2511757E-2,-2.1773836E-2,-3.1585827E-2,-5.036636E-3,-1.6809138E-2,1.996774E-3,-1.344464E-2,2.8727299E-2,1.0974975E-2,4.1560207E-2,1.9545302E-2,4.8234332E-2,6.51406E-2,9.898269E-2,3.8128152E-2,1.2467289E-1,7.8468555E-1,1.4184871E-1,2.3329298E-1,3.873796E-1,2.2976673E-1],"categories":[],"categories_nodes":[],"categories_segments":[],"categories_sizes":[],"default_left":[0,0,0,0,0,0,0,0,0,0,0,0,0,0,0,0,0,0,0,0,0,0,0,0,0,0,0,0,0,0,0,0,0,0,0,0,0,0,0,0,0,0,0,0,0,0,0,0,0,0,0,0,0,0,0],"id":8,"left_children":[1,3,5,7,9,11,13,15,17,19,21,23,25,27,-1,29,31,33,35,37,39,41,43,45,47,49,51,-1,53,-1,-1,-1,-1,-1,-1,-1,-1,-1,-1,-1,-1,-1,-1,-1,-1,-1,-1,-1,-1,-1,-1,-1,-1,-1,-1],"loss_changes":[1.1148661E3,3.64987E2,4.5342358E2,5.6724792E1,5.8226864E1,1.5590778E2,2.1449768E2,7.49942E0,1.0289154E1,4.9217033E0,9.336456E0,2.6007965E1,5.415988E1,3.2228088E0,0E0,3.8477325E0,2.37529E0,1.2068939E0,2.4810257E0,2.5010576E0,4.8214025E0,6.4101734E0,7.333088E0,5.57135E0,9.520355E0,5.5300552E1,1.51297E1,0E0,4.1293945E0,0E0,0E0,0E0,0E0,0E0,0E0,0E0,0E0,0E0,0E0,0E0,0E0,0E0,0E0,0E0,0E0,0E0,0E0,0E0,0E0,0E0,0E0,0E0,0E0,0E0,0E0],"parents":[2147483647,0,0,1,1,2,2,3,3,4,4,5,5,6,6,7,7,8,8,9,9,10,10,11,11,12,12,13,13,15,15,16,16,17,17,18,18,19,19,20,20,21,21,22,22,23,23,24,24,25,25,26,26,28,28],"right_children":[2,4,6,8,10,12,14,16,18,20,22,24,26,28,-1,30,32,34,36,38,40,42,44,46,48,50,52,-1,54,-1,-1,-1,-1,-1,-1,-1,-1,-1,-1,-1,-1,-1,-1,-1,-1,-1,-1,-1,-1,-1,-1,-1,-1,-1,-1],"split_conditions":[2.2362869E0,1.0266666E0,7.3455377E0,4.1873804E-1,1.4705882E0,4.1702127E0,1.0193E3,5.7251908E-2,6.415094E-1,1.1921709E0,1.9464594E0,3.1666667E0,9.4E0,1.012E3,1.2693318E0,-4.2696628E-1,2.6029413E0,6.252354E-1,1.2234637E0,1.0451263E0,1.611452E0,1.15625E0,1.7633137E0,2.6358025E0,4.194872E0,8.3E0,1.3E1,7.297404E-2,2.996551E0,-9.763255E-2,-6.2904164E-2,-4.906087E-2,-1.6362774E-1,-3.419208E-2,-4.2511757E-2,-2.1773836E-2,-3.1585827E-2,-5.036636E-3,-1.6809138E-2,1.996774E-3,-1.344464E-2,2.8727299E-2,1.0974975E-2,4.1560207E-2,1.9545302E-2,4.8234332E-2,6.51406E-2,9.898269E-2,3.8128152E-2,1.2467289E-1,7.8468555E-1,1.4184871E-1,2.3329298E-1,3.873796E-1,2.2976673E-1],"split_indices":[17,17,17,17,17,17,8,17,17,17,17,17,2,8,0,17,19,18,19,18,19,19,19,17,19,2,12,0,14,0,0,0,0,0,0,0,0,0,0,0,0,0,0,0,0,0,0,0,0,0,0,0,0,0,0],"split_type":[0,0,0,0,0,0,0,0,0,0,0,0,0,0,0,0,0,0,0,0,0,0,0,0,0,0,0,0,0,0,0,0,0,0,0,0,0,0,0,0,0,0,0,0,0,0,0,0,0,0,0,0,0,0,0],"sum_hessian":[8.892E3,7.603E3,1.289E3,3.695E3,3.908E3,1.254E3,3.5E1,1.209E3,2.486E3,1.885E3,2.023E3,1.112E3,1.42E2,3.3E1,2E0,3.62E2,8.47E2,8.19E2,1.667E3,7.49E2,1.136E3,1.397E3,6.26E2,8.6E2,2.52E2,5E0,1.37E2,1E0,3.2E1,3.9E1,3.23E2,8.46E2,1E0,5.03E2,3.16E2,1.34E3,3.27E2,3.06E2,4.43E2,8.74E2,2.62E2,2.47E2,1.15E3,2.63E2,3.63E2,5.23E2,3.37E2,2.21E2,3.1E1,3E0,2E0,1.12E2,2.5E1,2.4E1,8E0],"tree_param":{"num_deleted":"0","num_feature":"21","num_nodes":"55","size_leaf_vector":"1"}},{"base_weights":[2.5121646E-4,-1.6746226E-1,3.9416343E-1,-3.323415E-1,-5.666164E-2,2.9447797E-1,1.7943695E0,-4.2125875E-1,-2.4960567E-1,-1.0843509E-1,6.920928E-2,2.1464358E-1,4.8806083E-1,6.384221E0,1.5347126E0,-5.42564E-1,-3.639715E-1,-1.859799E-1,-3.4932563E-1,-2.6596415E-1,-8.1555E-2,1.5300706E-1,-3.678626E-2,1.1079139E-1,2.9758886E-1,3.183207E-1,5.7826936E-1,1.6759619E0,1.5242085E0,7.452783E-1,2.1771555E0,-9.069451E-2,-4.9823023E-2,-3.2720968E-2,-5.2535314E-2,-1.9769527E-3,-2.5554856E-2,-5.472215E-2,-3.2205764E-2,-1.1191237E-2,-3.4942362E-2,-1.28161E-2,1.06472E-3,1.9647863E-2,-8.308964E-3,-1.537688E-2,7.1820165E-3,6.4924597E-3,3.1037075E-2,1.8877812E-3,3.2982524E-2,2.6080891E-2,8.49023E-2,5.305025E-2,8.541009E-2,2.8309405E-1,-8.076566E-2,2.8644195E-2,1.0907471E-1,3.138675E-1,1.8250959E-1],"categories":[],"categories_nodes":[],"categories_segments":[],"categories_sizes":[],"default_left":[0,0,0,0,0,0,0,0,0,0,0,0,0,0,0,0,0,0,0,0,0,1,0,0,0,0,0,0,0,0,0,0,0,0,0,0,0,0,0,0,0,0,0,0,0,0,0,0,0,0,0,0,0,0,0,0,0,0,0,0,0],"id":9,"left_children":[1,3,5,7,9,11,13,15,17,19,21,23,25,27,29,31,33,35,37,39,41,43,45,47,49,51,53,55,-1,57,59,-1,-1,-1,-1,-1,-1,-1,-1,-1,-1,-1,-1,-1,-1,-1,-1,-1,-1,-1,-1,-1,-1,-1,-1,-1,-1,-1,-1,-1,-1],"loss_changes":[5.798471E2,1.12443405E2,3.6531122E2,1.8095215E1,2.4008774E1,3.7728027E1,1.9757288E2,8.079056E0,8.081703E0,1.1030079E1,9.545101E0,1.4912407E1,1.0748688E1,3.4980096E2,8.256705E1,5.686798E0,4.6454315E0,9.083494E0,2.5164757E0,4.846586E0,9.588365E0,6.1744213E0,6.045944E0,7.046788E0,8.654968E0,7.4089756E0,5.6735535E0,2.2366116E1,0E0,1.1734604E1,2.5076202E1,0E0,0E0,0E0,0E0,0E0,0E0,0E0,0E0,0E0,0E0,0E0,0E0,0E0,0E0,0E0,0E0,0E0,0E0,0E0,0E0,0E0,0E0,0E0,0E0,0E0,0E0,0E0,0E0,0E0,0E0],"parents":[2147483647,0,0,1,1,2,2,3,3,4,4,5,5,6,6,7,7,8,8,9,9,10,10,11,11,12,12,13,13,14,14,15,15,16,16,17,17,18,18,19,19,20,20,21,21,22,22,23,23,24,24,25,25,26,26,27,27,29,29,30,30],"right_children":[2,4,6,8,10,12,14,16,18,20,22,24,26,28,30,32,34,36,38,40,42,44,46,48,50,52,54,56,-1,58,60,-1,-1,-1,-1,-1,-1,-1,-1,-1,-1,-1,-1,-1,-1,-1,-1,-1,-1,-1,-1,-1,-1,-1,-1,-1,-1,-1,-1,-1,-1],"split_conditions":[1.6793103E0,7.5418997E-1,4.1702127E0,6.6484517E-1,1.6068965E0,2.5067115E0,9.4E0,1.3E1,5E0,4.2168674E-1,4E0,1.4858934E0,1.5471698E0,6.5E0,1.4E1,-1.8114144E-1,6E0,1.1E1,2E0,1E0,1.3058419E0,1.8072912E0,1.1921709E0,1.9E1,1E0,1.8E1,3.367347E0,1.3E1,1.5242085E0,1.7209054E0,1.220202E0,-9.069451E-2,-4.9823023E-2,-3.2720968E-2,-5.2535314E-2,-1.9769527E-3,-2.5554856E-2,-5.472215E-2,-3.2205764E-2,-1.1191237E-2,-3.4942362E-2,-1.28161E-2,1.06472E-3,1.9647863E-2,-8.308964E-3,-1.537688E-2,7.1820165E-3,6.4924597E-3,3.1037075E-2,1.8877812E-3,3.2982524E-2,2.6080891E-2,8.49023E-2,5.305025E-2,8.541009E-2,2.8309405E-1,-8.076566E-2,2.8644195E-2,1.0907471E-1,3.138675E-1,1.8250959E-1],"split_indices":[18,18,18,20,20,18,2,12,1,20,1,20,20,3,2,20,1,12,12,1,18,16,18,12,1,12,20,12,0,16,20,0,0,0,0,0,0,0,0,0,0,0,0,0,0,0,0,0,0,0,0,0,0,0,0,0,0,0,0,0,0],"split_type":[0,0,0,0,0,0,0,0,0,0,0,0,0,0,0,0,0,0,0,0,0,0,0,0,0,0,0,0,0,0,0,0,0,0,0,0,0,0,0,0,0,0,0,0,0,0,0,0,0,0,0,0,0,0,0,0,0,0,0,0,0],"sum_hessian":[8.775E3,6.155E3,2.62E3,2.473E3,3.682E3,2.447E3,1.73E2,1.19E3,1.283E3,2.609E3,1.073E3,1.734E3,7.13E2,8E0,1.65E2,3.79E2,8.11E2,7.85E2,4.98E2,3.79E2,2.23E3,5.99E2,4.74E2,7.71E2,9.63E2,2.49E2,4.64E2,6E0,2E0,7.5E1,9E1,3.9E1,3.4E2,6.63E2,1.48E2,2.32E2,5.53E2,5.8E1,4.4E2,1.34E2,2.45E2,1.481E3,7.49E2,5.06E2,9.3E1,2.28E2,2.46E2,6.28E2,1.43E2,1E2,8.63E2,2.26E2,2.3E1,3.98E2,6.6E1,4E0,2E0,3.3E1,4.2E1,2.2E1,6.8E1],"tree_param":{"num_deleted":"0","num_feature":"21","num_nodes":"61","size_leaf_vector":"1"}},{"base_weights":[-6.7785988E-3,-1.862293E-1,4.2957258E-1,-3.2080853E-1,-2.5246574E-2,3.6292624E-1,2.2171102E0,-4.8798218E-1,-2.6243582E-1,-1.0389735E-1,3.325035E-2,2.5360027E-1,6.96582E-1,1.6155535E0,3.195779E0,-8.578018E-1,-4.716103E-1,-3.1654623E-1,-2.1181458E-1,-3.8036134E-2,-1.8076557E-1,1.4486957E-1,-1.4993641E-2,1.9166616E-1,3.7241143E-1,5.949851E-1,9.0498066E-1,1.7759087E0,5.2736783E-1,4.003999E0,2.5047858E0,-1.0368264E-1,-4.1335043E-2,-4.783645E-2,8.273861E-3,-4.048939E-2,-2.9906893E-2,-1.882744E-2,-2.9428715E-2,-5.426208E-2,-3.1738281E-3,-1.6493184E-2,-3.352481E-2,9.910833E-3,2.4561435E-2,-7.2494056E-4,-4.0786006E-2,2.4305642E-2,6.5106126E-3,-1.1532699E-2,3.859491E-2,6.0711365E-2,-5.1612914E-2,9.6695505E-2,2.7022421E-2,5.4177273E-2,1.8694144E-1,-8.129409E-2,1.0264476E-1,2.6114258E-1,4.7220016E-1,2.62125E-1,9.3225025E-2],"categories":[],"categories_nodes":[],"categories_segments":[],"categories_sizes":[],"default_left":[0,0,0,0,0,0,0,0,0,0,0,0,0,0,0,0,0,0,0,0,0,0,0,0,0,0,0,0,0,0,0,0,0,0,0,0,0,0,0,0,0,0,0,0,0,0,0,0,0,0,0,0,0,0,0,0,0,0,0,0,0,0,0],"id":10,"left_children":[1,3,5,7,9,11,13,15,17,19,21,23,25,27,29,31,33,35,37,39,41,43,45,47,49,51,53,55,57,59,61,-1,-1,-1,-1,-1,-1,-1,-1,-1,-1,-1,-1,-1,-1,-1,-1,-1,-1,-1,-1,-1,-1,-1,-1,-1,-1,-1,-1,-1,-1,-1,-1],"loss_changes":[6.8922925E2,1.3511609E2,3.0477112E2,3.302115E1,1.3074409E1,9.006799E1,4.8999756E1,4.9114075E0,6.8355713E0,6.129035E0,8.779653E0,1.3652168E1,1.2376862E1,9.358719E0,8.958984E0,2.4358654E0,3.1959229E0,1.7565079E0,2.4781494E0,2.0610604E0,1.3120441E0,2.2438784E0,3.462393E0,7.971031E0,4.2571106E0,5.8790283E0,7.527771E0,4.8725433E0,6.8547306E0,1.6670532E0,1.402359E0,0E0,0E0,0E0,0E0,0E0,0E0,0E0,0E0,0E0,0E0,0E0,0E0,0E0,0E0,0E0,0E0,0E0,0E0,0E0,0E0,0E0,0E0,0E0,0E0,0E0,0E0,0E0,0E0,0E0,0E0,0E0,0E0],"parents":[2147483647,0,0,1,1,2,2,3,3,4,4,5,5,6,6,7,7,8,8,9,9,10,10,11,11,12,12,13,13,14,14,15,15,16,16,17,17,18,18,19,19,20,20,21,21,22,22,23,23,24,24,25,25,26,26,27,27,28,28,29,29,30,30],"right_children":[2,4,6,8,10,12,14,16,18,20,22,24,26,28,30,32,34,36,38,40,42,44,46,48,50,52,54,56,58,60,62,-1,-1,-1,-1,-1,-1,-1,-1,-1,-1,-1,-1,-1,-1,-1,-1,-1,-1,-1,-1,-1,-1,-1,-1,-1,-1,-1,-1,-1,-1,-1,-1],"split_conditions":[1.6906977E0,9.642005E-1,5.071429E0,3.0498534E-1,1.2403846E0,2.6746411E0,7.3455377E0,-2.7099237E-1,6.603774E-1,1.1346154E0,1.15625E0,2.1862528E0,3.4363637E0,7.3455377E0,1.84E1,1.3E1,1.7871901E0,2.6958525E-1,1.1692573E0,8.3E0,1.6598295E0,1.4705882E0,2.674938E0,2.0627177E0,9.4E0,5.726829E0,5.072727E0,2.2040815E0,1.39E1,1.180212E0,2.461754E0,-1.0368264E-1,-4.1335043E-2,-4.783645E-2,8.273861E-3,-4.048939E-2,-2.9906893E-2,-1.882744E-2,-2.9428715E-2,-5.426208E-2,-3.1738281E-3,-1.6493184E-2,-3.352481E-2,9.910833E-3,2.4561435E-2,-7.2494056E-4,-4.0786006E-2,2.4305642E-2,6.5106126E-3,-1.1532699E-2,3.859491E-2,6.0711365E-2,-5.1612914E-2,9.6695505E-2,2.7022421E-2,5.4177273E-2,1.8694144E-1,-8.129409E-2,1.0264476E-1,2.6114258E-1,4.7220016E-1,2.62125E-1,9.3225025E-2],"split_indices":[17,17,17,17,17,17,17,20,17,18,19,17,17,19,7,12,19,20,19,2,14,17,18,19,2,19,19,19,2,20,15,0,0,0,0,0,0,0,0,0,0,0,0,0,0,0,0,0,0,0,0,0,0,0,0,0,0,0,0,0,0,0,0],"split_type":[0,0,0,0,0,0,0,0,0,0,0,0,0,0,0,0,0,0,0,0,0,0,0,0,0,0,0,0,0,0,0,0,0,0,0,0,0,0,0,0,0,0,0,0,0,0,0,0,0,0,0,0,0,0,0,0,0,0,0,0,0,0,0],"sum_hessian":[8.8E3,6.236E3,2.564E3,3.396E3,2.84E3,2.473E3,9.1E1,8.77E2,2.519E3,1.211E3,1.629E3,1.864E3,6.09E2,5.8E1,3.3E1,3.5E1,8.42E2,1.215E3,1.304E3,6.53E2,5.58E2,4.91E2,1.138E3,1.227E3,6.37E2,4.12E2,1.97E2,5E1,8E0,1.3E1,2E1,2.4E1,1.1E1,8.32E2,1E1,1.97E2,1.018E3,1.017E3,2.87E2,7E0,6.46E2,5.08E2,5E1,3.39E2,1.52E2,1.117E3,2.1E1,8.72E2,3.55E2,1.7E1,6.2E2,4.08E2,4E0,1.79E2,1.8E1,4E0,4.6E1,2E0,6E0,6E0,7E0,1.8E1,2E0],"tree_param":{"num_deleted":"0","num_feature":"21","num_nodes":"63","size_leaf_vector":"1"}},{"base_weights":[2.257835E-3,-1.6851231E-1,4.090016E-1,-3.150687E-1,-4.6876963E-2,3.2252026E-1,1.882328E0,-4.214104E-1,-2.4325421E-1,-1.1354993E-1,2.8440315E-2,2.3044948E-1,5.9351915E-1,5.8522124E0,1.6077931E0,-5.574882E-1,-3.8986957E-1,-2.835906E-1,-2.0166188E-1,-7.722898E-2,-1.8679053E-1,3.5465512E-2,-6.286424E-1,1.8501708E-1,3.4777334E-1,4.9647805E-1,7.923031E-1,1.5087094E0,1.4036316E0,1.288816E0,2.5739992E0,-8.688997E-2,-5.2052405E-2,-3.861719E-2,-1.4012541E-1,-2.5171414E-2,-3.2517757E-2,-2.058768E-2,7.265146E-2,-1.0327481E-2,1.8905783E-3,-2.7077934E-2,-1.474133E-2,1.055518E-2,-1.5517187E-3,-2.3658533E-2,-8.7942384E-2,2.2789681E-2,7.340129E-3,3.8778577E-2,1.4921567E-2,7.213515E-2,4.3458227E-2,1.838461E-2,8.396206E-2,-1.6688293E-2,2.8071246E-1,1.1770743E-1,2.4965493E-1,4.317949E-2,2.6274493E-1],"categories":[],"categories_nodes":[],"categories_segments":[],"categories_sizes":[],"default_left":[0,0,0,0,0,0,0,0,0,0,0,0,0,0,0,0,0,0,0,0,0,0,0,0,0,0,0,0,0,0,0,0,0,0,0,0,0,0,0,0,0,0,0,0,0,0,0,0,0,0,0,0,0,0,0,0,0,0,0,0,0],"id":11,"left_children":[1,3,5,7,9,11,13,15,17,19,21,23,25,27,29,31,33,35,37,39,41,43,45,47,49,51,53,55,-1,57,59,-1,-1,-1,-1,-1,-1,-1,-1,-1,-1,-1,-1,-1,-1,-1,-1,-1,-1,-1,-1,-1,-1,-1,-1,-1,-1,-1,-1,-1,-1],"loss_changes":[6.152039E2,1.11186584E2,3.3309344E2,2.1502197E1,1.7126974E1,6.1617157E1,1.486222E2,4.6712494E0,2.7797775E0,4.797819E0,7.417346E0,9.791382E0,1.1701599E1,2.9875235E2,3.890567E1,1.98806E0,2.9293518E0,1.0529022E0,3.4201736E0,3.0341883E0,1.941124E0,5.6687136E0,1.4633918E0,6.372658E0,4.033695E0,5.588051E0,5.718933E0,1.5697761E1,0E0,1.1231567E1,2.6440277E0,0E0,0E0,0E0,0E0,0E0,0E0,0E0,0E0,0E0,0E0,0E0,0E0,0E0,0E0,0E0,0E0,0E0,0E0,0E0,0E0,0E0,0E0,0E0,0E0,0E0,0E0,0E0,0E0,0E0,0E0],"parents":[2147483647,0,0,1,1,2,2,3,3,4,4,5,5,6,6,7,7,8,8,9,9,10,10,11,11,12,12,13,13,14,14,15,15,16,16,17,17,18,18,19,19,20,20,21,21,22,22,23,23,24,24,25,25,26,26,27,27,29,29,30,30],"right_children":[2,4,6,8,10,12,14,16,18,20,22,24,26,28,30,32,34,36,38,40,42,44,46,48,50,52,54,56,-1,58,60,-1,-1,-1,-1,-1,-1,-1,-1,-1,-1,-1,-1,-1,-1,-1,-1,-1,-1,-1,-1,-1,-1,-1,-1,-1,-1,-1,-1,-1,-1],"split_conditions":[1.6906977E0,8.269231E-1,4.5458517E0,3.9578456E-1,1.2403846E0,2.6358025E0,9.4E0,-4.1666668E-2,6.34103E-1,1.1685083E0,2.807175E0,2.2362869E0,3.3392856E0,6.5E0,7.3455377E0,-2.7099237E-1,2.6029413E0,5.816994E-1,2.8094406E0,1.1257367E0,1.0266666E0,1.3396226E0,3E0,2.0910623E0,2.674938E0,2.0291438E0,1.2784162E0,7.3455377E0,1.4036316E0,1.17E1,1.39E1,-8.688997E-2,-5.2052405E-2,-3.861719E-2,-1.4012541E-1,-2.5171414E-2,-3.2517757E-2,-2.058768E-2,7.265146E-2,-1.0327481E-2,1.8905783E-3,-2.7077934E-2,-1.474133E-2,1.055518E-2,-1.5517187E-3,-2.3658533E-2,-8.7942384E-2,2.2789681E-2,7.340129E-3,3.8778577E-2,1.4921567E-2,7.213515E-2,4.3458227E-2,1.838461E-2,8.396206E-2,-1.6688293E-2,2.8071246E-1,1.1770743E-1,2.4965493E-1,4.317949E-2,2.6274493E-1],"split_indices":[17,17,17,17,17,17,2,17,17,18,18,17,17,3,17,20,19,18,19,17,17,18,9,18,18,19,16,17,0,3,2,0,0,0,0,0,0,0,0,0,0,0,0,0,0,0,0,0,0,0,0,0,0,0,0,0,0,0,0,0,0],"split_type":[0,0,0,0,0,0,0,0,0,0,0,0,0,0,0,0,0,0,0,0,0,0,0,0,0,0,0,0,0,0,0,0,0,0,0,0,0,0,0,0,0,0,0,0,0,0,0,0,0,0,0,0,0,0,0,0,0,0,0,0,0],"sum_hessian":[8.855E3,6.237E3,2.618E3,2.828E3,3.409E3,2.474E3,1.44E2,1.138E3,1.69E3,1.808E3,1.601E3,1.848E3,6.26E2,8E0,1.36E2,2.11E2,9.27E2,8.55E2,8.35E2,1.21E3,5.98E2,1.585E3,1.6E1,1.334E3,5.14E2,4.23E2,2.03E2,6E0,2E0,1.04E2,3.2E1,2E1,1.91E2,9.25E2,2E0,4.88E2,3.67E2,8.32E2,3E0,9.52E2,2.58E2,1.89E2,4.09E2,6.67E2,9.18E2,7E0,9E0,9.63E2,3.71E2,4.27E2,8.7E1,8.9E1,3.34E2,1.5E1,1.88E2,3E0,3E0,9.7E1,7E0,1E0,3.1E1],"tree_param":{"num_deleted":"0","num_feature":"21","num_nodes":"61","size_leaf_vector":"1"}},{"base_weights":[3.9763753E-3,-1.9971743E-2,1.5031345E0,-1.4186034E-1,1.8952337E-1,5.1124163E0,1.2712461E0,-2.5104657E-1,-6.836859E-2,1.3502322E-1,4.1060668E-1,2.0263531E0,9.5804036E-1,9.372189E-1,2.2348049E0,-1.328042E-1,-2.8007913E-1,-1.1693688E-1,-2.9716566E-2,1.8539551E-1,6.8515316E-2,6.87613E-1,3.562134E-1,3.4415922E-1,1.0549868E0,5.547019E-1,1.2210319E0,-5.9105206E-2,2.3415833E0,-3.6975518E-2,1.6227782E-3,-4.5837373E-2,-2.4127597E-2,-4.7005415E-3,-1.4577868E-2,-3.4331845E-3,3.672937E-2,1.3854382E-2,2.8197566E-2,-9.69153E-3,1.7507877E-2,4.8496466E-2,1.13609925E-1,5.2875903E-2,2.41148E-2,5.6572794E-3,1.2904473E-1,-2.043541E-2,8.796079E-2,1.6482143E-1,7.011614E-2,7.450418E-2,2.609645E-1],"categories":[],"categories_nodes":[],"categories_segments":[],"categories_sizes":[],"default_left":[0,0,0,0,0,0,0,0,0,0,0,0,0,0,0,0,0,0,0,0,0,0,0,0,0,0,0,0,0,0,0,0,0,0,0,0,0,0,0,0,0,0,0,0,0,0,0,0,0,0,0,0,0],"id":12,"left_children":[1,3,5,7,9,11,13,15,17,19,21,23,-1,25,27,29,31,33,35,37,39,41,43,-1,45,47,49,-1,51,-1,-1,-1,-1,-1,-1,-1,-1,-1,-1,-1,-1,-1,-1,-1,-1,-1,-1,-1,-1,-1,-1,-1,-1],"loss_changes":[3.151061E2,2.2062428E2,1.0900009E2,4.3811485E1,3.823651E1,9.089462E1,4.006848E1,7.504837E0,6.1276636E0,8.533543E0,9.217316E0,4.6174564E0,0E0,1.007045E1,1.1341431E1,1.5367275E1,1.2086533E1,2.9116745E0,3.3474183E0,6.5266266E0,1.9426338E1,8.719299E0,1.0335571E1,0E0,1.1024303E0,1.103111E1,1.1280792E1,0E0,1.1750793E1,0E0,0E0,0E0,0E0,0E0,0E0,0E0,0E0,0E0,0E0,0E0,0E0,0E0,0E0,0E0,0E0,0E0,0E0,0E0,0E0,0E0,0E0,0E0,0E0],"parents":[2147483647,0,0,1,1,2,2,3,3,4,4,5,5,6,6,7,7,8,8,9,9,10,10,11,11,13,13,14,14,15,15,16,16,17,17,18,18,19,19,20,20,21,21,22,22,24,24,25,25,26,26,28,28],"right_children":[2,4,6,8,10,12,14,16,18,20,22,24,-1,26,28,30,32,34,36,38,40,42,44,-1,46,48,50,-1,52,-1,-1,-1,-1,-1,-1,-1,-1,-1,-1,-1,-1,-1,-1,-1,-1,-1,-1,-1,-1,-1,-1,-1,-1],"split_conditions":[4.5458517E0,1.4525386E0,9.4E0,6.785714E-1,2.6371527E0,6.5E0,7.3455377E0,1.1E1,1.02E0,9E0,1.2E2,2E1,9.5804036E-1,1.33E1,1.39E1,3E0,1.3E1,1E1,1E0,4E1,1.4E1,6E0,7E0,3.4415922E-1,1E0,1.4635811E0,2.610909E0,-5.9105206E-2,1.0124E3,-3.6975518E-2,1.6227782E-3,-4.5837373E-2,-2.4127597E-2,-4.7005415E-3,-1.4577868E-2,-3.4331845E-3,3.672937E-2,1.3854382E-2,2.8197566E-2,-9.69153E-3,1.7507877E-2,4.8496466E-2,1.13609925E-1,5.2875903E-2,2.41148E-2,5.6572794E-3,1.2904473E-1,-2.043541E-2,8.796079E-2,1.6482143E-1,7.011614E-2,7.450418E-2,2.609645E-1],"split_indices":[18,18,2,18,18,3,18,12,18,12,6,13,0,2,2,12,12,12,0,13,12,1,12,0,1,16,14,0,8,0,0,0,0,0,0,0,0,0,0,0,0,0,0,0,0,0,0,0,0,0,0,0,0],"split_type":[0,0,0,0,0,0,0,0,0,0,0,0,0,0,0,0,0,0,0,0,0,0,0,0,0,0,0,0,0,0,0,0,0,0,0,0,0,0,0,0,0,0,0,0,0,0,0,0,0,0,0,0,0],"sum_hessian":[8.775E3,8.638E3,1.37E2,5.461E3,3.177E3,7E0,1.3E2,2.196E3,3.265E3,2.55E3,6.27E2,5E0,2E0,9.8E1,3.2E1,4.34E2,1.762E3,1.446E3,1.819E3,1.45E3,1.1E3,1.01E2,5.26E2,1E0,4E0,4.3E1,5.5E1,1E0,3.1E1,1.67E2,2.67E2,3.13E2,1.449E3,4.23E2,1.023E3,1.799E3,2E1,9.78E2,4.72E2,4.31E2,6.69E2,7.1E1,3E1,2.09E2,3.17E2,1E0,3E0,1.3E1,3E1,2.9E1,2.6E1,5E0,2.6E1],"tree_param":{"num_deleted":"0","num_feature":"21","num_nodes":"53","size_leaf_vector":"1"}},{"base_weights":[5.0418377E-3,-1.0654551E-1,4.3990877E-1,-2.3823327E-1,1.576514E-2,3.4199035E-1,1.351673E0,-3.8080442E-1,-1.9559985E-1,-4.445319E-2,9.2074245E-2,2.7254334E-1,5.969098E-1,1.1425518E0,2.127376E0,-6.8466264E-1,-3.6603788E-1,-2.404325E-1,-1.5726468E-1,1.3981273E-2,-9.243191E-2,2.0846494E-1,4.7098737E-2,3.0450138E-1,1.0154773E-1,6.114578E-1,-5.262826E-1,1.270302E0,5.040881E-1,2.984168E-1,1.7312542E0,-7.135228E-2,1.4829111E-2,-3.5982795E-2,-8.9392655E-2,-2.0317594E-2,-2.98307E-2,-1.4052023E-2,-2.972046E-2,-4.5634364E-3,7.939122E-3,-8.5604135E-3,-6.266873E-2,1.8676234E-2,5.543662E-2,3.5945016E-3,2.948848E-2,2.3475036E-2,4.2685647E-2,-1.821155E-3,2.191584E-2,6.565227E-2,3.5645004E-2,-7.1722016E-2,1.1873377E-2,1.6957626E-1,1.0327863E-1,2.0870607E-1,2.7569652E-2,2.6926542E-2,1.7771281E-1],"categories":[],"categories_nodes":[],"categories_segments":[],"categories_sizes":[],"default_left":[0,0,0,0,0,0,0,0,0,0,0,0,0,0,0,0,0,0,0,0,0,0,0,0,0,0,0,0,0,0,0,0,0,0,0,0,0,0,0,0,0,0,0,0,0,0,0,0,0,0,0,0,0,0,0,0,0,0,0,0,0],"id":13,"left_children":[1,3,5,7,9,11,13,15,17,19,21,23,25,27,29,31,33,35,37,39,41,43,45,47,49,51,53,55,57,-1,59,-1,-1,-1,-1,-1,-1,-1,-1,-1,-1,-1,-1,-1,-1,-1,-1,-1,-1,-1,-1,-1,-1,-1,-1,-1,-1,-1,-1,-1,-1],"loss_changes":[4.296444E2,1.1349237E2,1.6095328E2,2.0549149E1,1.6794981E1,2.8764679E1,2.5957153E1,3.2492142E0,4.4547806E0,5.7290688E0,8.428567E0,6.996666E0,6.024536E0,1.0778595E1,7.051834E0,9.471779E-1,2.1238403E0,2.53331E0,3.2668571E0,3.5989206E0,4.0391607E0,3.267086E0,3.2063897E0,9.142548E0,2.8773248E0,3.7306824E0,7.009474E-1,9.970871E0,8.463044E0,0E0,1.3322906E0,0E0,0E0,0E0,0E0,0E0,0E0,0E0,0E0,0E0,0E0,0E0,0E0,0E0,0E0,0E0,0E0,0E0,0E0,0E0,0E0,0E0,0E0,0E0,0E0,0E0,0E0,0E0,0E0,0E0,0E0],"parents":[2147483647,0,0,1,1,2,2,3,3,4,4,5,5,6,6,7,7,8,8,9,9,10,10,11,11,12,12,13,13,14,14,15,15,16,16,17,17,18,18,19,19,20,20,21,21,22,22,23,23,24,24,25,25,26,26,27,27,28,28,30,30],"right_children":[2,4,6,8,10,12,14,16,18,20,22,24,26,28,30,32,34,36,38,40,42,44,46,48,50,52,54,56,58,-1,60,-1,-1,-1,-1,-1,-1,-1,-1,-1,-1,-1,-1,-1,-1,-1,-1,-1,-1,-1,-1,-1,-1,-1,-1,-1,-1,-1,-1,-1,-1],"split_conditions":[1.9871795E0,9.642005E-1,4.1702127E0,2.8E-1,1.4313725E0,2.9584055E0,7.3455377E0,-4.2696628E-1,6.34103E-1,1.125E0,1.4230769E0,2.7669172E0,5.726829E0,1.9805796E0,1.8445721E0,2.047486E0,1.6678383E0,5.816994E-1,1.4423869E0,1.1617647E0,2.7272727E0,2.8255813E0,4E-1,2.3629243E0,2.6746411E0,3.6643357E0,2.1E2,2E1,3.4363637E0,2.984168E-1,-8.455882E-2,-7.135228E-2,1.4829111E-2,-3.5982795E-2,-8.9392655E-2,-2.0317594E-2,-2.98307E-2,-1.4052023E-2,-2.972046E-2,-4.5634364E-3,7.939122E-3,-8.5604135E-3,-6.266873E-2,1.8676234E-2,5.543662E-2,3.5945016E-3,2.948848E-2,2.3475036E-2,4.2685647E-2,-1.821155E-3,2.191584E-2,6.565227E-2,3.5645004E-2,-7.1722016E-2,1.1873377E-2,1.6957626E-1,1.0327863E-1,2.0870607E-1,2.7569652E-2,2.6926542E-2,1.7771281E-1],"split_indices":[17,17,17,17,17,17,17,17,17,19,18,18,18,16,14,18,18,18,19,17,18,20,5,17,17,19,6,13,18,0,20,0,0,0,0,0,0,0,0,0,0,0,0,0,0,0,0,0,0,0,0,0,0,0,0,0,0,0,0,0,0],"split_type":[0,0,0,0,0,0,0,0,0,0,0,0,0,0,0,0,0,0,0,0,0,0,0,0,0,0,0,0,0,0,0,0,0,0,0,0,0,0,0,0,0,0,0,0,0,0,0,0,0,0,0,0,0,0,0,0,0,0,0,0,0],"sum_hessian":[8.852E3,7.045E3,1.807E3,3.392E3,3.653E3,1.633E3,1.74E2,7.79E2,2.613E3,2.042E3,1.611E3,1.285E3,3.48E2,1.39E2,3.5E1,3.4E1,7.45E2,1.202E3,1.411E3,9.21E2,1.121E3,4.48E2,1.163E3,1.082E3,2.03E2,3.44E2,4E0,1.15E2,2.4E1,9E0,2.6E1,3.3E1,1E0,7.38E2,7E0,7.34E2,4.68E2,1.262E3,1.49E2,4.82E2,4.39E2,1.108E3,1.3E1,4.23E2,2.5E1,1.114E3,4.9E1,6.91E2,3.91E2,1.01E2,1.02E2,2.91E2,5.3E1,3E0,1E0,3.9E1,7.6E1,2E0,2.2E1,1E0,2.5E1],"tree_param":{"num_deleted":"0","num_feature":"21","num_nodes":"61","size_leaf_vector":"1"}},{"base_weights":[5.4119243E-3,-8.647843E-2,4.3389523E-1,-1.8854927E-1,4.6169885E-2,3.8063687E-1,2.6086392E0,-2.9892495E-1,-1.437592E-1,-1.2311563E-2,1.05180666E-1,2.8231233E-1,6.852115E-1,1.0272782E0,2.1103914E0,-6.129866E-1,-2.8824085E-1,-1.9653966E-1,-1.1587137E-1,-6.7023514E-3,-5.9896225E-1,1.5248708E-1,1.2855635E-2,2.2575839E-1,3.999822E-1,5.8969796E-1,1.1083591E0,2.642179E0,1.651882E0,-6.491963E-2,2.5857827E-3,-2.8217245E-2,-6.988077E-2,-3.6437478E-2,-1.8812677E-2,-3.1877458E-3,-1.3429003E-2,1.2235261E-2,-2.6159612E-3,-4.1751593E-2,-8.783518E-2,1.3856994E-2,4.7130086E-2,-3.645741E-3,9.647345E-3,2.2115044E-3,2.4646591E-2,4.765648E-2,2.7258394E-2,7.964263E-2,4.242518E-2,1.309322E-1,4.8855342E-2,1.4309052E-1,2.95256E-1,1.8066023E-1,5.039909E-2],"categories":[],"categories_nodes":[],"categories_segments":[],"categories_sizes":[],"default_left":[0,0,0,0,0,0,0,0,0,0,0,0,0,0,0,0,0,0,0,0,0,0,0,0,0,0,0,0,0,0,0,0,0,0,0,0,0,0,0,0,0,0,0,0,0,0,0,0,0,0,0,0,0,0,0,0,0],"id":14,"left_children":[1,3,5,7,9,11,13,15,17,19,21,23,25,-1,27,29,31,33,35,37,39,41,43,45,47,49,51,53,55,-1,-1,-1,-1,-1,-1,-1,-1,-1,-1,-1,-1,-1,-1,-1,-1,-1,-1,-1,-1,-1,-1,-1,-1,-1,-1,-1,-1],"loss_changes":[3.46721E2,9.818381E1,1.7911227E2,2.0216446E1,1.0885864E1,4.529628E1,1.1961017E2,3.7894669E0,4.270851E0,5.2116632E0,6.855118E0,7.562607E0,1.4300446E1,0E0,4.413315E0,8.958149E-1,2.655571E0,1.3533134E0,2.9521408E0,3.9480698E0,3.9368677E-1,4.5402737E0,2.2013154E0,3.2795486E0,3.499504E0,1.0059647E1,7.7057037E0,1.414505E0,2.9967232E0,0E0,0E0,0E0,0E0,0E0,0E0,0E0,0E0,0E0,0E0,0E0,0E0,0E0,0E0,0E0,0E0,0E0,0E0,0E0,0E0,0E0,0E0,0E0,0E0,0E0,0E0,0E0,0E0],"parents":[2147483647,0,0,1,1,2,2,3,3,4,4,5,5,6,6,7,7,8,8,9,9,10,10,11,11,12,12,14,14,15,15,16,16,17,17,18,18,19,19,20,20,21,21,22,22,23,23,24,24,25,25,26,26,27,27,28,28],"right_children":[2,4,6,8,10,12,14,16,18,20,22,24,26,-1,28,30,32,34,36,38,40,42,44,46,48,50,52,54,56,-1,-1,-1,-1,-1,-1,-1,-1,-1,-1,-1,-1,-1,-1,-1,-1,-1,-1,-1,-1,-1,-1,-1,-1,-1,-1,-1,-1],"split_conditions":[2.074074E0,1.1257367E0,7.3455377E0,4.0374333E-1,1.5095891E0,3.1666667E0,5.071429E0,-4.2696628E-1,6.785714E-1,2.6371527E0,1.8924915E0,4E1,5.071429E0,1.0272782E0,1.84E1,1.5116279E0,1.4724919E0,2E0,6.4978904E-1,9.300518E-1,1.5136281E0,4E-1,1.7680141E0,8.7085515E-1,9E0,3.232406E0,2.7692335E0,1.3735901E0,6E0,-6.491963E-2,2.5857827E-3,-2.8217245E-2,-6.988077E-2,-3.6437478E-2,-1.8812677E-2,-3.1877458E-3,-1.3429003E-2,1.2235261E-2,-2.6159612E-3,-4.1751593E-2,-8.783518E-2,1.3856994E-2,4.7130086E-2,-3.645741E-3,9.647345E-3,2.2115044E-3,2.4646591E-2,4.765648E-2,2.7258394E-2,7.964263E-2,4.242518E-2,1.309322E-1,4.8855342E-2,1.4309052E-1,2.95256E-1,1.8066023E-1,5.039909E-2],"split_indices":[17,17,17,17,17,17,18,17,17,18,18,13,17,0,7,18,18,12,18,18,14,5,20,20,12,18,14,14,1,0,0,0,0,0,0,0,0,0,0,0,0,0,0,0,0,0,0,0,0,0,0,0,0,0,0,0,0],"split_type":[0,0,0,0,0,0,0,0,0,0,0,0,0,0,0,0,0,0,0,0,0,0,0,0,0,0,0,0,0,0,0,0,0,0,0,0,0,0,0,0,0,0,0,0,0,0,0,0,0,0,0,0,0,0,0,0,0],"sum_hessian":[8.804E3,7.25E3,1.554E3,4.097E3,3.153E3,1.518E3,3.6E1,1.181E3,2.916E3,1.584E3,1.569E3,1.149E3,3.69E2,1E0,3.5E1,3.7E1,1.144E3,1.006E3,1.91E3,1.57E3,1.4E1,1.037E3,5.32E2,7.78E2,3.71E2,3.03E2,6.6E1,1.4E1,2.1E1,3.5E1,2E0,1.129E3,1.5E1,4.6E1,9.6E2,3.44E2,1.566E3,2.05E2,1.365E3,1E1,4E0,9.95E2,4.2E1,3.35E2,1.97E2,7.2E1,7.06E2,2.3E2,1.41E2,1.33E2,1.7E2,4.9E1,1.7E1,4E0,1E1,1.8E1,3E0],"tree_param":{"num_deleted":"0","num_feature":"21","num_nodes":"57","size_leaf_vector":"1"}},{"base_weights":[8.138332E-4,-2.8040657E-2,8.049402E-1,-1.074191E-1,1.164829E-1,2.3802192E0,6.9747436E-1,-2.0634107E-1,-6.417911E-2,5.6736384E-2,1.9723897E-1,1.6829658E-1,1.0632854E1,4.1791287E-1,1.1476072E0,-1.5321341E-1,-2.570981E-1,-4.8348986E-2,-1.7406283E-1,4.5431492E-1,4.4129938E-2,1.5371037E-1,3.4889457E-1,3.834556E-1,-8.9187786E-2,1.2300845E0,2.8144428E-1,-1.490353E-1,4.7100034E-1,2.0088929E-1,1.3452377E0,-9.2132455E-3,-1.8264037E-2,-3.634168E-2,-2.3111317E-2,-9.848858E-3,-2.7600126E-3,-1.7685108E-2,3.272904E-2,1.3206844E-2,6.4561374E-2,3.507172E-3,2.7173588E-2,4.260367E-3,1.928043E-2,5.7151742E-2,2.7616367E-2,-6.1066896E-3,8.36702E-2,2.2400444E-2,-5.500756E-2,4.2341348E-2,1.4710197E-1,9.098356E-2,-3.3212006E-3,1.5938286E-1,7.37864E-2],"categories":[],"categories_nodes":[],"categories_segments":[],"categories_sizes":[],"default_left":[0,0,0,0,0,0,0,0,0,0,0,0,0,1,0,0,0,0,0,0,0,0,0,0,0,0,0,0,0,0,0,0,0,0,0,0,0,0,0,0,0,0,0,0,0,0,0,0,0,0,0,0,0,0,0,0,0],"id":15,"left_children":[1,3,5,7,9,11,13,15,17,19,21,23,25,27,29,31,33,35,37,39,41,43,45,47,-1,-1,-1,49,51,53,55,-1,-1,-1,-1,-1,-1,-1,-1,-1,-1,-1,-1,-1,-1,-1,-1,-1,-1,-1,-1,-1,-1,-1,-1,-1,-1],"loss_changes":[2.0362589E2,9.720376E1,4.9803635E1,2.337978E1,1.4482792E1,3.4504016E2,3.551059E1,4.4450684E0,6.613758E0,8.640776E0,8.376301E0,3.991693E0,1.7544098E1,5.427614E0,2.0123688E1,1.4480762E0,2.261528E0,3.4605713E0,7.274742E-1,3.1819391E0,3.445887E0,4.3093185E0,4.440571E0,2.8717897E0,0E0,0E0,0E0,2.516883E0,7.133957E0,3.3495224E0,1.2412857E1,0E0,0E0,0E0,0E0,0E0,0E0,0E0,0E0,0E0,0E0,0E0,0E0,0E0,0E0,0E0,0E0,0E0,0E0,0E0,0E0,0E0,0E0,0E0,0E0,0E0,0E0],"parents":[2147483647,0,0,1,1,2,2,3,3,4,4,5,5,6,6,7,7,8,8,9,9,10,10,11,11,12,12,13,13,14,14,15,15,16,16,17,17,18,18,19,19,20,20,21,21,22,22,23,23,27,27,28,28,29,29,30,30],"right_children":[2,4,6,8,10,12,14,16,18,20,22,24,26,28,30,32,34,36,38,40,42,44,46,48,-1,-1,-1,50,52,54,56,-1,-1,-1,-1,-1,-1,-1,-1,-1,-1,-1,-1,-1,-1,-1,-1,-1,-1,-1,-1,-1,-1,-1,-1,-1,-1],"split_conditions":[3.4363637E0,1.4525386E0,9.4E0,5.4151624E-1,4E0,6.5E0,1.4E1,4E0,6E0,1.0053E3,2.6371527E0,2.2620656E0,4E1,1.2778032E0,1.0132E3,2E1,-1.6241299E-2,8.269231E-1,6.48E1,1.4295504E0,1.9186434E0,1.7127072E0,9.4E0,1.9771974E0,-8.9187786E-2,1.2300845E0,2.8144428E-1,1.0149E3,1.12E1,3.66E0,2.886368E0,-9.2132455E-3,-1.8264037E-2,-3.634168E-2,-2.3111317E-2,-9.848858E-3,-2.7600126E-3,-1.7685108E-2,3.272904E-2,1.3206844E-2,6.4561374E-2,3.507172E-3,2.7173588E-2,4.260367E-3,1.928043E-2,5.7151742E-2,2.7616367E-2,-6.1066896E-3,8.36702E-2,2.2400444E-2,-5.500756E-2,4.2341348E-2,1.4710197E-1,9.098356E-2,-3.3212006E-3,1.5938286E-1,7.37864E-2],"split_indices":[18,18,2,18,1,3,2,1,1,8,18,16,13,15,8,13,19,18,7,15,14,18,7,15,0,0,0,8,3,18,14,0,0,0,0,0,0,0,0,0,0,0,0,0,0,0,0,0,0,0,0,0,0,0,0,0,0],"split_type":[0,0,0,0,0,0,0,0,0,0,0,0,0,0,0,0,0,0,0,0,0,0,0,0,0,0,0,0,0,0,0,0,0,0,0,0,0,0,0,0,0,0,0,0,0,0,0,0,0,0,0,0,0,0,0,0,0],"sum_hessian":[8.774E3,8.471E3,3.03E2,5.468E3,3.003E3,1.8E1,2.85E2,1.662E3,3.806E3,1.727E3,1.276E3,1.5E1,3E0,1.77E2,1.08E2,8.14E2,8.48E2,3.328E3,4.78E2,5.2E1,1.675E3,9.93E2,2.83E2,1.3E1,2E0,2E0,1E0,1.5E1,1.62E2,1.9E1,8.9E1,2.66E2,5.48E2,1.64E2,6.84E2,9.73E2,2.355E3,4.76E2,2E0,2E1,3.2E1,1.612E3,6.3E1,2.59E2,7.34E2,6.8E1,2.15E2,7E0,6E0,8E0,7E0,1.56E2,6E0,4E0,1.5E1,6.2E1,2.7E1],"tree_param":{"num_deleted":"0","num_feature":"21","num_nodes":"57","size_leaf_vector":"1"}},{"base_weights":[3.8853358E-3,-6.722909E-2,4.271958E-1,-1.629673E-1,4.417767E-2,3.7883765E-1,2.3399415E0,-2.6525298E-1,-1.2445057E-1,4.2756647E-3,1.0716056E-1,3.1598395E-1,8.8442767E-1,1.6862947E0,7.878546E-1,-3.6492926E-1,-2.3234652E-1,-1.21585466E-1,-6.4116514E-1,8.449334E-2,-3.5582855E-2,1.5142407E-1,-2.8477296E-2,2.3522127E-1,4.069339E-1,4.2471677E-1,1.0715497E0,1.9735672E0,8.28626E-1,-5.4366883E-2,-3.35485E-2,-2.0045938E-2,-3.061606E-2,-1.0565413E-2,-1.909238E-2,-7.3531987E-3,-7.1700335E-2,1.8263174E-2,5.778475E-3,-7.958424E-3,7.977212E-4,1.3991785E-2,4.090668E-2,-3.5508354E-3,7.567752E-2,2.6848912E-2,-3.50522E-3,4.2723745E-2,-2.5425453E-2,-1.2480495E-2,1.00795485E-1,9.024973E-2,1.668824E-1,1.24785425E-2,2.0597671E-1,-1.4399767E-3,9.358042E-2],"categories":[],"categories_nodes":[],"categories_segments":[],"categories_sizes":[],"default_left":[0,0,0,0,0,0,0,0,0,0,0,0,0,0,0,0,0,0,0,0,0,0,0,0,0,0,0,0,0,0,0,0,0,0,0,0,0,0,0,0,0,0,0,0,0,0,0,0,0,0,0,0,0,0,0,0,0],"id":16,"left_children":[1,3,5,7,9,11,13,15,17,19,21,23,25,27,-1,29,31,33,35,37,39,41,43,45,47,49,51,53,55,-1,-1,-1,-1,-1,-1,-1,-1,-1,-1,-1,-1,-1,-1,-1,-1,-1,-1,-1,-1,-1,-1,-1,-1,-1,-1,-1,-1],"loss_changes":[2.6475873E2,8.03213E1,1.1612204E2,1.5922806E1,8.747795E0,3.8966614E1,9.89435E1,3.5461578E0,4.2804604E0,6.819773E0,8.109451E0,7.9841843E0,1.12438965E1,5.5098114E0,0E0,1.2543678E0,1.9039879E0,3.215355E0,6.360493E-1,1.8452129E0,2.7319374E0,2.9606152E0,1.8654169E0,5.26939E0,7.035652E0,1.32663765E1,8.187073E0,3.0896225E0,8.266611E-1,0E0,0E0,0E0,0E0,0E0,0E0,0E0,0E0,0E0,0E0,0E0,0E0,0E0,0E0,0E0,0E0,0E0,0E0,0E0,0E0,0E0,0E0,0E0,0E0,0E0,0E0,0E0,0E0],"parents":[2147483647,0,0,1,1,2,2,3,3,4,4,5,5,6,6,7,7,8,8,9,9,10,10,11,11,12,12,13,13,15,15,16,16,17,17,18,18,19,19,20,20,21,21,22,22,23,23,24,24,25,25,26,26,27,27,28,28],"right_children":[2,4,6,8,10,12,14,16,18,20,22,24,26,28,-1,30,32,34,36,38,40,42,44,46,48,50,52,54,56,-1,-1,-1,-1,-1,-1,-1,-1,-1,-1,-1,-1,-1,-1,-1,-1,-1,-1,-1,-1,-1,-1,-1,-1,-1,-1,-1,-1],"split_conditions":[2.2362869E0,1.1111112E0,7.3455377E0,3.857143E-1,1.6793103E0,4.1702127E0,1.0193E3,8E-3,2.7690802E0,1.1466432E0,2.148148E0,2.7260869E0,1.5833334E0,2.886368E0,7.878546E-1,-4.2696628E-1,4.6812385E-1,1.1111112E0,1E0,8.6567163E-1,2.8E2,4E-1,3.8E0,2.9074075E0,5.072727E0,1.4E1,1.0195E3,1.012E3,2E1,-5.4366883E-2,-3.35485E-2,-2.0045938E-2,-3.061606E-2,-1.0565413E-2,-1.909238E-2,-7.3531987E-3,-7.1700335E-2,1.8263174E-2,5.778475E-3,-7.958424E-3,7.977212E-4,1.3991785E-2,4.090668E-2,-3.5508354E-3,7.567752E-2,2.6848912E-2,-3.50522E-3,4.2723745E-2,-2.5425453E-2,-1.2480495E-2,1.00795485E-1,9.024973E-2,1.668824E-1,1.24785425E-2,2.0597671E-1,-1.4399767E-3,9.358042E-2],"split_indices":[17,17,17,17,17,17,8,17,19,19,18,17,20,14,0,17,18,18,1,18,6,5,5,18,19,12,8,8,13,0,0,0,0,0,0,0,0,0,0,0,0,0,0,0,0,0,0,0,0,0,0,0,0,0,0,0,0],"split_type":[0,0,0,0,0,0,0,0,0,0,0,0,0,0,0,0,0,0,0,0,0,0,0,0,0,0,0,0,0,0,0,0,0,0,0,0,0,0,0,0,0,0,0,0,0,0,0,0,0,0,0,0,0,0,0,0,0],"sum_hessian":[8.793E3,7.529E3,1.264E3,4.049E3,3.48E3,1.234E3,3E1,1.106E3,2.943E3,2.131E3,1.349E3,1.099E3,1.35E2,2.8E1,2E0,2.72E2,8.34E2,2.928E3,1.5E1,7.07E2,1.424E3,1.017E3,3.32E2,5.84E2,5.15E2,4E1,9.5E1,2E1,8E0,3.6E1,2.36E2,5.85E2,2.49E2,2.383E3,5.45E2,2E0,1.3E1,1.5E2,5.57E2,7.08E2,7.16E2,9.75E2,4.2E1,3.3E2,2E0,5.2E2,6.4E1,5E2,1.5E1,2.1E1,1.9E1,7.6E1,1.9E1,1E0,1.9E1,1E0,7E0],"tree_param":{"num_deleted":"0","num_feature":"21","num_nodes":"57","size_leaf_vector":"1"}},{"base_weights":[-5.652297E-4,-6.3593425E-2,3.6414018E-1,-1.543605E-1,3.2720268E-2,3.195061E-1,1.9124978E0,-2.690144E-1,-1.2587929E-1,-2.8847763E-2,7.5203314E-2,2.3759903E-1,5.585978E-1,8.7501717E-1,1.4671307E0,-2.5691035E-1,-5.4731953E-1,-1.06065065E-1,-2.0966575E-1,2.0154523E-2,-1.0071327E-1,9.310016E-2,-1.12876475E-1,2.0149812E-1,3.4913474E-1,5.166786E-1,1.1954923E0,2.0003173E0,1.1738433E0,-2.3800861E-2,-3.897282E-2,-1.2245654E-2,-7.155609E-2,-1.3659489E-2,-4.1960957E-3,-1.9404572E-2,-4.9425095E-2,8.070349E-3,-2.078587E-3,-9.1980845E-3,-4.8861217E-2,1.9682927E-2,6.9254325E-3,-1.613438E-2,2.2302E-2,2.5501838E-2,1.23376055E-2,2.882008E-2,6.883404E-2,7.5679086E-2,4.2822275E-2,4.1468196E-2,1.725656E-1,2.156388E-1,2.1980597E-2,1.3410538E-1,5.522942E-2],"categories":[],"categories_nodes":[],"categories_segments":[],"categories_sizes":[],"default_left":[0,0,0,0,0,0,0,0,0,0,0,0,0,0,0,0,0,0,0,0,0,0,0,0,0,0,0,0,0,0,0,0,0,0,0,0,0,0,0,0,0,0,0,0,0,0,0,0,0,0,0,0,0,0,0,0,0],"id":17,"left_children":[1,3,5,7,9,11,13,15,17,19,21,23,25,-1,27,29,31,33,35,37,39,41,43,45,47,49,51,53,55,-1,-1,-1,-1,-1,-1,-1,-1,-1,-1,-1,-1,-1,-1,-1,-1,-1,-1,-1,-1,-1,-1,-1,-1,-1,-1,-1,-1],"loss_changes":[2.0154776E2,6.5361084E1,8.867839E1,1.2534981E1,9.491557E0,2.448349E1,9.679225E1,2.4363823E0,5.099369E0,5.221003E0,7.2373867E0,3.706543E0,7.925705E0,0E0,3.1251297E0,1.7524529E0,2.1282406E0,4.881119E0,2.5223331E0,2.1880662E0,1.9908233E0,4.836916E0,3.0803428E0,2.941309E0,4.514185E0,6.0901947E0,7.1495914E0,2.5827522E0,1.8575783E0,0E0,0E0,0E0,0E0,0E0,0E0,0E0,0E0,0E0,0E0,0E0,0E0,0E0,0E0,0E0,0E0,0E0,0E0,0E0,0E0,0E0,0E0,0E0,0E0,0E0,0E0,0E0,0E0],"parents":[2147483647,0,0,1,1,2,2,3,3,4,4,5,5,6,6,7,7,8,8,9,9,10,10,11,11,12,12,14,14,15,15,16,16,17,17,18,18,19,19,20,20,21,21,22,22,23,23,24,24,25,25,26,26,27,27,28,28],"right_children":[2,4,6,8,10,12,14,16,18,20,22,24,26,-1,28,30,32,34,36,38,40,42,44,46,48,50,52,54,56,-1,-1,-1,-1,-1,-1,-1,-1,-1,-1,-1,-1,-1,-1,-1,-1,-1,-1,-1,-1,-1,-1,-1,-1,-1,-1,-1,-1],"split_conditions":[2.2362869E0,1.0786749E0,7.3455377E0,2.8E-1,1.4313725E0,3.3392856E0,5.071429E0,8.892989E-1,1.1692573E0,1.3058419E0,2.392936E0,2.4629629E0,1.17E1,8.7501717E-1,7.3455377E0,7E0,2.2E2,8.028169E-1,2.3404255E0,9.746835E-1,2.674938E0,1.3396226E0,3.4367816E0,2.447934E0,2.7E1,6.8E1,3.8823528E0,1.89E1,1.0162E3,-2.3800861E-2,-3.897282E-2,-1.2245654E-2,-7.155609E-2,-1.3659489E-2,-4.1960957E-3,-1.9404572E-2,-4.9425095E-2,8.070349E-3,-2.078587E-3,-9.1980845E-3,-4.8861217E-2,1.9682927E-2,6.9254325E-3,-1.613438E-2,2.2302E-2,2.5501838E-2,1.23376055E-2,2.882008E-2,6.883404E-2,7.5679086E-2,4.2822275E-2,4.1468196E-2,1.725656E-1,2.156388E-1,2.1980597E-2,1.3410538E-1,5.522942E-2],"split_indices":[17,17,17,17,17,17,18,18,19,18,18,20,3,0,19,10,6,17,19,19,18,18,19,19,11,4,17,2,8,0,0,0,0,0,0,0,0,0,0,0,0,0,0,0,0,0,0,0,0,0,0,0,0,0,0,0,0],"split_type":[0,0,0,0,0,0,0,0,0,0,0,0,0,0,0,0,0,0,0,0,0,0,0,0,0,0,0,0,0,0,0,0,0,0,0,0,0,0,0,0,0,0,0,0,0,0,0,0,0,0,0,0,0,0,0,0,0],"sum_hessian":[8.766E3,7.475E3,1.291E3,3.848E3,3.627E3,1.256E3,3.5E1,7.64E2,3.084E3,1.481E3,2.146E3,9.37E2,3.19E2,1E0,3.4E1,7.34E2,3E1,2.496E3,5.88E2,8.81E2,6E2,1.96E3,1.86E2,7.1E2,2.27E2,3.01E2,1.8E1,1E1,2.4E1,6.45E2,8.9E1,9E0,2.1E1,1.69E3,8.06E2,5.59E2,2.9E1,3.55E2,5.26E2,5.88E2,1.2E1,3.65E2,1.595E3,1.63E2,2.3E1,4.2E2,2.9E2,1.94E2,3.3E1,7.9E1,2.22E2,8E0,1E1,9E0,1E0,1.8E1,6E0],"tree_param":{"num_deleted":"0","num_feature":"21","num_nodes":"57","size_leaf_vector":"1"}},{"base_weights":[4.6497914E-3,-1.8735427E-2,4.920233E-1,-1.1468344E-1,4.7174923E-2,1.8042977E0,3.9698777E-1,-1.3804339E-1,-6.287518E-3,-2.4681713E-2,1.10945135E-1,4.9493393E-1,6.3045816E0,2.871262E-1,9.417379E-1,-7.8354366E-2,-1.6462007E-1,-5.709833E-2,1.2853569E-1,-1.6440158E-1,-1.0737419E-2,7.4409746E-2,2.0614465E-1,7.9060525E-1,-1.0332383E-1,3.0458538E-2,9.228434E0,2.4527302E-1,7.0885646E-1,-7.0889974E-1,1.0360848E0,-1.0859198E-2,6.5391897E-3,-3.053683E-2,-1.1419642E-2,-1.0407592E-2,-2.0444393E-6,7.678918E-3,2.5158262E-2,-2.2189204E-2,-5.7847826E-3,8.897124E-3,-5.1666824E-3,3.6987618E-3,1.3125843E-2,2.0048264E-2,1.5170711E-1,2.2675205E-2,1.5375595E-1,1.0856596E0,2.1719733E-1,-2.2946278E-2,2.77652E-2,8.62475E-2,1.8429756E-4,-1.0221284E-1,1.1539317E-2,1.831501E-1,8.598055E-2],"categories":[],"categories_nodes":[],"categories_segments":[],"categories_sizes":[],"default_left":[0,0,0,0,0,0,0,0,0,0,0,0,0,0,0,1,0,0,0,0,0,0,0,0,0,0,0,0,0,0,0,0,0,0,0,0,0,0,0,0,0,0,0,0,0,0,0,0,0,0,0,0,0,0,0,0,0,0,0],"id":18,"left_children":[1,3,5,7,9,11,13,15,17,19,21,23,25,27,29,31,33,35,37,39,41,43,45,47,-1,-1,49,51,53,55,57,-1,-1,-1,-1,-1,-1,-1,-1,-1,-1,-1,-1,-1,-1,-1,-1,-1,-1,-1,-1,-1,-1,-1,-1,-1,-1,-1,-1],"loss_changes":[1.0056791E2,5.3253212E1,4.9667656E1,8.681786E0,2.2877644E1,1.5597739E2,2.2351803E1,4.4621506E0,4.1792793E0,4.5728307E0,9.184368E0,1.075729E1,1.0244777E2,5.403778E0,1.0545628E1,3.7929401E0,1.3811459E1,1.18785E0,1.0440121E0,1.291964E0,8.721646E0,4.0648594E0,5.136524E0,7.653633E0,0E0,0E0,2.2376007E1,4.5060654E0,3.0395002E0,1.1507151E0,6.838188E0,0E0,0E0,0E0,0E0,0E0,0E0,0E0,0E0,0E0,0E0,0E0,0E0,0E0,0E0,0E0,0E0,0E0,0E0,0E0,0E0,0E0,0E0,0E0,0E0,0E0,0E0,0E0,0E0],"parents":[2147483647,0,0,1,1,2,2,3,3,4,4,5,5,6,6,7,7,8,8,9,9,10,10,11,11,12,12,13,13,14,14,15,15,16,16,17,17,18,18,19,19,20,20,21,21,22,22,23,23,26,26,27,27,28,28,29,29,30,30],"right_children":[2,4,6,8,10,12,14,16,18,20,22,24,26,28,30,32,34,36,38,40,42,44,46,48,-1,-1,50,52,54,56,58,-1,-1,-1,-1,-1,-1,-1,-1,-1,-1,-1,-1,-1,-1,-1,-1,-1,-1,-1,-1,-1,-1,-1,-1,-1,-1,-1,-1],"split_conditions":[3.1666667E0,9.8366606E-1,9.4E0,1.9E1,1.3243244E0,6.5E0,5.726829E0,1.1E1,1.3141025E0,3E0,2.24375E0,1.3E1,1.7767102E0,1.4E1,3.1702127E0,1.3947225E0,1.3E1,9.154676E-1,1.7631578E0,3E0,9E0,2.2E1,9.6E1,3E0,-1.0332383E-1,3.0458538E-2,4E1,5.1E0,1.8277559E0,1.3E1,1.3655385E0,-1.0859198E-2,6.5391897E-3,-3.053683E-2,-1.1419642E-2,-1.0407592E-2,-2.0444393E-6,7.678918E-3,2.5158262E-2,-2.2189204E-2,-5.7847826E-3,8.897124E-3,-5.1666824E-3,3.6987618E-3,1.3125843E-2,2.0048264E-2,1.5170711E-1,2.2675205E-2,1.5375595E-1,1.0856596E0,2.1719733E-1,-2.2946278E-2,2.77652E-2,8.62475E-2,1.8429756E-4,-1.0221284E-1,1.1539317E-2,1.831501E-1,8.598055E-2],"split_indices":[18,20,2,12,18,3,18,12,18,12,20,12,15,12,19,15,12,18,18,9,12,7,4,9,0,0,13,3,16,7,15,0,0,0,0,0,0,0,0,0,0,0,0,0,0,0,0,0,0,0,0,0,0,0,0,0,0,0,0],"split_type":[0,0,0,0,0,0,0,0,0,0,0,0,0,0,0,0,0,0,0,0,0,0,0,0,0,0,0,0,0,0,0,0,0,0,0,0,0,0,0,0,0,0,0,0,0,0,0,0,0,0,0,0,0,0,0,0,0,0,0],"sum_hessian":[8.822E3,8.419E3,4.03E2,3.428E3,4.991E3,2.6E1,3.77E2,2.82E3,6.08E2,2.347E3,2.644E3,2.1E1,5E0,3.15E2,6.2E1,8.7E2,1.95E3,4.42E2,1.66E2,2.12E2,2.135E3,1.912E3,7.32E2,1.8E1,3E0,2E0,3E0,2.88E2,2.7E1,3E0,5.9E1,7.19E2,1.51E2,5.13E2,1.437E3,2.42E2,2E2,1.18E2,4.8E1,1.37E2,7.5E1,6.21E2,1.514E3,1.154E3,7.58E2,7.3E2,2E0,1.1E1,7E0,2E0,1E0,1.8E1,2.7E2,2.2E1,5E0,2E0,1E0,9E0,5E1],"tree_param":{"num_deleted":"0","num_feature":"21","num_nodes":"59","size_leaf_vector":"1"}},{"base_weights":[-1.1984737E-3,-6.456354E-2,2.8711334E-1,-1.4839241E-1,1.3700983E-3,2.546789E-1,1.7115865E0,-2.3902774E-1,-1.2813555E-1,-3.7722815E-2,4.8233874E-2,2.1067347E-1,5.23216E-1,1.2193669E0,6.555472E0,-2.4808507E-1,2.0809478E-1,-1.0617092E-1,-1.9952661E-1,8.320999E-3,-8.631804E-2,1.2266132E-1,-9.636752E-3,1.5392375E-1,2.7198517E-1,-2.77077E-1,5.6729513E-1,1.3715577E-1,1.3230162E0,7.769834E-1,2.0633745E-1,-5.576056E-2,-2.3631452E-2,1.0221751E-1,4.116246E-3,-1.3323299E-2,-6.57672E-3,-1.9020816E-2,-6.1139345E-2,6.9057494E-3,-9.769889E-4,-8.266177E-3,-5.0735485E-2,4.5008488E-2,1.1196859E-2,9.2523353E-4,-1.4062384E-2,2.6987905E-2,9.030911E-3,2.829395E-2,-4.4423994E-2,1.3658739E-2,-7.13506E-2,-2.7473569E-2,6.027041E-2,2.1246767E-2,4.122925E-3,-8.494377E-3,1.3744956E-1],"categories":[],"categories_nodes":[],"categories_segments":[],"categories_sizes":[],"default_left":[0,0,0,0,0,0,0,0,0,0,0,0,0,0,0,0,0,0,0,0,0,0,0,0,0,0,0,0,0,0,0,0,0,0,0,0,0,0,0,0,0,0,0,0,0,0,0,0,0,0,0,0,0,0,0,0,0,0,0],"id":19,"left_children":[1,3,5,7,9,11,13,15,17,19,21,23,25,27,29,31,33,35,37,39,41,43,45,47,49,51,53,55,57,-1,-1,-1,-1,-1,-1,-1,-1,-1,-1,-1,-1,-1,-1,-1,-1,-1,-1,-1,-1,-1,-1,-1,-1,-1,-1,-1,-1,-1,-1],"loss_changes":[1.6020024E2,3.9734825E1,7.256328E1,5.780266E0,7.3757873E0,1.8159004E1,7.545539E1,2.388321E0,4.038574E0,4.912052E0,7.8875985E0,4.585762E0,7.8121223E0,3.5201683E0,3.330078E-1,1.9302979E0,1.5886805E0,2.158371E0,2.2171898E0,1.2400953E0,1.6021667E0,2.7539454E0,2.5522287E0,5.087511E0,5.1312866E0,2.2638774E0,6.3075714E0,2.013775E-2,2.2911835E0,0E0,0E0,0E0,0E0,0E0,0E0,0E0,0E0,0E0,0E0,0E0,0E0,0E0,0E0,0E0,0E0,0E0,0E0,0E0,0E0,0E0,0E0,0E0,0E0,0E0,0E0,0E0,0E0,0E0,0E0],"parents":[2147483647,0,0,1,1,2,2,3,3,4,4,5,5,6,6,7,7,8,8,9,9,10,10,11,11,12,12,13,13,14,14,15,15,16,16,17,17,18,18,19,19,20,20,21,21,22,22,23,23,24,24,25,25,26,26,27,27,28,28],"right_children":[2,4,6,8,10,12,14,16,18,20,22,24,26,28,30,32,34,36,38,40,42,44,46,48,50,52,54,56,58,-1,-1,-1,-1,-1,-1,-1,-1,-1,-1,-1,-1,-1,-1,-1,-1,-1,-1,-1,-1,-1,-1,-1,-1,-1,-1,-1,-1,-1,-1],"split_conditions":[2.074074E0,9.072165E-1,7.3455377E0,1.9734345E-1,1.4230769E0,3.66E0,1.0193E3,2.519393E0,9.746835E-1,1.1692573E0,1.554084E0,2.5066667E0,5.2E1,1.0124E3,4E1,-4.2857143E-1,1.0089E3,6.34103E-1,2.8094406E0,6.785714E-1,3.5264084E0,5.939675E-1,2.506826E0,1.7995169E0,5.072727E0,4.8E1,9.4E0,2.3746989E0,-8.455882E-2,7.769834E-1,2.0633745E-1,-5.576056E-2,-2.3631452E-2,1.0221751E-1,4.116246E-3,-1.3323299E-2,-6.57672E-3,-1.9020816E-2,-6.1139345E-2,6.9057494E-3,-9.769889E-4,-8.266177E-3,-5.0735485E-2,4.5008488E-2,1.1196859E-2,9.2523353E-4,-1.4062384E-2,2.6987905E-2,9.030911E-3,2.829395E-2,-4.4423994E-2,1.3658739E-2,-7.13506E-2,-2.7473569E-2,6.027041E-2,2.1246767E-2,4.122925E-3,-8.494377E-3,1.3744956E-1],"split_indices":[17,17,17,17,17,17,8,20,19,19,19,17,4,8,13,20,8,17,19,19,19,19,19,19,19,4,2,14,20,0,0,0,0,0,0,0,0,0,0,0,0,0,0,0,0,0,0,0,0,0,0,0,0,0,0,0,0,0,0],"split_type":[0,0,0,0,0,0,0,0,0,0,0,0,0,0,0,0,0,0,0,0,0,0,0,0,0,0,0,0,0,0,0,0,0,0,0,0,0,0,0,0,0,0,0,0,0,0,0,0,0,0,0,0,0,0,0,0,0,0,0],"sum_hessian":[8.767E3,7.188E3,1.579E3,3.164E3,4.024E3,1.545E3,3.4E1,5.76E2,2.588E3,2.194E3,1.83E3,1.329E3,2.16E2,3.2E1,2E0,5.65E2,1.1E1,1.981E3,6.07E2,1.127E3,1.067E3,8E2,1.03E3,6.92E2,6.37E2,1.1E1,2.05E2,3E0,2.9E1,1E0,1E0,1.9E1,5.46E2,1E0,1E1,1.185E3,7.96E2,5.95E2,1.2E1,2.58E2,8.69E2,1.059E3,8E0,2.4E1,7.76E2,9.01E2,1.29E2,2.44E2,4.48E2,6.28E2,9E0,6E0,5E0,8E0,1.97E2,1E0,2E0,1E0,2.8E1],"tree_param":{"num_deleted":"0","num_feature":"21","num_nodes":"59","size_leaf_vector":"1"}},{"base_weights":[7.9496335E-3,-7.5709224E-3,6.490298E-1,-4.771311E-2,1.0621343E-1,2.6220913E0,4.9312794E-1,-1.0218713E-1,1.1326255E-3,5.2355684E-2,1.8152362E-1,9.882986E-1,7.4480075E-1,2.6574078E-1,9.3009484E-1,-6.661424E-2,-1.4308901E-1,1.8348124E-2,-1.02342814E-1,1.5253988E-2,1.4028947E-1,1.2711564E-1,2.840504E-1,1.2079769E0,-5.9934E-1,1.9142854E-1,1.3657851E0,1.7348708E0,8.052084E-1,-1.4176463E-2,-5.339093E-3,-1.1257774E-2,-2.2094803E-2,-8.004893E-4,1.18617555E-2,-1.1436612E-2,2.7640093E-2,3.5252605E-2,4.284063E-4,2.7865884E-3,2.6478156E-2,1.3813714E-2,-2.2414131E-2,-2.1698201E-2,3.3234157E-2,1.4564017E-2,2.7650723E-1,-7.453223E-2,-8.069659E-3,-4.6363827E-2,2.293082E-2,1.9255787E-1,8.5825734E-2,4.795491E-2,2.0733865E-1,-3.6441848E-2,9.202557E-2],"categories":[],"categories_nodes":[],"categories_segments":[],"categories_sizes":[],"default_left":[0,0,0,0,0,0,0,0,0,0,0,0,0,0,0,0,0,0,0,0,0,0,0,0,0,0,0,0,0,0,0,0,0,0,0,0,0,0,0,0,0,0,0,0,0,0,0,0,0,0,0,0,0,0,0,0,0],"id":20,"left_children":[1,3,5,7,9,11,13,15,17,19,21,-1,23,25,27,29,31,33,35,37,39,41,43,45,47,49,51,53,55,-1,-1,-1,-1,-1,-1,-1,-1,-1,-1,-1,-1,-1,-1,-1,-1,-1,-1,-1,-1,-1,-1,-1,-1,-1,-1,-1,-1],"loss_changes":[8.755426E1,3.9249477E1,6.2688583E1,1.6901665E1,9.080074E0,1.9710126E2,1.9028805E1,4.359831E0,5.9695053E0,4.2652E0,5.1740017E0,0E0,8.8174515E0,1.0283883E1,5.2364426E0,1.5903602E0,3.2914295E0,7.5925713E0,2.208304E0,3.406051E0,5.423011E0,2.4002438E0,7.8872356E0,1.613889E1,2.4270594E-1,3.1335874E0,6.20245E-1,2.4052773E0,8.27454E0,0E0,0E0,0E0,0E0,0E0,0E0,0E0,0E0,0E0,0E0,0E0,0E0,0E0,0E0,0E0,0E0,0E0,0E0,0E0,0E0,0E0,0E0,0E0,0E0,0E0,0E0,0E0,0E0],"parents":[2147483647,0,0,1,1,2,2,3,3,4,4,5,5,6,6,7,7,8,8,9,9,10,10,12,12,13,13,14,14,15,15,16,16,17,17,18,18,19,19,20,20,21,21,22,22,23,23,24,24,25,25,26,26,27,27,28,28],"right_children":[2,4,6,8,10,12,14,16,18,20,22,-1,24,26,28,30,32,34,36,38,40,42,44,46,48,50,52,54,56,-1,-1,-1,-1,-1,-1,-1,-1,-1,-1,-1,-1,-1,-1,-1,-1,-1,-1,-1,-1,-1,-1,-1,-1,-1,-1,-1,-1],"split_conditions":[3.8823528E0,1.74E0,9.4E0,9.607843E-1,1.8833333E0,1.8437392E0,5.726829E0,7.9E1,1.8072912E0,5E0,2.568873E0,9.882986E-1,3.1259115E0,1.17E1,1.2590383E0,3.0498534E-1,5E0,2.0087411E0,8.9E1,1.0053E3,9.3E0,1.18E1,1.304502E0,8.9E0,4E1,5E1,1.6563112E0,1.1518704E0,5E0,-1.4176463E-2,-5.339093E-3,-1.1257774E-2,-2.2094803E-2,-8.004893E-4,1.18617555E-2,-1.1436612E-2,2.7640093E-2,3.5252605E-2,4.284063E-4,2.7865884E-3,2.6478156E-2,1.3813714E-2,-2.2414131E-2,-2.1698201E-2,3.3234157E-2,1.4564017E-2,2.7650723E-1,-7.453223E-2,-8.069659E-3,-4.6363827E-2,2.293082E-2,1.9255787E-1,8.5825734E-2,4.795491E-2,2.0733865E-1,-3.6441848E-2,9.202557E-2],"split_indices":[18,18,2,20,20,16,18,4,16,1,18,0,14,3,16,18,1,20,4,8,3,3,15,2,13,4,15,14,1,0,0,0,0,0,0,0,0,0,0,0,0,0,0,0,0,0,0,0,0,0,0,0,0,0,0,0,0],"split_type":[0,0,0,0,0,0,0,0,0,0,0,0,0,0,0,0,0,0,0,0,0,0,0,0,0,0,0,0,0,0,0,0,0,0,0,0,0,0,0,0,0,0,0,0,0,0,0,0,0,0,0,0,0,0,0,0,0],"sum_hessian":[8.798E3,8.591E3,2.07E2,6.351E3,2.24E3,1.4E1,1.93E2,3.002E3,3.349E3,1.307E3,9.33E2,2E0,1.2E1,1.28E2,6.5E1,1.607E3,1.395E3,2.872E3,4.77E2,9.2E2,3.87E2,6.11E2,3.22E2,9E0,3E0,1.21E2,7E0,7E0,5.8E1,2.39E2,1.368E3,1.004E3,3.91E2,2.275E3,5.97E2,4.63E2,1.4E1,2.8E1,8.92E2,2.04E2,1.83E2,5.93E2,1.8E1,2.8E1,2.94E2,6E0,3E0,2E0,1E0,6E0,1.15E2,2E0,5E0,2E0,5E0,5E0,5.3E1],"tree_param":{"num_deleted":"0","num_feature":"21","num_nodes":"57","size_leaf_vector":"1"}},{"base_weights":[3.449785E-3,-4.4602513E-2,2.8744796E-1,-1.2217255E-1,1.51539985E-2,2.1679997E-1,7.387354E-1,-1.9669883E-1,-1.0542416E-1,-2.1805912E-2,5.892202E-2,1.6813494E-1,3.2140088E-1,2.3561356E0,6.336873E-1,-1.6650239E-1,-2.863672E-1,-2.4382071E-1,-9.869552E-2,4.456935E-2,-4.986619E-2,1.00798674E-1,-2.2994818E-2,2.2253294E-1,6.855771E-2,3.436891E-1,-3.2573795E-1,7.524344E-1,5.847294E0,3.9507094E-1,9.542205E-1,-1.0468433E-2,-2.05293E-2,-3.9237693E-2,-2.0752845E-2,-5.414224E-3,-2.8500855E-2,-4.0424555E-3,-1.1566433E-2,4.8270635E-4,1.1478807E-2,-1.54596595E-2,-3.6592775E-3,4.5185187E-3,1.6378887E-2,-3.0483222E-2,-6.995945E-4,1.6356042E-2,2.943993E-2,-1.0213841E-2,1.5692793E-2,3.5386186E-2,-5.8402654E-2,-6.5999225E-2,-1.409874E-2,1.2540595E-1,-5.0162744E-2,6.948988E-1,1.8219529E-1,1.7551528E-1,3.464262E-2,4.8689783E-2,1.16713785E-1],"categories":[],"categories_nodes":[],"categories_segments":[],"categories_sizes":[],"default_left":[0,0,0,0,0,0,0,0,0,0,0,0,0,0,0,0,0,0,0,0,0,0,0,0,0,0,0,0,0,0,0,0,0,0,0,0,0,0,0,0,0,0,0,0,0,0,0,0,0,0,0,0,0,0,0,0,0,0,0,0,0,0,0],"id":21,"left_children":[1,3,5,7,9,11,13,15,17,19,21,23,25,27,29,31,33,35,37,39,41,43,45,47,49,51,53,55,57,59,61,-1,-1,-1,-1,-1,-1,-1,-1,-1,-1,-1,-1,-1,-1,-1,-1,-1,-1,-1,-1,-1,-1,-1,-1,-1,-1,-1,-1,-1,-1,-1,-1],"loss_changes":[1.1872604E2,3.4493233E1,3.9979973E1,4.02092E0,6.801936E0,5.494503E0,2.7390755E1,1.5579643E0,2.4399433E0,4.248741E0,6.605843E0,4.0256767E0,5.088085E0,5.1588047E1,1.1937012E1,1.0480003E0,1.1555061E0,9.376869E-1,2.4920158E0,1.8915082E0,2.2227216E0,4.455556E0,2.9377885E0,1.9946308E0,4.0134087E0,3.358757E0,6.479933E-1,5.661623E0,6.433487E-1,5.6110897E0,6.1978073E0,0E0,0E0,0E0,0E0,0E0,0E0,0E0,0E0,0E0,0E0,0E0,0E0,0E0,0E0,0E0,0E0,0E0,0E0,0E0,0E0,0E0,0E0,0E0,0E0,0E0,0E0,0E0,0E0,0E0,0E0,0E0,0E0],"parents":[2147483647,0,0,1,1,2,2,3,3,4,4,5,5,6,6,7,7,8,8,9,9,10,10,11,11,12,12,13,13,14,14,15,15,16,16,17,17,18,18,19,19,20,20,21,21,22,22,23,23,24,24,25,25,26,26,27,27,28,28,29,29,30,30],"right_children":[2,4,6,8,10,12,14,16,18,20,22,24,26,28,30,32,34,36,38,40,42,44,46,48,50,52,54,56,58,60,62,-1,-1,-1,-1,-1,-1,-1,-1,-1,-1,-1,-1,-1,-1,-1,-1,-1,-1,-1,-1,-1,-1,-1,-1,-1,-1,-1,-1,-1,-1,-1,-1],"split_conditions":[2.2362869E0,9.398148E-1,4.1702127E0,1.9734345E-1,1.4901961E0,2.9584055E0,9.4E0,1.07E1,2E0,9.746835E-1,1.9352052E0,2.447934E0,5.072727E0,6.5E0,5.726829E0,2E1,1.3E1,3E0,1.1E1,1.2075472E0,3E0,1.7857143E0,1E1,2.5066667E0,2E1,1.24E1,1.3101265E0,2.886368E0,2E1,1.1680442E0,1.61E1,-1.0468433E-2,-2.05293E-2,-3.9237693E-2,-2.0752845E-2,-5.414224E-3,-2.8500855E-2,-4.0424555E-3,-1.1566433E-2,4.8270635E-4,1.1478807E-2,-1.54596595E-2,-3.6592775E-3,4.5185187E-3,1.6378887E-2,-3.0483222E-2,-6.995945E-4,1.6356042E-2,2.943993E-2,-1.0213841E-2,1.5692793E-2,3.5386186E-2,-5.8402654E-2,-6.5999225E-2,-1.409874E-2,1.2540595E-1,-5.0162744E-2,6.948988E-1,1.8219529E-1,1.7551528E-1,3.464262E-2,4.8689783E-2,1.16713785E-1],"split_indices":[17,17,17,17,17,17,2,3,12,19,19,19,19,3,17,13,12,10,12,17,12,17,2,17,13,3,20,14,13,14,2,0,0,0,0,0,0,0,0,0,0,0,0,0,0,0,0,0,0,0,0,0,0,0,0,0,0,0,0,0,0,0,0],"split_type":[0,0,0,0,0,0,0,0,0,0,0,0,0,0,0,0,0,0,0,0,0,0,0,0,0,0,0,0,0,0,0,0,0,0,0,0,0,0,0,0,0,0,0,0,0,0,0,0,0,0,0,0,0,0,0,0,0,0,0,0,0,0,0],"sum_hessian":[8.698E3,7.44E3,1.258E3,3.237E3,4.203E3,1.089E3,1.69E2,5.92E2,2.645E3,2.279E3,1.924E3,7.45E2,3.44E2,9E0,1.6E2,4.45E2,1.47E2,1.21E2,2.524E3,6.77E2,1.602E3,1.273E3,6.51E2,4.81E2,2.64E2,3.33E2,1.1E1,7E0,2E0,9.3E1,6.7E1,1.73E2,2.72E2,6.1E1,8.6E1,2.2E1,9.9E1,5.7E2,1.954E3,4.33E2,2.44E2,1.79E2,1.423E3,6.77E2,5.96E2,3.4E1,6.17E2,2.66E2,2.15E2,9E1,1.74E2,3.3E2,3E0,3E0,8E0,5E0,2E0,1E0,1E0,2E0,9.1E1,2.2E1,4.5E1],"tree_param":{"num_deleted":"0","num_feature":"21","num_nodes":"63","size_leaf_vector":"1"}},{"base_weights":[4.348852E-3,-5.4452065E-2,1.8509407E-1,-9.106335E-2,1.9513877E-2,1.6385527E-1,1.3947214E0,-1.4069685E-1,-6.051847E-2,6.296092E-2,-5.0034855E-2,1.2788635E-1,3.3050594E-1,6.796095E-1,1.0559028E0,-1.3441701E-1,-4.6088907E-1,-3.403095E-2,-1.0923121E-1,2.6296735E-2,1.2418524E-1,-6.1555177E-2,2.0992221E-1,8.630987E-2,2.0933694E-1,3.0085805E-1,8.70179E-1,1.2724335E0,4.4811204E-1,-2.1767152E-2,-1.1844805E-2,-3.4749746E-2,-1.4411756E-1,-6.994153E-3,-1.1020524E-4,-2.5202755E-2,-9.795334E-3,1.2294892E-2,1.0748584E-3,1.057548E-2,6.470265E-2,-5.181207E-3,-4.86291E-2,-1.2624268E-2,5.531006E-2,1.1314597E-2,-2.8257829E-3,4.0562637E-2,1.7762674E-2,1.1656308E-1,2.8526291E-2,3.3647366E-2,1.3168666E-1,1.7164595E-1,9.7972974E-2,1.6539274E-2,7.542967E-2],"categories":[],"categories_nodes":[],"categories_segments":[],"categories_sizes":[],"default_left":[0,0,0,0,0,0,0,0,0,0,0,0,0,0,0,0,0,0,0,0,0,0,0,0,0,0,0,0,0,0,0,0,0,0,0,0,0,0,0,0,0,0,0,0,0,0,0,0,0,0,0,0,0,0,0,0,0],"id":22,"left_children":[1,3,5,7,9,11,13,15,17,19,21,23,25,-1,27,29,31,33,35,37,39,41,43,45,47,49,51,53,55,-1,-1,-1,-1,-1,-1,-1,-1,-1,-1,-1,-1,-1,-1,-1,-1,-1,-1,-1,-1,-1,-1,-1,-1,-1,-1,-1,-1],"loss_changes":[9.317499E1,1.7915113E1,5.5058586E1,6.7000046E0,6.623667E0,1.2641556E1,6.0537148E1,3.3261719E0,3.532939E0,3.0248885E0,2.5375285E0,5.881092E0,5.738262E0,0E0,4.167595E0,2.173191E0,3.0561962E0,2.1012182E0,1.5293865E0,1.2685131E0,4.797854E0,3.318509E0,4.222947E0,3.5543022E0,3.587881E0,4.482086E0,4.086499E0,1.697506E0,8.2745194E-1,0E0,0E0,0E0,0E0,0E0,0E0,0E0,0E0,0E0,0E0,0E0,0E0,0E0,0E0,0E0,0E0,0E0,0E0,0E0,0E0,0E0,0E0,0E0,0E0,0E0,0E0,0E0,0E0],"parents":[2147483647,0,0,1,1,2,2,3,3,4,4,5,5,6,6,7,7,8,8,9,9,10,10,11,11,12,12,14,14,15,15,16,16,17,17,18,18,19,19,20,20,21,21,22,22,23,23,24,24,25,25,26,26,27,27,28,28],"right_children":[2,4,6,8,10,12,14,16,18,20,22,24,26,-1,28,30,32,34,36,38,40,42,44,46,48,50,52,54,56,-1,-1,-1,-1,-1,-1,-1,-1,-1,-1,-1,-1,-1,-1,-1,-1,-1,-1,-1,-1,-1,-1,-1,-1,-1,-1,-1,-1],"split_conditions":[1.8365122E0,1.2075472E0,7.3455377E0,5.638298E-1,1.5737122E0,3.1666667E0,5.071429E0,1.3731884E0,1.0451263E0,1.4705882E0,4E-1,4E1,1.17E1,6.796095E-1,2.886368E0,8E-3,1E-1,8.028169E-1,2E0,9.300518E-1,3.1804123E0,2.1239188E0,1.624724E0,2.674938E0,1.5531915E0,1.3571428E0,3.8823528E0,6E0,2.0229645E0,-2.1767152E-2,-1.1844805E-2,-3.4749746E-2,-1.4411756E-1,-6.994153E-3,-1.1020524E-4,-2.5202755E-2,-9.795334E-3,1.2294892E-2,1.0748584E-3,1.057548E-2,6.470265E-2,-5.181207E-3,-4.86291E-2,-1.2624268E-2,5.531006E-2,1.1314597E-2,-2.8257829E-3,4.0562637E-2,1.7762674E-2,1.1656308E-1,2.8526291E-2,3.3647366E-2,1.3168666E-1,1.7164595E-1,9.7972974E-2,1.6539274E-2,7.542967E-2],"split_indices":[17,17,17,17,18,17,18,18,18,17,5,13,3,0,14,17,5,17,12,18,20,15,17,18,18,18,17,10,20,0,0,0,0,0,0,0,0,0,0,0,0,0,0,0,0,0,0,0,0,0,0,0,0,0,0,0,0],"split_type":[0,0,0,0,0,0,0,0,0,0,0,0,0,0,0,0,0,0,0,0,0,0,0,0,0,0,0,0,0,0,0,0,0,0,0,0,0,0,0,0,0,0,0,0,0,0,0,0,0,0,0,0,0,0,0,0,0],"sum_hessian":[8.765E3,6.614E3,2.151E3,4.424E3,2.19E3,2.115E3,3.6E1,1.684E3,2.74E3,1.348E3,8.42E2,1.741E3,3.74E2,1E0,3.5E1,1.653E3,3.1E1,1.776E3,9.64E2,8.44E2,5.04E2,8.07E2,3.5E1,1.154E3,5.87E2,3.56E2,1.8E1,2.5E1,1E1,2.64E2,1.389E3,2.9E1,2E0,8.49E2,9.27E2,6.9E1,8.95E2,1.16E2,7.28E2,4.88E2,1.6E1,7.9E2,1.7E1,1.8E1,1.7E1,9.35E2,2.19E2,8E1,5.07E2,5E0,3.51E2,9E0,9E0,8E0,1.7E1,6E0,4E0],"tree_param":{"num_deleted":"0","num_feature":"21","num_nodes":"57","size_leaf_vector":"1"}},{"base_weights":[4.944189E-4,-2.3151586E-2,3.8545966E-1,-7.6197505E-2,5.494762E-2,3.1047922E-1,1.3086251E0,-1.239771E-1,-4.357095E-2,3.2871425E-2,1.2963521E-1,1.29432E0,2.9932854E-1,9.950047E-1,6.4562905E-1,-3.7854183E-1,-1.19133E-1,-3.359483E-2,-1.5366122E-1,4.8824374E-2,-1.2237719E-1,1.8048945E-1,-3.2199897E-2,-2.995324E-3,1.6328767E-1,-1.0494189E-1,3.2329234E-1,1.5430583E0,6.3384825E-1,-5.986152E-2,-2.4896203E-2,-1.5687743E-2,-9.629743E-3,-3.5845337E-3,4.00259E-2,1.0625812E-2,-1.8249905E-2,1.091178E-2,2.07121E-3,-1.9290447E-2,1.2577759E-3,-3.0490398E-2,1.8691769E-2,-4.989472E-3,1.0520194E-1,-5.1233318E-2,4.4699166E-2,3.991317E-2,1.8259693E-2,1.6709629E-1,-5.984998E-3,-1.2555532E-2,7.920068E-2],"categories":[],"categories_nodes":[],"categories_segments":[],"categories_sizes":[],"default_left":[0,0,0,0,0,0,0,0,0,0,0,0,0,0,0,0,0,0,0,0,0,0,0,0,0,0,0,0,0,0,0,0,0,0,0,0,0,0,0,0,0,0,0,0,0,0,0,0,0,0,0,0,0],"id":23,"left_children":[1,3,5,7,9,11,13,15,17,19,21,23,25,27,-1,29,31,33,35,37,39,41,43,-1,-1,45,47,49,51,-1,-1,-1,-1,-1,-1,-1,-1,-1,-1,-1,-1,-1,-1,-1,-1,-1,-1,-1,-1,-1,-1,-1,-1],"loss_changes":[8.022359E1,3.4402218E1,3.489557E1,7.7032776E0,5.5341167E0,4.801632E0,5.4923653E1,2.4285755E0,3.223763E0,6.4304657E0,6.3099937E0,2.290618E0,4.5775337E0,6.345459E0,0E0,9.0609884E-1,1.682867E0,2.6476734E0,1.8482962E0,3.9860415E0,2.305784E0,1.8760777E0,3.582543E0,0E0,0E0,6.300038E0,4.6540375E0,2.9702797E0,2.981987E0,0E0,0E0,0E0,0E0,0E0,0E0,0E0,0E0,0E0,0E0,0E0,0E0,0E0,0E0,0E0,0E0,0E0,0E0,0E0,0E0,0E0,0E0,0E0,0E0],"parents":[2147483647,0,0,1,1,2,2,3,3,4,4,5,5,6,6,7,7,8,8,9,9,10,10,11,11,12,12,13,13,15,15,16,16,17,17,18,18,19,19,20,20,21,21,22,22,25,25,26,26,27,27,28,28],"right_children":[2,4,6,8,10,12,14,16,18,20,22,24,26,28,-1,30,32,34,36,38,40,42,44,-1,-1,46,48,50,52,-1,-1,-1,-1,-1,-1,-1,-1,-1,-1,-1,-1,-1,-1,-1,-1,-1,-1,-1,-1,-1,-1,-1,-1],"split_conditions":[2.9584055E0,1.3137255E0,7.3455377E0,6.34103E-1,2.2362869E0,1.3571428E0,1.0193E3,-4.2696628E-1,1.5414847E0,2.318339E0,2.7669172E0,8.1E1,2.047486E0,1.84E1,6.4562905E-1,7.5E1,1.3E1,1.5224416E0,1.0228527E0,1.4137931E0,2.9E2,6.16408E-1,4.578603E0,-2.995324E-3,1.6328767E-1,1.5173975E0,3.6643357E0,3.1259115E0,1.0124E3,-5.986152E-2,-2.4896203E-2,-1.5687743E-2,-9.629743E-3,-3.5845337E-3,4.00259E-2,1.0625812E-2,-1.8249905E-2,1.091178E-2,2.07121E-3,-1.9290447E-2,1.2577759E-3,-3.0490398E-2,1.8691769E-2,-4.989472E-3,1.0520194E-1,-5.1233318E-2,4.4699166E-2,3.991317E-2,1.8259693E-2,1.6709629E-1,-5.984998E-3,-1.2555532E-2,7.920068E-2],"split_indices":[17,17,17,17,17,18,8,17,18,18,18,4,18,7,0,4,12,18,16,18,6,19,20,0,0,16,19,14,8,0,0,0,0,0,0,0,0,0,0,0,0,0,0,0,0,0,0,0,0,0,0,0,0],"split_type":[0,0,0,0,0,0,0,0,0,0,0,0,0,0,0,0,0,0,0,0,0,0,0,0,0,0,0,0,0,0,0,0,0,0,0,0,0,0,0,0,0,0,0,0,0,0,0,0,0,0,0,0,0],"sum_hessian":[8.811E3,8.302E3,5.09E2,4.944E3,3.358E3,4.72E2,3.7E1,2.005E3,2.939E3,2.593E3,7.65E2,4E0,4.68E2,3.6E1,1E0,3.6E1,1.969E3,2.696E3,2.43E2,2.352E3,2.41E2,5.82E2,1.83E2,1E0,3E0,2.6E1,4.42E2,1.3E1,2.3E1,1.2E1,2.4E1,7.4E2,1.229E3,2.683E3,1.3E1,2.4E1,2.19E2,7.47E2,1.605E3,1.58E2,8.3E1,7E0,5.75E2,1.81E2,2E0,1.5E1,1.1E1,2.86E2,1.56E2,1.2E1,1E0,4E0,1.9E1],"tree_param":{"num_deleted":"0","num_feature":"21","num_nodes":"53","size_leaf_vector":"1"}},{"base_weights":[2.5420156E-4,-4.0141523E-2,1.5877496E-1,-8.693849E-2,1.4806911E-3,1.3672116E-1,5.281319E-1,-1.5993437E-1,-7.1841866E-2,2.054939E-2,-4.1087933E-2,1.13054544E-1,2.568741E-1,1.3038307E0,4.5572627E-1,-1.283645E-1,-2.4004471E-1,-4.9717166E-2,-1.3165529E-1,2.718126E-3,9.947819E-2,-1.1441857E-1,-7.7206013E-3,2.1894658E-1,6.898775E-2,6.115054E-1,1.5763563E-1,6.4800996E-1,1.7976491E-1,-5.7717836E-1,5.086341E-1,-6.5526636E-3,-1.6571028E-2,1.5768668E-3,-2.5743594E-2,-6.427673E-3,2.7313243E-4,-3.2853104E-2,-1.1620781E-2,6.308169E-3,-1.2628332E-3,4.330893E-3,1.9253163E-2,-1.001349E-2,-4.8578285E-2,-2.0965512E-3,2.6168196E-2,5.6411978E-2,1.9901607E-2,1.6285911E-3,1.2688095E-2,3.4748077E-2,1.2588923E-1,2.5080685E-2,-5.9328955E-3,1.1430549E-2,1.391414E-1,8.527756E-3,-1.0472415E-1,6.787243E-2,2.3937017E-2],"categories":[],"categories_nodes":[],"categories_segments":[],"categories_sizes":[],"default_left":[0,0,0,0,0,0,0,0,0,0,0,0,0,0,0,0,0,0,0,0,0,0,0,0,0,0,0,0,0,0,0,0,0,0,0,0,0,0,0,0,0,0,0,0,0,0,0,0,0,0,0,0,0,0,0,0,0,0,0,0,0],"id":24,"left_children":[1,3,5,7,9,11,13,15,17,19,21,23,25,27,29,31,33,35,37,39,41,43,45,47,49,51,53,55,-1,57,59,-1,-1,-1,-1,-1,-1,-1,-1,-1,-1,-1,-1,-1,-1,-1,-1,-1,-1,-1,-1,-1,-1,-1,-1,-1,-1,-1,-1,-1,-1],"loss_changes":[5.6159195E1,1.3613259E1,1.4435318E1,3.6140614E0,3.004239E0,4.753916E0,5.0223064E0,1.393055E0,3.6035652E0,3.5970447E0,2.8007574E0,6.550411E0,9.616894E0,1.4259558E0,5.375906E0,9.419136E-1,7.069874E-1,1.5220852E0,2.2001686E0,1.933198E0,2.4534574E0,1.850349E0,2.8172383E0,2.7289543E0,3.0337563E0,9.818125E0,4.401504E0,1.824744E0,0E0,1.6462865E0,3.9136543E0,0E0,0E0,0E0,0E0,0E0,0E0,0E0,0E0,0E0,0E0,0E0,0E0,0E0,0E0,0E0,0E0,0E0,0E0,0E0,0E0,0E0,0E0,0E0,0E0,0E0,0E0,0E0,0E0,0E0,0E0],"parents":[2147483647,0,0,1,1,2,2,3,3,4,4,5,5,6,6,7,7,8,8,9,9,10,10,11,11,12,12,13,13,14,14,15,15,16,16,17,17,18,18,19,19,20,20,21,21,22,22,23,23,24,24,25,25,26,26,27,27,29,29,30,30],"right_children":[2,4,6,8,10,12,14,16,18,20,22,24,26,28,30,32,34,36,38,40,42,44,46,48,50,52,54,56,-1,58,60,-1,-1,-1,-1,-1,-1,-1,-1,-1,-1,-1,-1,-1,-1,-1,-1,-1,-1,-1,-1,-1,-1,-1,-1,-1,-1,-1,-1,-1,-1],"split_conditions":[1.9871795E0,9.398148E-1,5.071429E0,1.7827298E-1,1.6004099E0,3.232406E0,1.235888E0,1.07E1,8.588517E-1,1.5531915E0,1.5095891E0,1.9873418E0,2.859589E0,1.1150713E0,2.7669172E0,2E1,8.958943E-1,7.458867E-1,3.9578456E-1,8.973451E-1,4E1,2.807175E0,4E-1,1.117647E0,2.47651E0,2.7272727E0,4.1702127E0,1.18E1,1.7976491E-1,1.3839511E0,1.0164E3,-6.5526636E-3,-1.6571028E-2,1.5768668E-3,-2.5743594E-2,-6.427673E-3,2.7313243E-4,-3.2853104E-2,-1.1620781E-2,6.308169E-3,-1.2628332E-3,4.330893E-3,1.9253163E-2,-1.001349E-2,-4.8578285E-2,-2.0965512E-3,2.6168196E-2,5.6411978E-2,1.9901607E-2,1.6285911E-3,1.2688095E-2,3.4748077E-2,1.2588923E-1,2.5080685E-2,-5.9328955E-3,1.1430549E-2,1.391414E-1,8.527756E-3,-1.0472415E-1,6.787243E-2,2.3937017E-2],"split_indices":[17,17,17,17,18,17,15,3,18,17,17,18,18,15,18,13,16,17,17,18,13,18,5,18,17,18,18,3,0,14,8,0,0,0,0,0,0,0,0,0,0,0,0,0,0,0,0,0,0,0,0,0,0,0,0,0,0,0,0,0,0],"split_type":[0,0,0,0,0,0,0,0,0,0,0,0,0,0,0,0,0,0,0,0,0,0,0,0,0,0,0,0,0,0,0,0,0,0,0,0,0,0,0,0,0,0,0,0,0,0,0,0,0,0,0,0,0,0,0,0,0,0,0,0,0],"sum_hessian":[8.768E3,6.988E3,1.78E3,3.289E3,3.699E3,1.681E3,9.9E1,5.62E2,2.727E3,2.555E3,1.144E3,1.406E3,2.75E2,7E0,9.2E1,4.05E2,1.57E2,1.992E3,7.35E2,2.085E3,4.7E2,3.57E2,7.87E2,4.12E2,9.94E2,5.9E1,2.16E2,4E0,3E0,4E0,8.8E1,1.52E2,2.53E2,1E1,1.47E2,1.559E3,4.33E2,5.2E1,6.83E2,4.22E2,1.663E3,2.94E2,1.76E2,3.45E2,1.2E1,7.51E2,3.6E1,2.1E1,3.91E2,5.21E2,4.73E2,4.3E1,1.6E1,1.51E2,6.5E1,3E0,1E0,2E0,2E0,5.3E1,3.5E1],"tree_param":{"num_deleted":"0","num_feature":"21","num_nodes":"61","size_leaf_vector":"1"}},{"base_weights":[-1.2359043E-3,-4.0923726E-2,1.5398283E-1,-8.48342E-2,-2.205734E-3,1.1238895E-1,5.3383374E-1,-2.19468E-1,-7.816163E-2,-1.2429791E-2,8.041704E-2,8.6832084E-2,1.9939452E-1,1.8432547E0,4.353678E-1,-2.2726426E-1,1.2970811E-1,-1.470683E-1,-6.5854296E-2,2.6228406E-2,-3.2044083E-2,1.1751458E-1,-3.387563E-2,6.079133E-2,1.8789732E-1,1.8803735E-1,1.5071479E0,6.6822356E-1,4.026261E0,1.0896976E0,3.674849E-1,-1.6131818E-2,-2.6897246E-2,3.3995464E-2,-2.5051573E-2,-2.079272E-2,-8.428049E-3,-4.5337356E-3,-9.199031E-3,-2.0330456E-4,9.535714E-3,-1.4432552E-4,-6.7298184E-3,1.4478274E-2,2.8963224E-3,5.721776E-2,-4.565794E-3,8.686169E-3,-3.0669494E-2,3.484853E-2,1.1249433E-2,2.1334263E-2,-3.0883282E-2,3.7669253E-2,1.8840294E-1,-5.032571E-2,1.0748263E-1,1.7198777E-2,5.253689E-1,6.946926E-2,2.0022886E-1,1.6248593E-3,4.9391016E-2],"categories":[],"categories_nodes":[],"categories_segments":[],"categories_sizes":[],"default_left":[0,0,0,0,0,0,0,0,0,0,0,0,0,0,0,0,0,0,0,0,0,0,0,0,0,0,0,0,0,0,0,0,0,0,0,0,0,0,0,0,0,0,0,0,0,0,0,0,0,0,0,0,0,0,0,0,0,0,0,0,0,0,0],"id":25,"left_children":[1,3,5,7,9,11,13,15,17,19,21,23,25,27,29,31,33,35,37,39,41,43,45,47,49,51,53,55,57,59,61,-1,-1,-1,-1,-1,-1,-1,-1,-1,-1,-1,-1,-1,-1,-1,-1,-1,-1,-1,-1,-1,-1,-1,-1,-1,-1,-1,-1,-1,-1,-1,-1],"loss_changes":[5.4032078E1,1.1875189E1,2.8157867E1,2.9231586E0,3.1375186E0,3.5648918E0,2.1889786E1,4.4870853E-1,2.6362534E0,2.5068674E0,1.7381315E0,3.2704506E0,5.137721E0,2.8090763E1,6.9284897E0,3.719344E-1,4.0492696E-1,1.7860813E0,1.4163046E0,2.1746376E0,2.3657212E0,7.419281E-1,7.4733573E-1,9.540079E0,3.048545E0,4.630045E0,5.684428E-1,4.8278575E0,1.8019806E1,4.0161953E0,6.6971493E0,0E0,0E0,0E0,0E0,0E0,0E0,0E0,0E0,0E0,0E0,0E0,0E0,0E0,0E0,0E0,0E0,0E0,0E0,0E0,0E0,0E0,0E0,0E0,0E0,0E0,0E0,0E0,0E0,0E0,0E0,0E0,0E0],"parents":[2147483647,0,0,1,1,2,2,3,3,4,4,5,5,6,6,7,7,8,8,9,9,10,10,11,11,12,12,13,13,14,14,15,15,16,16,17,17,18,18,19,19,20,20,21,21,22,22,23,23,24,24,25,25,26,26,27,27,28,28,29,29,30,30],"right_children":[2,4,6,8,10,12,14,16,18,20,22,24,26,28,30,32,34,36,38,40,42,44,46,48,50,52,54,56,58,60,62,-1,-1,-1,-1,-1,-1,-1,-1,-1,-1,-1,-1,-1,-1,-1,-1,-1,-1,-1,-1,-1,-1,-1,-1,-1,-1,-1,-1,-1,-1,-1,-1],"split_conditions":[1.9871795E0,9.398148E-1,4.1702127E0,2E0,2.2E1,2.4629629E0,9.4E0,5.36E1,2.2651933E-1,1.1466432E0,5E0,1.3E1,9.6E1,6.5E0,1.2590383E0,1E0,5.939675E-1,1.3E1,4E0,1.3396226E0,9E0,6E0,1.1E1,1.1E1,1.7037038E0,4.1702127E0,1.3555578E0,-8.455882E-2,1.1E1,1.8066666E0,1.68656E0,-1.6131818E-2,-2.6897246E-2,3.3995464E-2,-2.5051573E-2,-2.079272E-2,-8.428049E-3,-4.5337356E-3,-9.199031E-3,-2.0330456E-4,9.535714E-3,-1.4432552E-4,-6.7298184E-3,1.4478274E-2,2.8963224E-3,5.721776E-2,-4.565794E-3,8.686169E-3,-3.0669494E-2,3.484853E-2,1.1249433E-2,2.1334263E-2,-3.0883282E-2,3.7669253E-2,1.8840294E-1,-5.032571E-2,1.0748263E-1,1.7198777E-2,5.253689E-1,6.946926E-2,2.0022886E-1,1.6248593E-3,4.9391016E-2],"split_indices":[17,17,17,12,12,20,2,7,20,19,1,12,4,3,16,12,17,12,1,17,12,10,2,12,19,18,15,20,12,20,15,0,0,0,0,0,0,0,0,0,0,0,0,0,0,0,0,0,0,0,0,0,0,0,0,0,0,0,0,0,0,0,0],"split_type":[0,0,0,0,0,0,0,0,0,0,0,0,0,0,0,0,0,0,0,0,0,0,0,0,0,0,0,0,0,0,0,0,0,0,0,0,0,0,0,0,0,0,0,0,0,0,0,0,0,0,0,0,0,0,0,0,0,0,0,0,0,0,0],"sum_hessian":[8.769E3,6.984E3,1.785E3,3.272E3,3.712E3,1.61E3,1.75E2,1.53E2,3.119E3,3.304E3,4.08E2,1.246E3,3.64E2,1.1E1,1.64E2,1.5E2,3E0,4.71E2,2.648E3,1.112E3,2.192E3,3.08E2,1E2,9.92E2,2.54E2,3.62E2,2E0,8E0,3E0,1.4E1,1.5E2,6E1,9E1,2E0,1E0,2.38E2,2.33E2,1.485E3,1.163E3,7.9E2,3.22E2,1.174E3,1.018E3,2.35E2,7.3E1,1E0,9.9E1,9.27E2,6.5E1,8E1,1.74E2,3.45E2,1.7E1,1E0,1E0,2E0,6E0,1E0,2E0,1.1E1,3E0,4E1,1.1E2],"tree_param":{"num_deleted":"0","num_feature":"21","num_nodes":"63","size_leaf_vector":"1"}},{"base_weights":[8.680029E-4,-1.2537086E-2,4.62933E-1,-4.724579E-2,7.513812E-2,1.696576E0,3.7585878E-1,-9.202229E-2,-2.1945683E-2,-9.288861E-2,8.319705E-2,6.090603E0,2.140619E-1,9.043212E-1,3.2447332E-1,-8.654302E-2,-3.3610177E-1,-1.8214814E-2,-3.0878368E-1,-2.2520866E-2,-6.7154574E-1,8.142129E-2,7.500377E-1,1.4782429E-3,8.110949E-1,-2.0060417E-1,9.1764843E-1,-6.76474E-2,1.0798243E0,5.359669E-1,2.215938E-1,-8.921014E-3,3.277081E-2,-1.04144225E-2,-6.5563515E-2,2.3985028E-2,-2.0304292E-3,-9.854085E-3,-5.1508486E-2,1.9534912E-2,-1.7102335E-2,-7.157741E-2,-9.2516905E-3,-9.913322E-4,9.6943E-3,1.789828E-1,1.8411407E-2,-3.717425E-2,5.8425117E-2,-3.6867463E-5,1.5297829E-1,-2.684022E-2,2.6730848E-2,1.1553259E-1,-6.409991E-3,1.275527E-1,4.180651E-2,4.5364276E-2,5.2457573E-3],"categories":[],"categories_nodes":[],"categories_segments":[],"categories_sizes":[],"default_left":[0,0,0,0,0,0,0,0,0,0,0,0,0,0,0,0,0,0,0,0,0,0,0,0,0,0,0,0,0,0,0,0,0,0,0,0,0,0,0,0,0,0,0,0,0,0,0,0,0,0,0,0,0,0,0,0,0,0,0],"id":26,"left_children":[1,3,5,7,9,11,13,15,17,19,21,23,25,27,29,31,33,35,37,39,41,43,45,-1,-1,47,49,51,53,55,57,-1,-1,-1,-1,-1,-1,-1,-1,-1,-1,-1,-1,-1,-1,-1,-1,-1,-1,-1,-1,-1,-1,-1,-1,-1,-1,-1,-1],"loss_changes":[5.426544E1,2.5912441E1,2.58947E1,6.908368E0,3.277917E0,1.0292352E2,6.0065994E0,2.9158192E0,4.1669097E0,4.504662E0,2.6683884E0,4.8981155E1,3.9768791E0,3.4847164E0,4.5157623E0,2.410204E0,3.4893913E0,2.0808716E0,2.11791E0,3.268832E0,2.4109268E-1,3.2615995E0,3.2011185E0,0E0,0E0,1.4260603E0,2.8103132E0,3.4072214E-1,1.5423126E0,5.4832325E0,5.6671467E0,0E0,0E0,0E0,0E0,0E0,0E0,0E0,0E0,0E0,0E0,0E0,0E0,0E0,0E0,0E0,0E0,0E0,0E0,0E0,0E0,0E0,0E0,0E0,0E0,0E0,0E0,0E0,0E0],"parents":[2147483647,0,0,1,1,2,2,3,3,4,4,5,5,6,6,7,7,8,8,9,9,10,10,11,11,12,12,13,13,14,14,15,15,16,16,17,17,18,18,19,19,20,20,21,21,22,22,25,25,26,26,27,27,28,28,29,29,30,30],"right_children":[2,4,6,8,10,12,14,16,18,20,22,24,26,28,30,32,34,36,38,40,42,44,46,-1,-1,48,50,52,54,56,58,-1,-1,-1,-1,-1,-1,-1,-1,-1,-1,-1,-1,-1,-1,-1,-1,-1,-1,-1,-1,-1,-1,-1,-1,-1,-1,-1,-1],"split_conditions":[3.66E0,1.6457243E0,9.4E0,6.785714E-1,2E0,1.8437392E0,1.2590383E0,1.404908E0,2.392936E0,1.5778472E0,9.6E1,1E0,4E1,2E0,2E1,1.3396226E0,1.1E1,2.5313807E-1,1E1,7E0,2.8053098E0,1.1E1,1.3231915E0,1.4782429E-3,8.110949E-1,7.3455377E0,8.4E1,3E2,1E-1,2.859589E0,6.8E1,-8.921014E-3,3.277081E-2,-1.04144225E-2,-6.5563515E-2,2.3985028E-2,-2.0304292E-3,-9.854085E-3,-5.1508486E-2,1.9534912E-2,-1.7102335E-2,-7.157741E-2,-9.2516905E-3,-9.913322E-4,9.6943E-3,1.789828E-1,1.8411407E-2,-3.717425E-2,5.8425117E-2,-3.6867463E-5,1.5297829E-1,-2.684022E-2,2.6730848E-2,1.1553259E-1,-6.409991E-3,1.275527E-1,4.180651E-2,4.5364276E-2,5.2457573E-3],"split_indices":[17,17,2,17,9,16,16,18,18,16,4,1,13,9,13,18,12,18,12,12,17,2,14,0,0,17,4,6,5,18,4,0,0,0,0,0,0,0,0,0,0,0,0,0,0,0,0,0,0,0,0,0,0,0,0,0,0,0,0],"split_type":[0,0,0,0,0,0,0,0,0,0,0,0,0,0,0,0,0,0,0,0,0,0,0,0,0,0,0,0,0,0,0,0,0,0,0,0,0,0,0,0,0,0,0,0,0,0,0,0,0,0,0,0,0,0,0,0,0,0,0],"sum_hessian":[8.759E3,8.513E3,2.46E2,6.099E3,2.414E3,1.5E1,2.31E2,2.201E3,3.898E3,1.1E2,2.304E3,3E0,1.2E1,1.9E1,2.12E2,2.154E3,4.7E1,3.849E3,4.9E1,9.9E1,1.1E1,2.299E3,5E0,1E0,2E0,8E0,4E0,3E0,1.6E1,6.8E1,1.44E2,2.141E3,1.3E1,2.8E1,1.9E1,3E1,3.819E3,2.5E1,2.4E1,4E1,5.9E1,1E1,1E0,3.34E2,1.965E3,1E0,4E0,7E0,1E0,2E0,2E0,2E0,1E0,1.5E1,1E0,8E0,6E1,6E1,8.4E1],"tree_param":{"num_deleted":"0","num_feature":"21","num_nodes":"59","size_leaf_vector":"1"}},{"base_weights":[1.7907224E-3,-6.6287494E-3,3.4110287E-1,3.584254E-2,-3.6192104E-2,1.8339274E0,2.2628736E-1,2.4556305E-2,2.1751374E-1,-1.496768E-1,-6.669658E-3,2.3800881E-1,6.1632013E0,2.0064376E-2,3.659295E-1,-1.5634708E-2,6.353437E-2,5.9659237E-1,1.3323313E-1,-4.1909035E-2,-1.9433974E-1,-2.2446334E-2,6.460659E-2,-5.857919E-1,5.7769704E-1,7.570219E-1,9.710741E-2,4.3394622E-1,-8.0574624E-2,-4.989919E-2,4.6174338E-1,3.847837E-4,-2.1478629E-2,1.7084346E-4,1.3050395E-2,1.1061292E-1,1.9890232E-2,3.2344318E-3,2.9824847E-2,9.407525E-4,-2.1830661E-2,-2.0159604E-2,4.902771E-2,-1.5749158E-3,-1.09015135E-2,9.025099E-3,-7.363E-3,-1.734202E-2,-6.654424E-2,1.2152731E-1,-5.2309122E-2,7.189765E-2,2.3902556E-2,-1.5122579E-2,6.511413E-2,4.183074E-2,-5.139475E-2,6.6816136E-2,9.915351E-3],"categories":[],"categories_nodes":[],"categories_segments":[],"categories_sizes":[],"default_left":[0,0,0,0,0,0,0,0,0,0,0,0,0,0,0,0,0,0,0,0,0,0,0,0,0,0,0,0,0,0,0,0,0,0,0,0,0,0,0,0,0,0,0,0,0,0,0,0,0,0,0,0,0,0,0,0,0,0,0],"id":27,"left_children":[1,3,5,7,9,11,13,15,17,19,21,23,25,27,29,31,33,35,37,39,41,43,45,47,49,-1,-1,51,53,55,57,-1,-1,-1,-1,-1,-1,-1,-1,-1,-1,-1,-1,-1,-1,-1,-1,-1,-1,-1,-1,-1,-1,-1,-1,-1,-1,-1,-1],"loss_changes":[2.50138E1,1.0729092E1,3.5921677E1,7.1853557E0,1.6878044E1,1.0217064E2,5.6945477E0,5.1753674E0,6.4700546E0,4.997608E0,4.4983354E0,3.6964352E0,2.1870407E1,3.4088302E0,4.724416E0,6.313554E0,6.9433246E0,7.277585E0,2.8038995E0,2.7720013E0,3.7501678E0,1.8970182E0,2.5767646E0,1.5981317E-2,6.952224E0,0E0,0E0,7.170787E-1,3.5104446E0,5.2122087E0,7.1188755E0,0E0,0E0,0E0,0E0,0E0,0E0,0E0,0E0,0E0,0E0,0E0,0E0,0E0,0E0,0E0,0E0,0E0,0E0,0E0,0E0,0E0,0E0,0E0,0E0,0E0,0E0,0E0,0E0],"parents":[2147483647,0,0,1,1,2,2,3,3,4,4,5,5,6,6,7,7,8,8,9,9,10,10,11,11,12,12,13,13,14,14,15,15,16,16,17,17,18,18,19,19,20,20,21,21,22,22,23,23,24,24,27,27,28,28,29,29,30,30],"right_children":[2,4,6,8,10,12,14,16,18,20,22,24,26,28,30,32,34,36,38,40,42,44,46,48,50,-1,-1,52,54,56,58,-1,-1,-1,-1,-1,-1,-1,-1,-1,-1,-1,-1,-1,-1,-1,-1,-1,-1,-1,-1,-1,-1,-1,-1,-1,-1,-1,-1],"split_conditions":[3.8823528E0,1E1,9.4E0,8.9E1,1.3E1,6.5E0,1.33E1,1.3082923E0,1.1E1,2E2,2.2E1,1.8840158E0,1.9884464E0,6E0,1.0128E3,9E0,5E0,1.0177E3,7E0,1.3E1,1.3E0,1.9923542E0,6E0,5.7E0,3.1259115E0,7.570219E-1,9.710741E-2,7.5E1,1.6E0,1.5103778E0,2.832965E0,3.847837E-4,-2.1478629E-2,1.7084346E-4,1.3050395E-2,1.1061292E-1,1.9890232E-2,3.2344318E-3,2.9824847E-2,9.407525E-4,-2.1830661E-2,-2.0159604E-2,4.902771E-2,-1.5749158E-3,-1.09015135E-2,9.025099E-3,-7.363E-3,-1.734202E-2,-6.654424E-2,1.2152731E-1,-5.2309122E-2,7.189765E-2,2.3902556E-2,-1.5122579E-2,6.511413E-2,4.183074E-2,-5.139475E-2,6.6816136E-2,9.915351E-3],"split_indices":[18,12,2,4,12,3,2,14,2,6,12,15,14,12,8,12,12,8,12,7,5,16,1,3,14,0,0,4,5,14,14,0,0,0,0,0,0,0,0,0,0,0,0,0,0,0,0,0,0,0,0,0,0,0,0,0,0,0,0],"split_type":[0,0,0,0,0,0,0,0,0,0,0,0,0,0,0,0,0,0,0,0,0,0,0,0,0,0,0,0,0,0,0,0,0,0,0,0,0,0,0,0,0,0,0,0,0,0,0,0,0,0,0,0,0,0,0,0,0,0,0],"sum_hessian":[8.754E3,8.543E3,2.11E2,3.506E3,5.037E3,1.4E1,1.97E2,3.302E3,2.04E2,1.039E3,3.998E3,1.1E1,3E0,8E1,1.17E2,1.626E3,1.676E3,3.6E1,1.68E2,3.05E2,7.34E2,3.274E3,7.24E2,3E0,8E0,2E0,1E0,1.5E1,6.5E1,2.2E1,9.5E1,1.482E3,1.44E2,8.72E2,8.04E2,1.5E1,2.1E1,1.05E2,6.3E1,2.37E2,6.8E1,7.27E2,7E0,3.04E3,2.34E2,6.11E2,1.13E2,1E0,2E0,5E0,3E0,5E0,1E1,6E1,5E0,1.1E1,1.1E1,6E1,3.5E1],"tree_param":{"num_deleted":"0","num_feature":"21","num_nodes":"59","size_leaf_vector":"1"}},{"base_weights":[-9.832275E-4,-1.8811168E-2,1.9991957E-1,-5.8775097E-2,1.6861908E-2,1.7876793E-1,6.3099504E-1,-4.4774763E-2,-1.1518125E-1,2.2298265E-2,-2.1871924E-1,2.3499247E-1,5.5550005E-2,8.2102764E-1,1.11817405E-1,-5.1031742E-2,3.9417375E-2,-2.2811767E-1,-1.00108415E-1,5.371281E-4,6.533692E-2,-3.698195E-1,-4.6440315E-2,2.1162982E-1,7.759505E-1,3.166177E-1,-2.7566273E-2,1.2083182E0,5.080987E-1,2.529538E-1,-5.7920504E-2,-9.151323E-3,-2.8610227E-3,5.992322E-3,-3.7874248E-2,1.4982744E-2,-2.3864927E-2,-6.9065676E-3,-1.6549764E-2,-1.3764503E-3,1.1207903E-2,1.217224E-2,1.2682498E-3,8.665725E-3,-4.9751703E-2,3.609874E-2,-1.0493119E-2,2.2392469E-2,