{"learner":{"attributes":{"scikit_learn":"{\"_estimator_type\": \"regressor\"}"},"feature_names":[],"feature_types":[],"gradient_booster":{"model":{"gbtree_model_param":{"num_parallel_tree":"1","num_trees":"100"},"iteration_indptr":[0,1,2,3,4,5,6,7,8,9,10,11,12,13,14,15,16,17,18,19,20,21,22,23,24,25,26,27,28,29,30,31,32,33,34,35,36,37,38,39,40,41,42,43,44,45,46,47,48,49,50,51,52,53,54,55,56,57,58,59,60,61,62,63,64,65,66,67,68,69,70,71,72,73,74,75,76,77,78,79,80,81,82,83,84,85,86,87,88,89,90,91,92,93,94,95,96,97,98,99,100],"tree_info":[0,0,0,0,0,0,0,0,0,0,0,0,0,0,0,0,0,0,0,0,0,0,0,0,0,0,0,0,0,0,0,0,0,0,0,0,0,0,0,0,0,0,0,0,0,0,0,0,0,0,0,0,0,0,0,0,0,0,0,0,0,0,0,0,0,0,0,0,0,0,0,0,0,0,0,0,0,0,0,0,0,0,0,0,0,0,0,0,0,0,0,0,0,0,0,0,0,0,0,0],"trees":[{"base_weights":[-1.8875321E-3,3.6931407E-1,-3.112997E-1,5.129609E-1,-2.5134233E-1,-6.5487236E-1,-9.525687E-2,4.299237E-1,9.28739E-1,-8.445618E-2,-7.136456E-1,1.1502392E-1,-7.794513E-1,4.2077854E-1,-2.4840195E-1,1.2961048E0,3.9528438E-1,7.2350436E-1,1.6821208E0,2.1334684E-2,-4.937654E-1,6.54489E-1,-7.524806E-1,-1.3166659E-1,1.4973366E0,-1.8473685E-1,-8.43413E-1,2.336E-1,7.826176E-1,-1.2880695E-1,-5.732833E-1,2.6395458E-1,9.198633E-2,8.548733E-2,3.431489E-2,1.0216037E-1,2.1706177E-2,6.3532665E-2,2.9180038E-1,9.962808E-3,-4.136874E-2,2.4321277E-2,-6.848066E-2,6.460607E-3,7.595444E-2,-6.3776985E-2,-1.0952468E-1,1.6970148E-2,-7.0094734E-2,5.2557117E-1,7.900547E-2,3.794211E-1,-6.3815415E-2,-9.540238E-2,-4.9576204E-2,6.553475E-2,1.3163385E-2,5.9256386E-2,2.535277E-1,-2.6848426E-2,1.1062204E-2,-7.133257E-2,-3.3235215E-2],"categories":[],"categories_nodes":[],"categories_segments":[],"categories_sizes":[],"default_left":[0,0,0,0,0,0,0,0,0,0,0,0,0,0,0,0,0,0,0,0,0,0,0,0,0,0,0,0,0,0,0,0,0,0,0,0,0,0,0,0,0,0,0,0,0,0,0,0,0,0,0,0,0,0,0,0,0,0,0,0,0,0,0],"id":0,"left_children":[1,3,5,7,9,11,13,15,17,19,21,23,25,27,29,31,33,35,37,39,41,43,45,47,49,51,53,55,57,59,61,-1,-1,-1,-1,-1,-1,-1,-1,-1,-1,-1,-1,-1,-1,-1,-1,-1,-1,-1,-1,-1,-1,-1,-1,-1,-1,-1,-1,-1,-1,-1,-1],"loss_changes":[1.00325244E3,3.5416467E2,3.5355228E2,1.1094397E2,5.7572273E1,1.7647345E2,2.3134131E2,8.019827E1,8.165933E1,2.3826183E1,1.101255E1,8.783503E1,6.0059875E1,4.5195274E1,8.7620056E1,4.963417E1,6.1717438E1,6.3638657E1,1.4562964E2,1.4959214E1,1.6076187E1,3.2275128E-1,6.890045E0,3.769126E1,9.95187E1,2.820605E2,5.4477722E1,1.8964493E1,7.444437E1,5.524376E1,2.0243454E1,0E0,0E0,0E0,0E0,0E0,0E0,0E0,0E0,0E0,0E0,0E0,0E0,0E0,0E0,0E0,0E0,0E0,0E0,0E0,0E0,0E0,0E0,0E0,0E0,0E0,0E0,0E0,0E0,0E0,0E0,0E0,0E0],"parents":[2147483647,0,0,1,1,2,2,3,3,4,4,5,5,6,6,7,7,8,8,9,9,10,10,11,11,12,12,13,13,14,14,15,15,16,16,17,17,18,18,19,19,20,20,21,21,22,22,23,23,24,24,25,25,26,26,27,27,28,28,29,29,30,30],"right_children":[2,4,6,8,10,12,14,16,18,20,22,24,26,28,30,32,34,36,38,40,42,44,46,48,50,52,54,56,58,60,62,-1,-1,-1,-1,-1,-1,-1,-1,-1,-1,-1,-1,-1,-1,-1,-1,-1,-1,-1,-1,-1,-1,-1,-1,-1,-1,-1,-1,-1,-1,-1,-1],"split_conditions":[1.1E1,2E1,1.6E1,1E0,3E1,2E0,1.3E1,-1.8396955E0,2.33693E-1,1E0,-3.4542584E0,1E0,-1.4186007E0,2.2E1,2.3E1,-6.465335E-1,2E0,7E0,-2.69367E-1,1.3752071E0,6E0,3.3E1,1E0,-4.9206004E-1,-1.4186007E0,1.2E1,1.5E1,8E0,2.0335128E0,5.4803115E-1,1.8E1,2.6395458E-1,9.198633E-2,8.548733E-2,3.431489E-2,1.0216037E-1,2.1706177E-2,6.3532665E-2,2.9180038E-1,9.962808E-3,-4.136874E-2,2.4321277E-2,-6.848066E-2,6.460607E-3,7.595444E-2,-6.3776985E-2,-1.0952468E-1,1.6970148E-2,-7.0094734E-2,5.2557117E-1,7.900547E-2,3.794211E-1,-6.3815415E-2,-9.540238E-2,-4.9576204E-2,6.553475E-2,1.3163385E-2,5.9256386E-2,2.535277E-1,-2.6848426E-2,1.1062204E-2,-7.133257E-2,-3.3235215E-2],"split_indices":[20,1,20,8,1,1,1,16,10,9,16,9,10,20,1,11,20,1,16,17,19,1,9,15,10,20,20,1,10,15,19,0,0,0,0,0,0,0,0,0,0,0,0,0,0,0,0,0,0,0,0,0,0,0,0,0,0,0,0,0,0,0,0],"split_type":[0,0,0,0,0,0,0,0,0,0,0,0,0,0,0,0,0,0,0,0,0,0,0,0,0,0,0,0,0,0,0,0,0,0,0,0,0,0,0,0,0,0,0,0,0,0,0,0,0,0,0,0,0,0,0,0,0,0,0,0,0,0,0],"sum_hessian":[8.733E3,3.97E3,4.763E3,3.224E3,7.46E2,1.838E3,2.925E3,2.689E3,5.35E2,5.49E2,1.97E2,2.56E2,1.582E3,6.69E2,2.256E3,1.02E2,2.587E3,4.22E2,1.13E2,4.37E2,1.12E2,5E0,1.92E2,2.18E2,3.8E1,1.54E2,1.428E3,4.42E2,2.27E2,1.65E3,6.06E2,2.1E1,8.1E1,2.62E2,2.325E3,2.65E2,1.57E2,6.2E1,5.1E1,3.71E2,6.6E1,2.3E1,8.9E1,1E0,4E0,1.46E2,4.6E1,1.43E2,7.5E1,5E0,3.3E1,1.5E1,1.39E2,1.082E3,3.46E2,8.5E1,3.57E2,2.06E2,2.1E1,1.042E3,6.08E2,3.82E2,2.24E2],"tree_param":{"num_deleted":"0","num_feature":"22","num_nodes":"63","size_leaf_vector":"1"}},{"base_weights":[3.284968E-3,-1.5529005E-1,1.0598519E0,2.3359378E-1,-4.693484E-1,8.6886746E-1,3.9967852E0,4.855244E-1,-2.404014E-1,-7.6364267E-1,-1.975103E-1,7.9812545E-1,3.241504E0,2.3149025E0,6.0380282E0,-2.3563084E-1,7.08887E-1,-6.3881177E-1,9.1568455E-2,-5.4239407E-2,-8.7108517E-1,2.1316845E0,-2.2669196E-1,6.806949E-1,1.8734745E0,2.1003993E0,4.6599264E0,1.9456677E0,4.5104113E-1,7.044963E-1,3.8566342E-1,-6.1499972E-2,1.3288431E-3,1.25493E-1,3.9842915E-2,-4.8704837E-2,-9.481611E-2,2.4923319E-2,-1.7352942E-2,-4.436476E-2,7.123354E-2,-7.426245E-2,-9.838432E-2,-4.2206783E-2,4.4661443E-4,4.984803E-2,1.0046544E-1,1.4366308E-1,3.7291715E-1,8.097013E-2,2.2917986E-1,1.4607722E-1,5.1087934E-1,1.4043999E-1,2.4089134E-1],"categories":[],"categories_nodes":[],"categories_segments":[],"categories_sizes":[],"default_left":[0,0,0,0,0,0,0,0,0,0,0,0,0,0,0,0,0,0,0,0,0,0,0,0,0,0,0,0,0,0,0,0,0,0,0,0,0,0,0,0,0,0,0,0,0,0,0,0,0,0,0,0,0,0,0],"id":1,"left_children":[1,3,5,7,9,11,13,15,17,19,21,23,25,27,29,31,33,35,37,39,41,-1,43,45,47,49,51,53,-1,-1,-1,-1,-1,-1,-1,-1,-1,-1,-1,-1,-1,-1,-1,-1,-1,-1,-1,-1,-1,-1,-1,-1,-1,-1,-1],"loss_changes":[1.4777451E3,9.3674164E2,6.4213306E2,4.0934808E2,3.3929095E2,1.7902124E2,2.263418E2,3.606621E2,1.5744815E2,1.5521301E2,1.390441E3,1.3157013E2,4.038791E1,2.3650558E1,4.0922363E1,5.005725E1,2.8921533E2,2.4937012E1,2.7211033E1,8.061535E1,2.4893188E1,0E0,9.958568E1,5.557785E1,7.8139496E1,2.8380737E0,1.1205139E1,5.64357E0,0E0,0E0,0E0,0E0,0E0,0E0,0E0,0E0,0E0,0E0,0E0,0E0,0E0,0E0,0E0,0E0,0E0,0E0,0E0,0E0,0E0,0E0,0E0,0E0,0E0,0E0,0E0],"parents":[2147483647,0,0,1,1,2,2,3,3,4,4,5,5,6,6,7,7,8,8,9,9,10,10,11,11,12,12,13,13,14,14,15,15,16,16,17,17,18,18,19,19,20,20,22,22,23,23,24,24,25,25,26,26,27,27],"right_children":[2,4,6,8,10,12,14,16,18,20,22,24,26,28,30,32,34,36,38,40,42,-1,44,46,48,50,52,54,-1,-1,-1,-1,-1,-1,-1,-1,-1,-1,-1,-1,-1,-1,-1,-1,-1,-1,-1,-1,-1,-1,-1,-1,-1,-1,-1],"split_conditions":[8.1E1,1.1E1,1.45E2,1.2E1,3.9E1,1E0,1E0,9E0,4.5E1,2E0,1.2E1,1E0,3.7203476E-1,1E0,1.8E1,6E0,3E0,2.4E1,2.2E1,8E0,1E1,2.1316845E0,6E1,1.06E2,1.14E2,-9.4651675E-1,8E0,1.61E2,4.5104113E-1,7.044963E-1,3.8566342E-1,-6.1499972E-2,1.3288431E-3,1.25493E-1,3.9842915E-2,-4.8704837E-2,-9.481611E-2,2.4923319E-2,-1.7352942E-2,-4.436476E-2,7.123354E-2,-7.426245E-2,-9.838432E-2,-4.2206783E-2,4.4661443E-4,4.984803E-2,1.0046544E-1,1.4366308E-1,3.7291715E-1,8.097013E-2,2.2917986E-1,1.4607722E-1,5.1087934E-1,1.4043999E-1,2.4089134E-1],"split_indices":[0,20,0,1,0,9,8,0,0,1,20,8,16,9,19,0,1,1,1,0,1,0,0,0,0,10,1,0,0,0,0,0,0,0,0,0,0,0,0,0,0,0,0,0,0,0,0,0,0,0,0,0,0,0,0],"split_type":[0,0,0,0,0,0,0,0,0,0,0,0,0,0,0,0,0,0,0,0,0,0,0,0,0,0,0,0,0,0,0,0,0,0,0,0,0,0,0,0,0,0,0,0,0,0,0,0,0,0,0,0,0,0,0],"sum_hessian":[8.818E3,7.668E3,1.15E3,3.426E3,4.242E3,1.081E3,6.9E1,2.237E3,1.189E3,2.036E3,2.206E3,1.051E3,3E1,3.9E1,3E1,5.29E2,1.708E3,5.4E2,6.49E2,2.68E2,1.768E3,2E0,2.204E3,9.49E2,1.02E2,1.8E1,1.2E1,3.5E1,4E0,1.9E1,1.1E1,2.09E2,3.2E2,6.18E2,1.09E3,3.64E2,1.76E2,4.07E2,2.42E2,1.78E2,9E1,8.3E2,9.38E2,1.194E3,1.01E3,6.09E2,3.4E2,8.4E1,1.8E1,3E0,1.5E1,2E0,1E1,1.8E1,1.7E1],"tree_param":{"num_deleted":"0","num_feature":"22","num_nodes":"55","size_leaf_vector":"1"}},{"base_weights":[4.432888E-3,-1.371241E-1,9.729105E-1,1.6791281E-1,-4.371689E-1,7.4546087E-1,3.127778E0,-5.753632E-1,2.8830725E-1,-6.804645E-1,-9.197481E-2,6.878018E-1,2.8362887E0,2.091769E0,5.199232E0,-3.90191E-1,-8.361975E-1,7.1885014E-1,-8.787614E-2,-7.8723294E-1,-4.9482158E-1,-2.114107E-1,1.3290992E-1,5.96959E-1,1.5198362E0,3.6280453E0,1.3548205E0,1.6839972E0,4.8043686E-1,2.6253095E-1,5.64124E-1,-4.2629078E-2,1.0393997E-1,-6.2418193E-2,-1.0387697E-1,5.6192912E-2,1.76035E-1,-3.8773622E-2,2.522181E-2,-6.8785003E-3,-8.31061E-2,6.5957475E-1,-5.1982384E-2,5.028262E-3,-2.642872E-2,9.886147E-3,1.14697956E-1,4.4299774E-2,8.82315E-2,1.2890546E-1,3.3987305E-1,1.3059743E-1,4.032348E-1,1.4605317E-1,5.8608036E-2,1.2872368E-1,2.1039763E-1],"categories":[],"categories_nodes":[],"categories_segments":[],"categories_sizes":[],"default_left":[0,0,0,0,0,0,0,0,0,0,0,0,0,0,0,0,0,0,0,0,0,0,0,0,0,0,0,0,0,0,0,0,0,0,0,0,0,0,0,0,0,0,0,0,0,0,0,0,0,0,0,0,0,0,0,0,0],"id":2,"left_children":[1,3,5,7,9,11,13,15,17,19,21,23,25,27,29,31,33,35,37,39,41,43,45,47,49,51,53,55,-1,-1,-1,-1,-1,-1,-1,-1,-1,-1,-1,-1,-1,-1,-1,-1,-1,-1,-1,-1,-1,-1,-1,-1,-1,-1,-1,-1,-1],"loss_changes":[1.2083496E3,7.038987E2,5.485676E2,3.414666E2,3.255442E2,1.20774414E2,2.1875134E2,2.5368942E1,5.3178796E2,4.4682983E1,4.3110428E1,7.407236E1,2.6754623E1,7.265634E1,2.5009216E1,1.6596363E1,8.800293E0,2.4922711E2,1.7886992E2,4.5348816E1,1.5110312E2,1.4514915E1,1.9118427E1,3.8973785E1,3.7679443E1,1.0693787E1,3.791809E-2,8.122696E0,0E0,0E0,0E0,0E0,0E0,0E0,0E0,0E0,0E0,0E0,0E0,0E0,0E0,0E0,0E0,0E0,0E0,0E0,0E0,0E0,0E0,0E0,0E0,0E0,0E0,0E0,0E0,0E0,0E0],"parents":[2147483647,0,0,1,1,2,2,3,3,4,4,5,5,6,6,7,7,8,8,9,9,10,10,11,11,12,12,13,13,14,14,15,15,16,16,17,17,18,18,19,19,20,20,21,21,22,22,23,23,24,24,25,25,26,26,27,27],"right_children":[2,4,6,8,10,12,14,16,18,20,22,24,26,28,30,32,34,36,38,40,42,44,46,48,50,52,54,56,-1,-1,-1,-1,-1,-1,-1,-1,-1,-1,-1,-1,-1,-1,-1,-1,-1,-1,-1,-1,-1,-1,-1,-1,-1,-1,-1,-1,-1],"split_conditions":[8.1E1,1.2E1,1.39E2,7E0,5E1,1E0,1E0,2E0,7E0,3.4E1,6.7E1,1E0,2E1,1E0,-2.2322164E0,7.5297815E-1,1.1E1,3.6E1,4.7E1,2E0,1.3E1,1.3E1,1E0,1.06E2,1.21E2,1.3E1,1.9E1,1.57E2,4.8043686E-1,2.6253095E-1,5.64124E-1,-4.2629078E-2,1.0393997E-1,-6.2418193E-2,-1.0387697E-1,5.6192912E-2,1.76035E-1,-3.8773622E-2,2.522181E-2,-6.8785003E-3,-8.31061E-2,6.5957475E-1,-5.1982384E-2,5.028262E-3,-2.642872E-2,9.886147E-3,1.14697956E-1,4.4299774E-2,8.82315E-2,1.2890546E-1,3.3987305E-1,1.3059743E-1,4.032348E-1,1.4605317E-1,5.8608036E-2,1.2872368E-1,2.1039763E-1],"split_indices":[0,20,0,0,0,9,8,1,1,0,0,8,19,9,14,13,20,0,0,1,20,1,9,0,0,1,1,0,0,0,0,0,0,0,0,0,0,0,0,0,0,0,0,0,0,0,0,0,0,0,0,0,0,0,0,0,0],"split_type":[0,0,0,0,0,0,0,0,0,0,0,0,0,0,0,0,0,0,0,0,0,0,0,0,0,0,0,0,0,0,0,0,0,0,0,0,0,0,0,0,0,0,0,0,0,0,0,0,0,0,0,0,0,0,0,0,0],"sum_hessian":[8.812E3,7.689E3,1.123E3,3.813E3,3.876E3,1.017E3,1.06E2,5.31E2,3.282E3,2.273E3,1.603E3,9.91E2,2.6E1,7.2E1,3.4E1,3.12E2,2.19E2,1.53E3,1.752E3,1.441E3,8.32E2,1.047E3,5.56E2,8.95E2,9.6E1,1.6E1,1E1,6.4E1,8E0,6E0,2.8E1,3.05E2,7E0,1.09E2,1.1E2,1.331E3,1.99E2,9.31E2,8.21E2,8.3E1,1.358E3,2E0,8.3E2,1.76E2,8.71E2,5.39E2,1.7E1,5.83E2,3.12E2,8.7E1,9E0,3E0,1.3E1,8E0,2E0,3.5E1,2.9E1],"tree_param":{"num_deleted":"0","num_feature":"22","num_nodes":"57","size_leaf_vector":"1"}},{"base_weights":[-1.0186664E-2,-1.3811965E-1,8.1339717E-1,1.3783821E-1,-4.1040137E-1,6.0499436E-1,2.4698029E0,-5.318841E-1,2.4938233E-1,-6.302783E-1,-1.0256458E-1,5.535874E-1,2.4817739E0,2.0825958E0,4.683435E0,-7.683143E-1,-3.3039945E-1,-1.6976859E-1,5.284048E-1,-7.5924724E-1,-5.050326E-1,-1.9439495E-1,1.0087389E-1,4.6067744E-1,8.932937E-1,9.453938E-1,2.857814E0,2.5096936E0,9.912839E-1,4.8886687E-1,4.946158E-2,-1.0848117E-1,-6.626583E-2,-3.6377795E-2,3.679226E-2,-5.356585E-2,1.4106417E-2,3.909269E-2,1.13985896E-1,-5.2704763E-2,-8.710668E-2,3.828738E-1,-5.159464E-2,-2.2797372E-2,1.9375635E-2,5.9210532E-3,1.1568838E-1,4.4331927E-2,1.58384E-1,7.976162E-2,1.08828925E-1,1.486168E-2,1.23438135E-1,3.3193535E-1,1.3946085E-1,1.6920653E-1,3.2481E-1,2.43204E-2,1.0065831E-1],"categories":[],"categories_nodes":[],"categories_segments":[],"categories_sizes":[],"default_left":[0,0,0,0,0,0,0,0,0,0,0,0,0,0,0,0,0,0,0,0,0,0,0,0,0,0,0,0,0,0,0,0,0,0,0,0,0,0,0,0,0,0,0,0,0,0,0,0,0,0,0,0,0,0,0,0,0,0,0],"id":3,"left_children":[1,3,5,7,9,11,13,15,17,19,21,23,25,27,29,31,33,35,37,39,41,43,45,47,49,51,53,55,57,-1,-1,-1,-1,-1,-1,-1,-1,-1,-1,-1,-1,-1,-1,-1,-1,-1,-1,-1,-1,-1,-1,-1,-1,-1,-1,-1,-1,-1,-1],"loss_changes":[9.3489764E2,5.771185E2,4.1032886E2,2.8512683E2,2.6161023E2,1.0099097E2,1.0424512E2,2.5708344E1,3.826414E2,3.6041138E1,3.0134718E1,3.2223694E1,1.3474991E1,5.1113403E1,1.3916016E1,7.6411133E0,7.0332794E0,1.4883513E2,1.64651E2,2.833551E1,5.6225983E1,1.4524544E1,2.2017952E1,1.5167664E1,3.2550812E0,1.42836E0,1.0227997E1,4.4010803E1,1.4432907E-1,0E0,0E0,0E0,0E0,0E0,0E0,0E0,0E0,0E0,0E0,0E0,0E0,0E0,0E0,0E0,0E0,0E0,0E0,0E0,0E0,0E0,0E0,0E0,0E0,0E0,0E0,0E0,0E0,0E0,0E0],"parents":[2147483647,0,0,1,1,2,2,3,3,4,4,5,5,6,6,7,7,8,8,9,9,10,10,11,11,12,12,13,13,14,14,15,15,16,16,17,17,18,18,19,19,20,20,21,21,22,22,23,23,24,24,25,25,26,26,27,27,28,28],"right_children":[2,4,6,8,10,12,14,16,18,20,22,24,26,28,30,32,34,36,38,40,42,44,46,48,50,52,54,56,58,-1,-1,-1,-1,-1,-1,-1,-1,-1,-1,-1,-1,-1,-1,-1,-1,-1,-1,-1,-1,-1,-1,-1,-1,-1,-1,-1,-1,-1,-1],"split_conditions":[7.9E1,1.2E1,1.32E2,7E0,4.9E1,1E0,6E0,5E0,5E0,2.7E1,6.7E1,1.11E2,4E0,1E0,1E0,3E0,2.6306667E0,4.8E1,3.6E1,3E0,1.3E1,1E0,1E0,1E0,1.23E2,8.2E1,2E1,2.33693E-1,1.33E2,4.8886687E-1,4.946158E-2,-1.0848117E-1,-6.626583E-2,-3.6377795E-2,3.679226E-2,-5.356585E-2,1.4106417E-2,3.909269E-2,1.13985896E-1,-5.2704763E-2,-8.710668E-2,3.828738E-1,-5.159464E-2,-2.2797372E-2,1.9375635E-2,5.9210532E-3,1.1568838E-1,4.4331927E-2,1.58384E-1,7.976162E-2,1.08828925E-1,1.486168E-2,1.23438135E-1,3.3193535E-1,1.3946085E-1,1.6920653E-1,3.2481E-1,2.43204E-2,1.0065831E-1],"split_indices":[0,20,0,0,0,9,18,0,20,0,0,0,18,7,6,0,17,0,0,18,20,9,9,2,0,0,19,10,0,0,0,0,0,0,0,0,0,0,0,0,0,0,0,0,0,0,0,0,0,0,0,0,0,0,0,0,0,0,0],"split_type":[0,0,0,0,0,0,0,0,0,0,0,0,0,0,0,0,0,0,0,0,0,0,0,0,0,0,0,0,0,0,0,0,0,0,0,0,0,0,0,0,0,0,0,0,0,0,0,0,0,0,0,0,0,0,0,0,0,0,0],"sum_hessian":[8.871E3,7.679E3,1.192E3,3.814E3,3.865E3,1.06E3,1.32E2,5.44E2,3.27E3,2.254E3,1.611E3,1.033E3,2.7E1,1.14E2,1.8E1,2.49E2,2.95E2,1.307E3,1.963E3,1.108E3,1.146E3,1.11E3,5.01E2,8.13E2,2.2E2,6E0,2.1E1,8.1E1,3.3E1,1.7E1,1E0,6E1,1.89E2,2.82E2,1.3E1,6E2,7.07E2,1.604E3,3.59E2,3.62E2,7.46E2,2E0,1.144E3,1.022E3,8.8E1,4.83E2,1.8E1,8.02E2,1.1E1,1.51E2,6.9E1,2E0,4E0,1.5E1,6E0,4E1,4.1E1,1E0,3.2E1],"tree_param":{"num_deleted":"0","num_feature":"22","num_nodes":"59","size_leaf_vector":"1"}},{"base_weights":[-4.037296E-3,-1.20421365E-1,7.369024E-1,1.5660135E-1,-3.478686E-1,5.7403606E-1,2.5712063E0,3.8054937E-1,-2.0214048E-1,-5.6789947E-1,-1.6512898E-1,4.6330526E-1,8.908967E-1,1.8209208E0,3.640325E0,-1.3811463E-1,5.8927935E-1,-4.899889E-1,4.6908345E-2,3.968417E-2,-6.677546E-1,1.9047747E1,-1.9880767E-1,4.357855E-1,2.2685206E0,8.2639694E-1,1.6562554E0,1.3463902E0,2.1792314E0,4.7328076E0,1.7740812E0,-4.7547936E-2,3.68169E-3,1.1150493E-1,3.0287182E-2,-2.7684255E-2,-6.816886E-2,1.8782873E-2,-2.3334654E-2,-2.6930287E-2,8.845559E-2,-6.1201002E-2,-8.78992E-2,2.1673808E0,5.5847824E-1,-3.6288057E-2,-3.826522E-3,3.2920465E-2,5.599122E-2,4.9187857E-1,3.2853987E-2,7.75849E-2,1.2075137E-1,3.0404323E-1,1.1517178E-1,1.82633E-1,1.09944224E-1,1.5952995E-1,3.3043516E-1,3.6354226E-1,5.9056044E-1,7.501558E-2,2.7042374E-1],"categories":[],"categories_nodes":[],"categories_segments":[],"categories_sizes":[],"default_left":[0,0,0,0,0,0,0,0,0,0,0,0,0,0,0,0,0,0,0,0,0,0,0,0,0,0,0,0,0,0,0,0,0,0,0,0,0,0,0,0,0,0,0,0,0,0,0,0,0,0,0,0,0,0,0,0,0,0,0,0,0,0,0],"id":4,"left_children":[1,3,5,7,9,11,13,15,17,19,21,23,25,27,29,31,33,35,37,39,41,43,45,47,49,51,53,55,57,59,61,-1,-1,-1,-1,-1,-1,-1,-1,-1,-1,-1,-1,-1,-1,-1,-1,-1,-1,-1,-1,-1,-1,-1,-1,-1,-1,-1,-1,-1,-1,-1,-1],"loss_changes":[7.578232E2,4.7860062E2,3.5492847E2,2.752398E2,1.676153E2,3.8076874E1,7.117926E1,2.2840329E2,9.443648E1,1.1481476E2,1.4790939E3,3.9499893E1,1.2601685E1,7.0976257E0,7.111835E1,3.578104E1,2.261413E2,2.4776794E1,2.7965822E1,7.020079E1,1.8597046E1,2.0374878E1,5.99638E1,1.0452209E1,6.0081535E1,4.129776E0,1.1164036E1,1.3106232E0,1.5752365E1,9.418884E0,1.3209969E1,0E0,0E0,0E0,0E0,0E0,0E0,0E0,0E0,0E0,0E0,0E0,0E0,0E0,0E0,0E0,0E0,0E0,0E0,0E0,0E0,0E0,0E0,0E0,0E0,0E0,0E0,0E0,0E0,0E0,0E0,0E0,0E0],"parents":[2147483647,0,0,1,1,2,2,3,3,4,4,5,5,6,6,7,7,8,8,9,9,10,10,11,11,12,12,13,13,14,14,15,15,16,16,17,17,18,18,19,19,20,20,21,21,22,22,23,23,24,24,25,25,26,26,27,27,28,28,29,29,30,30],"right_children":[2,4,6,8,10,12,14,16,18,20,22,24,26,28,30,32,34,36,38,40,42,44,46,48,50,52,54,56,58,60,62,-1,-1,-1,-1,-1,-1,-1,-1,-1,-1,-1,-1,-1,-1,-1,-1,-1,-1,-1,-1,-1,-1,-1,-1,-1,-1,-1,-1,-1,-1,-1,-1],"split_conditions":[7.9E1,1.1E1,1.39E2,1.1E1,3.6E1,1.1E2,1.8E1,1E1,4.5E1,2E0,1.3E1,1E0,6E0,-1.5878049E-1,2.3E1,6E0,3E0,1.8E1,2.3E1,9E0,1.8E1,4E0,5.6E1,9.2E1,1E0,2.1E1,9E0,-1.950282E0,7.352821E-1,1.67E2,1.5E1,-4.7547936E-2,3.68169E-3,1.1150493E-1,3.0287182E-2,-2.7684255E-2,-6.816886E-2,1.8782873E-2,-2.3334654E-2,-2.6930287E-2,8.845559E-2,-6.1201002E-2,-8.78992E-2,2.1673808E0,5.5847824E-1,-3.6288057E-2,-3.826522E-3,3.2920465E-2,5.599122E-2,4.9187857E-1,3.2853987E-2,7.75849E-2,1.2075137E-1,3.0404323E-1,1.1517178E-1,1.82633E-1,1.09944224E-1,1.5952995E-1,3.3043516E-1,3.6354226E-1,5.9056044E-1,7.501558E-2,2.7042374E-1],"split_indices":[0,20,0,1,0,0,20,0,0,1,20,2,18,16,20,0,1,1,1,0,1,1,0,0,5,1,19,16,10,0,19,0,0,0,0,0,0,0,0,0,0,0,0,0,0,0,0,0,0,0,0,0,0,0,0,0,0,0,0,0,0,0,0],"split_type":[0,0,0,0,0,0,0,0,0,0,0,0,0,0,0,0,0,0,0,0,0,0,0,0,0,0,0,0,0,0,0,0,0,0,0,0,0,0,0,0,0,0,0,0,0,0,0,0,0,0,0,0,0,0,0,0,0,0,0,0,0,0,0],"sum_hessian":[8.786E3,7.594E3,1.192E3,3.424E3,4.17E3,1.096E3,9.6E1,2.108E3,1.316E3,1.891E3,2.279E3,8.14E2,2.82E2,5.8E1,3.8E1,6.05E2,1.503E3,6.1E2,7.06E2,2.67E2,1.624E3,3E0,2.276E3,8.03E2,1.1E1,2.62E2,2E1,2.7E1,3.1E1,2.3E1,1.5E1,2.06E2,3.99E2,5.29E2,9.74E2,2.9E2,3.2E2,4.7E2,2.36E2,1.96E2,7.1E1,1.288E3,3.36E2,2E0,1E0,1.125E3,1.151E3,4.34E2,3.69E2,4E0,7E0,2.34E2,2.8E1,4E0,1.6E1,7E0,2E1,2.2E1,9E0,1.4E1,9E0,8E0,7E0],"tree_param":{"num_deleted":"0","num_feature":"22","num_nodes":"63","size_leaf_vector":"1"}},{"base_weights":[3.6566702E-3,-8.300283E-2,8.3541757E-1,-1.4850691E-1,1.594915E-1,6.311291E-1,2.6329417E0,-4.8000363E-1,-1.112523E-1,9.5805965E-2,5.302675E-1,5.344247E-1,2.8630447E0,1.4470677E0,4.0616E0,-7.639026E-1,-3.793541E-1,-1.450078E-2,-2.8027976E-1,6.134854E-2,8.976416E-1,2.6201808E-1,6.437343E-1,4.397155E-1,9.9660367E-1,3.4916801E0,1.7240359E0,1.6359653E0,5.656599E-1,4.594654E0,2.1095827E-1,1.5454399E-2,-8.237681E-2,-2.0565344E-2,-4.474079E-2,4.7455285E-2,-3.8332087E-3,-3.25626E-2,1.6561833E-3,4.0703206E-3,1.1500155E-1,2.7933905E-1,6.352734E-2,3.1694338E-2,8.0560995E-3,2.3309207E-1,6.0075473E-2,2.715586E-2,5.248017E-2,1.497843E-1,8.09392E-2,2.1801472E-1,4.0750623E-1,7.793678E-2,1.9294995E-1,1.9872187E-1,1.0068376E-1,6.792769E-2,7.4127913E-3,1.817802E-1,4.7330213E-1],"categories":[],"categories_nodes":[],"categories_segments":[],"categories_sizes":[],"default_left":[0,0,0,0,0,0,0,0,0,0,0,0,0,0,0,0,0,0,0,0,0,0,0,0,0,0,0,0,0,0,0,0,0,0,0,0,0,0,0,0,0,0,0,0,0,0,0,0,0,0,0,0,0,0,0,0,0,0,0,0,0],"id":5,"left_children":[1,3,5,7,9,11,13,15,17,19,21,23,25,27,29,31,33,35,37,39,41,43,45,47,49,51,53,55,57,59,-1,-1,-1,-1,-1,-1,-1,-1,-1,-1,-1,-1,-1,-1,-1,-1,-1,-1,-1,-1,-1,-1,-1,-1,-1,-1,-1,-1,-1,-1,-1],"loss_changes":[6.386259E2,1.2747986E2,3.0532886E2,7.79725E1,4.02567E1,1.607785E2,1.3813031E2,1.7940613E1,9.290109E1,4.0228294E1,7.4406815E0,3.1165604E1,1.6176895E1,7.0664062E0,2.9847412E1,9.254532E0,5.499321E0,4.2138588E1,2.784201E1,3.139696E1,2.806849E1,7.319269E-1,1.1289726E1,8.45649E0,1.023587E1,5.653122E0,1.0194435E0,6.6175385E0,5.081103E-1,2.5387573E0,0E0,0E0,0E0,0E0,0E0,0E0,0E0,0E0,0E0,0E0,0E0,0E0,0E0,0E0,0E0,0E0,0E0,0E0,0E0,0E0,0E0,0E0,0E0,0E0,0E0,0E0,0E0,0E0,0E0,0E0,0E0],"parents":[2147483647,0,0,1,1,2,2,3,3,4,4,5,5,6,6,7,7,8,8,9,9,10,10,11,11,12,12,13,13,14,14,15,15,16,16,17,17,18,18,19,19,20,20,21,21,22,22,23,23,24,24,25,25,26,26,27,27,28,28,29,29],"right_children":[2,4,6,8,10,12,14,16,18,20,22,24,26,28,30,32,34,36,38,40,42,44,46,48,50,52,54,56,58,60,-1,-1,-1,-1,-1,-1,-1,-1,-1,-1,-1,-1,-1,-1,-1,-1,-1,-1,-1,-1,-1,-1,-1,-1,-1,-1,-1,-1,-1,-1,-1],"split_conditions":[8.9E1,6E1,1E0,7E0,1E0,1E0,1.28E2,4E0,-9.086469E-2,1E0,6.7E1,1.27E2,1.5319238E0,1.0540215E0,4.194923E-1,-2.2322164E0,-2.0504463E-1,-1.8396955E0,1E0,1E0,-1.9281406E0,3.103248E-1,-5.079824E-1,9.8E1,-4.1542238E-1,1.06E2,9.7E1,2.2208011E-1,1.2601657E0,-8.293869E-1,2.1095827E-1,1.5454399E-2,-8.237681E-2,-2.0565344E-2,-4.474079E-2,4.7455285E-2,-3.8332087E-3,-3.25626E-2,1.6561833E-3,4.0703206E-3,1.1500155E-1,2.7933905E-1,6.352734E-2,3.1694338E-2,8.0560995E-3,2.3309207E-1,6.0075473E-2,2.715586E-2,5.248017E-2,1.497843E-1,8.09392E-2,2.1801472E-1,4.0750623E-1,7.793678E-2,1.9294995E-1,1.9872187E-1,1.0068376E-1,6.792769E-2,7.4127913E-3,1.817802E-1,4.7330213E-1],"split_indices":[0,0,8,0,8,9,0,0,10,9,0,0,10,15,11,14,14,16,8,2,14,12,17,0,10,0,0,11,15,15,0,0,0,0,0,0,0,0,0,0,0,0,0,0,0,0,0,0,0,0,0,0,0,0,0,0,0,0,0,0,0],"split_type":[0,0,0,0,0,0,0,0,0,0,0,0,0,0,0,0,0,0,0,0,0,0,0,0,0,0,0,0,0,0,0,0,0,0,0,0,0,0,0,0,0,0,0,0,0,0,0,0,0,0,0,0,0,0,0,0,0,0,0,0,0],"sum_hessian":[8.858E3,8.023E3,8.35E2,6.317E3,1.706E3,7.51E2,8.4E1,6.37E2,5.68E3,1.457E3,2.49E2,7.21E2,3E1,4.7E1,3.7E1,1.65E2,4.72E2,3.613E3,2.067E3,1.398E3,5.9E1,7.5E1,1.74E2,6E2,1.21E2,1.8E1,1.2E1,3.8E1,9E0,2.8E1,9E0,1E1,1.55E2,1.34E2,3.38E2,1.67E2,3.446E3,1.793E3,2.74E2,1.373E3,2.5E1,6E0,5.3E1,5.7E1,1.8E1,3E0,1.71E2,2.03E2,3.97E2,3.1E1,9E1,7E0,1.1E1,3E0,9E0,2.3E1,1.5E1,7E0,2E0,2E0,2.6E1],"tree_param":{"num_deleted":"0","num_feature":"22","num_nodes":"61","size_leaf_vector":"1"}},{"base_weights":[1.3388028E-2,-4.015192E-2,1.2025032E0,1.7555797E-1,-2.520529E-1,8.741829E-1,2.526017E0,-3.1311044E-1,2.685149E-1,-4.5917004E-1,6.82442E-2,7.834758E-1,3.0312164E0,2.0340912E0,4.212863E-1,-1.5852642E-1,-5.5567324E-1,8.117339E-1,6.291912E-2,-6.04732E-1,-3.4363237E-1,-7.973335E-2,2.5583056E-1,7.123206E-1,1.5939922E0,3.876312E-1,1.8738179E-1,1.3322928E0,2.7383485E0,-6.2541924E-2,-5.3837462E-3,-4.9298596E-2,-1.1801907E-1,3.1631064E-2,1.1787063E-1,-2.7356023E-2,2.3540976E-2,-2.660023E-2,-7.026862E-2,5.3663635E-1,-3.59244E-2,-1.0933786E-2,4.470452E-2,2.0918403E-2,1.5778224E-1,6.496289E-2,1.0325407E-1,9.027445E-2,2.7772388E-1,1.6963746E-1,8.065753E-2,3.8011852E-1,1.7645116E-1],"categories":[],"categories_nodes":[],"categories_segments":[],"categories_sizes":[],"default_left":[0,0,0,0,0,0,0,0,0,0,0,0,0,0,0,0,0,0,0,0,0,0,0,0,0,0,0,0,0,0,0,0,0,0,0,0,0,0,0,0,0,0,0,0,0,0,0,0,0,0,0,0,0],"id":6,"left_children":[1,3,5,7,9,11,13,15,17,19,21,23,25,27,-1,29,31,33,35,37,39,41,43,45,47,-1,-1,49,51,-1,-1,-1,-1,-1,-1,-1,-1,-1,-1,-1,-1,-1,-1,-1,-1,-1,-1,-1,-1,-1,-1,-1,-1],"loss_changes":[5.615114E2,3.8582938E2,1.6291571E2,1.9009734E2,2.8250293E2,5.749652E1,5.3665833E1,2.4996964E1,3.925165E2,4.3283203E1,4.6460484E1,1.5877914E1,4.4738464E0,2.6006516E1,0E0,2.0006525E1,9.597008E0,1.7507068E2,1.4812326E2,3.7737885E1,1.3064932E2,1.4645815E1,4.5179707E1,4.8097534E0,1.6304935E1,0E0,0E0,4.7566757E0,2.3308609E1,0E0,0E0,0E0,0E0,0E0,0E0,0E0,0E0,0E0,0E0,0E0,0E0,0E0,0E0,0E0,0E0,0E0,0E0,0E0,0E0,0E0,0E0,0E0,0E0],"parents":[2147483647,0,0,1,1,2,2,3,3,4,4,5,5,6,6,7,7,8,8,9,9,10,10,11,11,12,12,13,13,15,15,16,16,17,17,18,18,19,19,20,20,21,21,22,22,23,23,24,24,27,27,28,28],"right_children":[2,4,6,8,10,12,14,16,18,20,22,24,26,28,-1,30,32,34,36,38,40,42,44,46,48,-1,-1,50,52,-1,-1,-1,-1,-1,-1,-1,-1,-1,-1,-1,-1,-1,-1,-1,-1,-1,-1,-1,-1,-1,-1,-1,-1],"split_conditions":[1.11E2,1.2E1,1.46E2,8E0,5.5E1,1E0,6E0,2E0,4E0,2.8E1,7.2E1,6E0,7.166946E-1,1.6E1,4.212863E-1,4E0,5E0,1.2E1,3.6E1,5E0,1.3E1,1E0,1E0,1.37E2,1.19747475E-1,3.876312E-1,1.8738179E-1,-4.1542238E-1,1.8E1,-6.2541924E-2,-5.3837462E-3,-4.9298596E-2,-1.1801907E-1,3.1631064E-2,1.1787063E-1,-2.7356023E-2,2.3540976E-2,-2.660023E-2,-7.026862E-2,5.3663635E-1,-3.59244E-2,-1.0933786E-2,4.470452E-2,2.0918403E-2,1.5778224E-1,6.496289E-2,1.0325407E-1,9.027445E-2,2.7772388E-1,1.6963746E-1,8.065753E-2,3.8011852E-1,1.7645116E-1],"split_indices":[0,20,0,0,0,9,18,1,1,0,0,18,15,19,0,0,1,0,0,1,20,9,9,0,17,0,0,10,19,0,0,0,0,0,0,0,0,0,0,0,0,0,0,0,0,0,0,0,0,0,0,0,0],"split_type":[0,0,0,0,0,0,0,0,0,0,0,0,0,0,0,0,0,0,0,0,0,0,0,0,0,0,0,0,0,0,0,0,0,0,0,0,0,0,0,0,0,0,0,0,0,0,0,0,0,0,0,0,0],"sum_hessian":[8.818E3,8.439E3,3.79E2,4.182E3,4.257E3,3.05E2,7.4E1,6.68E2,3.514E3,2.585E3,1.672E3,2.94E2,1.1E1,5.9E1,1.5E1,4.09E2,2.59E2,9.64E2,2.55E3,1.142E3,1.443E3,9.35E2,7.37E2,2.72E2,2.2E1,5E0,6E0,3.1E1,2.8E1,7.4E1,3.35E2,2.37E2,2.2E1,4.11E2,5.53E2,8.64E2,1.686E3,2.57E2,8.85E2,3E0,1.44E3,8.86E2,4.9E1,7.13E2,2.4E1,2.3E2,4.2E1,1.5E1,7E0,1.7E1,1.4E1,1.2E1,1.6E1],"tree_param":{"num_deleted":"0","num_feature":"22","num_nodes":"53","size_leaf_vector":"1"}},{"base_weights":[-2.5578844E-3,1.9450067E-1,-1.6728084E-1,2.98992E-1,-2.1095905E-1,2.519456E-2,-2.7830824E-1,5.527883E-1,2.0779684E-1,-1.04314804E-1,-5.3458065E-1,-7.0807725E-2,5.4520255E-1,-1.3004321E-1,-4.6340573E-1,1.029632E0,3.547105E-1,1.327595E-1,5.272082E-1,-4.2656373E-2,-3.521056E-1,-4.646365E-1,-7.632023E-1,-1.625057E-1,7.200866E-2,4.2517257E-1,4.6018636E-1,8.403534E-1,-2.3093525E-1,-5.995705E-1,-2.8827682E-1,7.777729E-2,2.0263354E-1,7.578141E-2,1.9565415E-2,4.0407967E-2,8.999526E-3,4.6544965E-2,1.8874027E-1,1.5314022E-3,-2.2442456E-2,-4.77097E-2,1.8336305E-2,-3.7235826E-2,-7.106345E-2,-9.61036E-2,-5.4181166E-2,-9.629507E-2,-1.3856269E-2,1.0416855E-1,-3.3810814E-3,5.997249E-3,7.257946E-2,1.830956E-2,4.355932E-1,-1.7094532E-2,-4.0198993E-2,-5.6687754E-2,-1.03253916E-1,-5.334252E-3,-4.1920505E-2],"categories":[],"categories_nodes":[],"categories_segments":[],"categories_sizes":[],"default_left":[0,0,0,0,0,0,0,0,0,0,0,0,0,0,0,0,0,0,0,0,0,0,0,0,0,0,0,0,0,0,0,0,0,0,0,0,0,0,0,0,0,0,0,0,0,0,0,0,0,0,0,0,0,0,0,0,0,0,0,0,0],"id":7,"left_children":[1,3,5,7,9,11,13,15,17,19,21,23,25,27,29,31,33,35,37,39,41,43,45,47,49,-1,51,53,55,57,59,-1,-1,-1,-1,-1,-1,-1,-1,-1,-1,-1,-1,-1,-1,-1,-1,-1,-1,-1,-1,-1,-1,-1,-1,-1,-1,-1,-1,-1,-1],"loss_changes":[2.8509683E2,1.6948883E2,1.0224132E2,7.348624E1,2.8244389E1,8.745196E1,8.320326E1,7.897455E1,5.6038597E1,9.427027E0,2.89151E0,1.9380648E1,8.406966E1,1.6526237E2,3.1995972E1,6.0177094E1,3.8000862E1,2.1974144E1,3.6503136E1,5.2298746E0,8.319747E0,3.322033E0,1.4940319E0,1.713429E1,5.94468E1,0E0,2.8444893E1,3.665944E2,1.5610947E1,1.0144196E1,1.8187283E1,0E0,0E0,0E0,0E0,0E0,0E0,0E0,0E0,0E0,0E0,0E0,0E0,0E0,0E0,0E0,0E0,0E0,0E0,0E0,0E0,0E0,0E0,0E0,0E0,0E0,0E0,0E0,0E0,0E0,0E0],"parents":[2147483647,0,0,1,1,2,2,3,3,4,4,5,5,6,6,7,7,8,8,9,9,10,10,11,11,12,12,13,13,14,14,15,15,16,16,17,17,18,18,19,19,20,20,21,21,22,22,23,23,24,24,26,26,27,27,28,28,29,29,30,30],"right_children":[2,4,6,8,10,12,14,16,18,20,22,24,26,28,30,32,34,36,38,40,42,44,46,48,50,-1,52,54,56,58,60,-1,-1,-1,-1,-1,-1,-1,-1,-1,-1,-1,-1,-1,-1,-1,-1,-1,-1,-1,-1,-1,-1,-1,-1,-1,-1,-1,-1,-1,-1],"split_conditions":[1.1E1,1.9E1,-5.275019E-1,3E0,3E1,1E0,4E0,3E0,1.8259768E-1,1E0,1E0,1.9E1,-2.88865E0,1.2E1,1.5E1,1E0,1.19747475E-1,1E0,1E0,1E0,6E0,4E1,2.107043E-1,1.3E1,2E1,4.2517257E-1,5.5825067E-1,1E0,2E1,1.0512112E0,1.7E1,7.777729E-2,2.0263354E-1,7.578141E-2,1.9565415E-2,4.0407967E-2,8.999526E-3,4.6544965E-2,1.8874027E-1,1.5314022E-3,-2.2442456E-2,-4.77097E-2,1.8336305E-2,-3.7235826E-2,-7.106345E-2,-9.61036E-2,-5.4181166E-2,-9.629507E-2,-1.3856269E-2,1.0416855E-1,-3.3810814E-3,5.997249E-3,7.257946E-2,1.830956E-2,4.355932E-1,-1.7094532E-2,-4.0198993E-2,-5.6687754E-2,-1.03253916E-1,-5.334252E-3,-4.1920505E-2],"split_indices":[20,1,12,18,1,8,18,1,11,9,9,19,12,20,20,9,17,1,2,3,18,1,15,20,19,0,10,9,1,11,1,0,0,0,0,0,0,0,0,0,0,0,0,0,0,0,0,0,0,0,0,0,0,0,0,0,0,0,0,0,0],"split_type":[0,0,0,0,0,0,0,0,0,0,0,0,0,0,0,0,0,0,0,0,0,0,0,0,0,0,0,0,0,0,0,0,0,0,0,0,0,0,0,0,0,0,0,0,0,0,0,0,0,0,0,0,0,0,0,0,0,0,0,0,0],"sum_hessian":[8.781E3,3.998E3,4.783E3,3.179E3,8.19E2,1.75E3,3.033E3,8.39E2,2.34E3,6.17E2,2.02E2,1.478E3,2.72E2,1.685E3,1.348E3,2.45E2,5.94E2,1.896E3,4.44E2,4.95E2,1.22E2,1.57E2,4.5E1,9E2,5.78E2,5E0,2.67E2,1.58E2,1.527E3,7.57E2,5.91E2,1.97E2,4.8E1,1.67E2,4.27E2,2.57E2,1.639E3,4.26E2,1.8E1,3.76E2,1.19E2,9.9E1,2.3E1,1.16E2,4.1E1,2.2E1,2.3E1,2.5E1,8.75E2,5.6E1,5.22E2,1.07E2,1.6E2,1.34E2,2.4E1,1.132E3,3.95E2,7.06E2,5.1E1,2.12E2,3.79E2],"tree_param":{"num_deleted":"0","num_feature":"22","num_nodes":"61","size_leaf_vector":"1"}},{"base_weights":[-6.49426E-4,-9.209154E-2,5.508793E-1,1.8488827E-1,-2.3164916E-1,4.264865E-1,1.9293547E0,-2.4163213E-1,5.1116514E-1,-5.604911E-1,-1.0118294E-1,3.614257E-1,9.616606E-1,1.193535E0,3.366893E0,-1.4999552E-1,-5.878703E-1,1.0127261E0,2.952878E-1,-8.0328846E-1,-4.6094218E-1,1.0352062E-1,-2.0740636E-1,3.3926183E-1,1.5380853E0,1.5154662E0,5.773745E-1,9.8503435E-1,2.3668852E0,2.2528863E0,4.186431E-1,-4.865644E-2,-2.576428E-3,-5.9948403E-2,5.0234325E-2,1.2747592E-1,5.8810096E-2,3.4573672E-3,9.1794185E-2,-7.548302E-2,-1.1547822E-1,-3.1626355E-2,-6.843396E-2,2.6047537E-2,-3.0766397E-3,-3.1853538E-2,-4.593361E-3,1.9381218E-2,5.0793048E-2,-5.363226E-3,3.3126196E-1,1.9532138E-1,2.1904647E-2,3.4770276E-2,9.376114E-2,8.987754E-2,3.1234175E-1,6.000631E-2,2.4965253E-1,2.4202283E-1,1.10396765E-1],"categories":[],"categories_nodes":[],"categories_segments":[],"categories_sizes":[],"default_left":[0,0,0,0,0,0,0,0,0,0,0,0,0,0,0,0,0,0,0,0,0,0,0,0,0,0,0,0,0,0,0,0,0,0,0,0,0,0,0,0,0,0,0,0,0,0,0,0,0,0,0,0,0,0,0,0,0,0,0,0,0],"id":8,"left_children":[1,3,5,7,9,11,13,15,17,19,21,23,25,27,29,31,33,35,37,39,41,43,45,47,49,51,53,55,57,59,-1,-1,-1,-1,-1,-1,-1,-1,-1,-1,-1,-1,-1,-1,-1,-1,-1,-1,-1,-1,-1,-1,-1,-1,-1,-1,-1,-1,-1,-1,-1],"loss_changes":[4.510726E2,2.9660126E2,2.172901E2,3.5791348E2,2.1883319E2,4.0320847E1,1.0704721E2,3.5288643E1,1.5745856E2,3.4652374E1,7.947519E1,2.6678925E1,2.5940315E1,1.5038284E1,2.252243E1,3.6907787E1,3.2512589E0,4.798474E1,1.6554967E2,6.2821045E0,3.307405E1,2.6333166E1,4.3159363E1,2.5047676E1,5.3844254E1,2.8514893E1,5.961941E0,8.628944E0,7.924309E-1,5.966034E-1,0E0,0E0,0E0,0E0,0E0,0E0,0E0,0E0,0E0,0E0,0E0,0E0,0E0,0E0,0E0,0E0,0E0,0E0,0E0,0E0,0E0,0E0,0E0,0E0,0E0,0E0,0E0,0E0,0E0,0E0,0E0],"parents":[2147483647,0,0,1,1,2,2,3,3,4,4,5,5,6,6,7,7,8,8,9,9,10,10,11,11,12,12,13,13,14,14,15,15,16,16,17,17,18,18,19,19,20,20,21,21,22,22,23,23,24,24,25,25,26,26,27,27,28,28,29,29],"right_children":[2,4,6,8,10,12,14,16,18,20,22,24,26,28,30,32,34,36,38,40,42,44,46,48,50,52,54,56,58,60,-1,-1,-1,-1,-1,-1,-1,-1,-1,-1,-1,-1,-1,-1,-1,-1,-1,-1,-1,-1,-1,-1,-1,-1,-1,-1,-1,-1,-1,-1,-1],"split_conditions":[7.8E1,7E0,1.39E2,1E1,3.3E1,1E0,1E0,3E0,2E0,1.7E1,1.5E1,7E0,1.9E1,6E0,-3.233966E-1,5E0,3.2583966E0,4E0,3.2E1,7E0,1.7E1,1.3E1,5.7E1,9.8E1,-8.886515E-1,6.595597E-1,9E1,2.3E1,3.8000986E-1,2.2E1,4.186431E-1,-4.865644E-2,-2.576428E-3,-5.9948403E-2,5.0234325E-2,1.2747592E-1,5.8810096E-2,3.4573672E-3,9.1794185E-2,-7.548302E-2,-1.1547822E-1,-3.1626355E-2,-6.843396E-2,2.6047537E-2,-3.0766397E-3,-3.1853538E-2,-4.593361E-3,1.9381218E-2,5.0793048E-2,-5.363226E-3,3.3126196E-1,1.9532138E-1,2.1904647E-2,3.4770276E-2,9.376114E-2,8.987754E-2,3.1234175E-1,6.000631E-2,2.4965253E-1,2.4202283E-1,1.10396765E-1],"split_indices":[0,1,0,0,0,8,8,1,1,0,1,18,20,18,15,0,17,18,0,18,1,20,0,0,16,16,0,1,11,20,0,0,0,0,0,0,0,0,0,0,0,0,0,0,0,0,0,0,0,0,0,0,0,0,0,0,0,0,0,0,0],"split_type":[0,0,0,0,0,0,0,0,0,0,0,0,0,0,0,0,0,0,0,0,0,0,0,0,0,0,0,0,0,0,0,0,0,0,0,0,0,0,0,0,0,0,0,0,0,0,0,0,0,0,0,0,0,0,0,0,0,0,0,0,0],"sum_hessian":[8.942E3,7.671E3,1.271E3,2.57E3,5.101E3,1.167E3,1.04E2,1.114E3,1.456E3,1.448E3,3.653E3,1.042E3,1.25E2,7E1,3.4E1,8.82E2,2.32E2,4.37E2,1.019E3,4.19E2,1.029E3,1.248E3,2.405E3,1.024E3,1.8E1,5E1,7.5E1,6.1E1,9E0,1.6E1,1.8E1,2.37E2,6.45E2,2.3E2,2E0,2.69E2,1.68E2,7.19E2,3E2,3.71E2,4.8E1,6.26E2,4.03E2,5.75E2,6.73E2,1.424E3,9.81E2,5.51E2,4.73E2,1E1,8E0,3.7E1,1.3E1,4.7E1,2.8E1,6E1,1E0,1E0,8E0,1.3E1,3E0],"tree_param":{"num_deleted":"0","num_feature":"22","num_nodes":"61","size_leaf_vector":"1"}},{"base_weights":[3.908035E-3,1.675226E-1,-1.3426226E-1,2.5342312E-1,-1.6150111E-1,2.978056E-2,-2.3191023E-1,2.0284174E-1,5.053837E-1,-4.4802554E-2,-3.8737062E-1,-4.5642853E-2,4.4082594E-1,1.19490914E-1,-2.6474953E-1,7.298043E-1,1.7754073E-1,7.064014E-1,2.9323003E-1,8.2730526E-1,-5.426942E-2,6.224887E-1,-4.150379E-1,-1.2771848E-1,8.327117E-2,3.5436714E-1,3.7076014E-1,-7.137872E-2,6.9619745E-1,-3.525987E-1,-1.7060557E-1,1.3659069E-1,4.0285293E-2,1.4860864E-2,5.7159323E-2,3.1046793E-2,1.0463543E-1,-6.146605E-3,6.538558E-2,4.4700266E-3,9.748863E-2,-1.5342108E-3,-2.8863475E-2,2.9862812E-2,7.570794E-2,-3.58565E-2,-6.593669E-2,-1.7348206E-2,1.2311413E-2,8.701488E-2,-1.1936722E-4,3.477793E-3,6.0218405E-2,1.06399514E-1,-1.864372E-2,8.2064164E-1,3.215708E-2,-1.3477403E-2,-4.428984E-2,-1.0913915E-2,-4.757848E-2],"categories":[],"categories_nodes":[],"categories_segments":[],"categories_sizes":[],"default_left":[0,0,0,0,0,0,0,0,0,0,0,0,0,0,0,0,0,0,0,0,0,0,0,0,0,0,0,0,0,0,0,0,0,0,0,0,0,0,0,0,0,0,0,0,0,0,0,0,0,0,0,0,0,0,0,0,0,0,0,0,0],"id":9,"left_children":[1,3,5,7,9,11,13,15,17,19,21,23,25,27,29,31,33,35,37,39,41,43,45,47,49,-1,51,53,55,57,59,-1,-1,-1,-1,-1,-1,-1,-1,-1,-1,-1,-1,-1,-1,-1,-1,-1,-1,-1,-1,-1,-1,-1,-1,-1,-1,-1,-1,-1,-1],"loss_changes":[1.9948117E2,1.1422471E2,7.663915E1,4.0730896E1,2.2044832E1,5.5390488E1,3.463939E1,3.5468697E1,2.2608826E1,4.6105375E0,8.2212715E0,1.5987491E1,5.8906876E1,2.8339167E1,2.2625748E1,2.4822647E1,2.8975609E1,3.655519E1,3.3553276E1,6.4940786E-1,4.9950924E0,1.2262368E-1,3.599411E0,1.061647E1,3.9081573E1,0E0,2.1128227E1,2.554144E1,1.7742685E2,2.783165E1,2.4821545E1,0E0,0E0,0E0,0E0,0E0,0E0,0E0,0E0,0E0,0E0,0E0,0E0,0E0,0E0,0E0,0E0,0E0,0E0,0E0,0E0,0E0,0E0,0E0,0E0,0E0,0E0,0E0,0E0,0E0,0E0],"parents":[2147483647,0,0,1,1,2,2,3,3,4,4,5,5,6,6,7,7,8,8,9,9,10,10,11,11,12,12,13,13,14,14,15,15,16,16,17,17,18,18,19,19,20,20,21,21,22,22,23,23,24,24,26,26,27,27,28,28,29,29,30,30],"right_children":[2,4,6,8,10,12,14,16,18,20,22,24,26,28,30,32,34,36,38,40,42,44,46,48,50,-1,52,54,56,58,60,-1,-1,-1,-1,-1,-1,-1,-1,-1,-1,-1,-1,-1,-1,-1,-1,-1,-1,-1,-1,-1,-1,-1,-1,-1,-1,-1,-1,-1,-1],"split_conditions":[1.1E1,1.9E1,-5.275019E-1,1E0,2.8E1,1E0,2E0,-1.6848744E0,1.19747475E-1,-3.4542584E0,-3.4542584E0,1.9E1,-2.88865E0,9.9131924E-1,1.6E1,-4.491213E-1,1.5221345E0,1.7E1,6E0,-1.4814502E-2,2.6306667E0,4.6265692E-1,8.537991E-1,2.3E1,2E1,3.5436714E-1,5.5825067E-1,-1.8839301E0,1.0134366E0,-9.9805033E-1,2.6E1,1.3659069E-1,4.0285293E-2,1.4860864E-2,5.7159323E-2,3.1046793E-2,1.0463543E-1,-6.146605E-3,6.538558E-2,4.4700266E-3,9.748863E-2,-1.5342108E-3,-2.8863475E-2,2.9862812E-2,7.570794E-2,-3.58565E-2,-6.593669E-2,-1.7348206E-2,1.2311413E-2,8.701488E-2,-1.1936722E-4,3.477793E-3,6.0218405E-2,1.06399514E-1,-1.864372E-2,8.2064164E-1,3.215708E-2,-1.3477403E-2,-4.428984E-2,-1.0913915E-2,-4.757848E-2],"split_indices":[20,1,12,8,1,8,1,16,17,16,16,19,12,16,20,11,16,19,20,11,17,12,11,20,19,0,10,16,16,15,1,0,0,0,0,0,0,0,0,0,0,0,0,0,0,0,0,0,0,0,0,0,0,0,0,0,0,0,0,0,0],"split_type":[0,0,0,0,0,0,0,0,0,0,0,0,0,0,0,0,0,0,0,0,0,0,0,0,0,0,0,0,0,0,0,0,0,0,0,0,0,0,0,0,0,0,0,0,0,0,0,0,0,0,0,0,0,0,0,0,0,0,0,0,0],"sum_hessian":[8.822E3,4.039E3,4.783E3,3.203E3,8.36E2,1.785E3,2.998E3,2.669E3,5.34E2,5.52E2,2.84E2,1.509E3,2.76E2,2.56E2,2.742E3,1.21E2,2.548E3,2.73E2,2.61E2,5E0,5.47E2,7E0,2.77E2,9.22E2,5.87E2,5E0,2.71E2,1.93E2,6.3E1,1.417E3,1.325E3,4E1,8.1E1,2.375E3,1.73E2,1.27E2,1.46E2,1.32E2,1.29E2,1E0,4E0,4.7E2,7.7E1,3E0,4E0,2.27E2,5E1,7.8E2,1.42E2,5.6E1,5.31E2,1.11E2,1.6E2,1.7E1,1.76E2,2E0,6.1E1,4.16E2,1.001E3,1.104E3,2.21E2],"tree_param":{"num_deleted":"0","num_feature":"22","num_nodes":"61","size_leaf_vector":"1"}},{"base_weights":[-2.6674778E-3,-6.115333E-2,7.008032E-1,9.800502E-2,-1.8870522E-1,5.2681994E-1,2.1832683E0,2.6487017E-1,-8.7425314E-2,-3.54965E-1,-3.0587878E-2,4.4933096E-1,1.1796663E0,9.6520543E-1,2.824276E0,-1.364671E-1,4.6018764E-1,-3.2350105E-1,1.2804826E-1,-6.302644E-2,-4.1574442E-1,1.7030903E0,-4.5257583E-2,3.993986E-1,7.1176696E-1,9.456589E-1,2.34874E0,1.1666938E0,4.549838E-2,1.614348E-1,3.1155243E0,-3.2762714E-2,-3.01396E-3,8.6533725E-2,3.03732E-2,-5.2174848E-2,-2.1094784E-2,7.7234157E-3,6.279121E-2,7.595304E-2,-2.0962728E-2,-6.0137343E-2,-3.4034748E-2,-1.3225268E-2,1.0974357E-2,8.606627E-2,3.776233E-2,3.9343223E-2,1.8136089E-1,8.548845E-2,2.9237393E-1,6.142645E-2,2.4732082E-1,1.24685705E-1,3.5025813E-2,3.3389643E-1,1.06240414E-1],"categories":[],"categories_nodes":[],"categories_segments":[],"categories_sizes":[],"default_left":[0,0,0,0,0,0,0,0,0,0,0,0,0,0,0,0,0,0,0,0,0,0,0,0,0,0,0,0,0,0,0,0,0,0,0,0,0,0,0,0,0,0,0,0,0,0,0,0,0,0,0,0,0,0,0,0,0],"id":10,"left_children":[1,3,5,7,9,11,13,15,17,19,21,23,25,27,29,31,33,35,37,39,41,-1,43,45,47,49,51,53,-1,-1,55,-1,-1,-1,-1,-1,-1,-1,-1,-1,-1,-1,-1,-1,-1,-1,-1,-1,-1,-1,-1,-1,-1,-1,-1,-1,-1],"loss_changes":[3.6395343E2,1.6581635E2,1.7398029E2,1.1246588E2,1.1918147E2,3.0278275E1,5.270996E1,1.5001938E2,8.763626E1,3.9187714E1,5.826882E2,6.870537E0,1.5287498E1,2.1420689E0,1.1180328E1,1.2734255E1,8.1317474E1,1.8231537E1,2.2837025E1,4.6223644E1,2.5393768E1,0E0,3.1352121E1,4.3053513E0,2.9451355E1,7.376293E0,6.396599E-1,7.4134636E-1,0E0,0E0,1.2967651E1,0E0,0E0,0E0,0E0,0E0,0E0,0E0,0E0,0E0,0E0,0E0,0E0,0E0,0E0,0E0,0E0,0E0,0E0,0E0,0E0,0E0,0E0,0E0,0E0,0E0,0E0],"parents":[2147483647,0,0,1,1,2,2,3,3,4,4,5,5,6,6,7,7,8,8,9,9,10,10,11,11,12,12,13,13,14,14,15,15,16,16,17,17,18,18,19,19,20,20,22,22,23,23,24,24,25,25,26,26,27,27,30,30],"right_children":[2,4,6,8,10,12,14,16,18,20,22,24,26,28,30,32,34,36,38,40,42,-1,44,46,48,50,52,54,-1,-1,56,-1,-1,-1,-1,-1,-1,-1,-1,-1,-1,-1,-1,-1,-1,-1,-1,-1,-1,-1,-1,-1,-1,-1,-1,-1,-1],"split_conditions":[9.5E1,1.1E1,1E0,9E0,4.3E1,1.39E2,1.21E2,1E1,4.8E1,3E0,1.2E1,2.1E1,6E0,4.162694E-1,-8.293869E-1,6E0,2E0,3.2E1,5E0,2E0,1.5E1,1.7030903E0,6.7E1,-9.4651675E-1,3E0,2.3E1,1.4E1,1.5319238E0,4.549838E-2,1.614348E-1,6.169045E-1,-3.2762714E-2,-3.01396E-3,8.6533725E-2,3.03732E-2,-5.2174848E-2,-2.1094784E-2,7.7234157E-3,6.279121E-2,7.595304E-2,-2.0962728E-2,-6.0137343E-2,-3.4034748E-2,-1.3225268E-2,1.0974357E-2,8.606627E-2,3.776233E-2,3.9343223E-2,1.8136089E-1,8.548845E-2,2.9237393E-1,6.142645E-2,2.4732082E-1,1.24685705E-1,3.5025813E-2,3.3389643E-1,1.06240414E-1],"split_indices":[0,20,8,1,0,0,0,0,0,1,20,1,18,16,15,0,1,0,20,18,0,0,0,10,20,1,1,10,0,0,11,0,0,0,0,0,0,0,0,0,0,0,0,0,0,0,0,0,0,0,0,0,0,0,0,0,0],"split_type":[0,0,0,0,0,0,0,0,0,0,0,0,0,0,0,0,0,0,0,0,0,0,0,0,0,0,0,0,0,0,0,0,0,0,0,0,0,0,0,0,0,0,0,0,0,0,0,0,0,0,0,0,0,0,0,0,0],"sum_hessian":[8.844E3,8.166E3,6.78E2,3.633E3,4.533E3,6.08E2,7E1,1.912E3,1.721E3,2.209E3,2.324E3,5.45E2,6.3E1,2.5E1,4.5E1,6.26E2,1.286E3,8.21E2,9E2,3.81E2,1.828E3,1E0,2.323E3,4.6E2,8.5E1,5.4E1,9E0,1.7E1,8E0,1E1,3.5E1,2.23E2,4.03E2,3.57E2,9.29E2,2.96E2,5.25E2,8.18E2,8.2E1,5.7E1,3.24E2,5.26E2,1.302E3,1.488E3,8.35E2,1.9E1,4.41E2,6.7E1,1.8E1,5.3E1,1E0,1E0,8E0,1.5E1,2E0,3.1E1,4E0],"tree_param":{"num_deleted":"0","num_feature":"22","num_nodes":"57","size_leaf_vector":"1"}},{"base_weights":[3.6252146E-3,-8.3065644E-2,3.9931256E-1,1.381938E-1,-2.005184E-1,3.072762E-1,1.4464304E0,-1.8247634E-1,3.8685787E-1,-4.3703192E-1,-1.00566044E-1,2.7282652E-1,1.5337533E0,1.2045393E0,2.5681493E0,-3.8129592E-1,-6.0838696E-2,6.8881774E-1,1.6249393E-1,-6.583963E-1,-3.654497E-1,7.001884E-2,-1.8688524E-1,2.5580218E-1,1.4628073E0,3.0538478E-1,1.0582969E0,6.150086E-1,1.6486857E0,1.3657862E-1,3.0381998E-1,-7.126185E-2,-3.1299535E-2,2.1216836E-2,-1.7158883E-2,5.1495474E-2,1.08665995E-1,-1.099304E-2,6.2526E-2,-5.7548225E-2,-8.586123E-2,-2.2327268E-2,-5.064189E-2,2.4330387E-2,2.87535E-4,-2.8405264E-2,-1.0112184E-2,1.9693278E-2,4.614054E-2,4.4428912E-1,1.7325323E-2,5.2168973E-2,1.3979919E-1,1.186844E-1,4.7097042E-2,7.752566E-2,2.3194897E-1],"categories":[],"categories_nodes":[],"categories_segments":[],"categories_sizes":[],"default_left":[0,0,0,0,0,0,0,0,0,0,0,0,0,0,0,0,0,0,0,0,0,0,0,0,0,0,0,0,0,0,0,0,0,0,0,0,0,0,0,0,0,0,0,0,0,0,0,0,0,0,0,0,0,0,0,0,0],"id":11,"left_children":[1,3,5,7,9,11,13,15,17,19,21,23,25,27,29,31,33,35,37,39,41,43,45,47,49,-1,51,53,55,-1,-1,-1,-1,-1,-1,-1,-1,-1,-1,-1,-1,-1,-1,-1,-1,-1,-1,-1,-1,-1,-1,-1,-1,-1,-1,-1,-1],"loss_changes":[3.053938E2,1.8981464E2,1.5375223E2,2.0204984E2,1.1274289E2,6.1776077E1,3.190863E1,2.6748432E1,9.6565735E1,2.22128E1,4.9414623E1,2.8656471E1,2.5677658E1,2.7264542E1,8.284241E0,9.281353E0,2.0838476E1,4.149582E1,1.034451E2,5.2331543E0,2.1392624E1,1.3123535E1,1.8538101E1,1.7023811E1,7.608984E1,0E0,5.1037292E0,3.3946056E0,3.394168E1,0E0,0E0,0E0,0E0,0E0,0E0,0E0,0E0,0E0,0E0,0E0,0E0,0E0,0E0,0E0,0E0,0E0,0E0,0E0,0E0,0E0,0E0,0E0,0E0,0E0,0E0,0E0,0E0],"parents":[2147483647,0,0,1,1,2,2,3,3,4,4,5,5,6,6,7,7,8,8,9,9,10,10,11,11,12,12,13,13,14,14,15,15,16,16,17,17,18,18,19,19,20,20,21,21,22,22,23,23,24,24,26,26,27,27,28,28],"right_children":[2,4,6,8,10,12,14,16,18,20,22,24,26,28,30,32,34,36,38,40,42,44,46,48,50,-1,52,54,56,-1,-1,-1,-1,-1,-1,-1,-1,-1,-1,-1,-1,-1,-1,-1,-1,-1,-1,-1,-1,-1,-1,-1,-1,-1,-1,-1,-1],"split_conditions":[7.2E1,7E0,1.37E2,1E1,3.3E1,1E0,6E0,6E0,3E0,1.6E1,1.5E1,1E0,-1.7254235E0,1.2874444E-1,1.42E2,3E0,1E0,1E0,2.9E1,1.3E1,1.4E1,1E1,5.1E1,1.06E2,1E0,3.0538478E-1,1.7E1,-1.950282E0,2.33693E-1,1.3657862E-1,3.0381998E-1,-7.126185E-2,-3.1299535E-2,2.1216836E-2,-1.7158883E-2,5.1495474E-2,1.08665995E-1,-1.099304E-2,6.2526E-2,-5.7548225E-2,-8.586123E-2,-2.2327268E-2,-5.064189E-2,2.4330387E-2,2.87535E-4,-2.8405264E-2,-1.0112184E-2,1.9693278E-2,4.614054E-2,4.4428912E-1,1.7325323E-2,5.2168973E-2,1.3979919E-1,1.186844E-1,4.7097042E-2,7.752566E-2,2.3194897E-1],"split_indices":[0,1,0,0,0,9,18,0,1,0,1,2,14,16,0,0,1,9,0,1,1,1,0,0,5,0,1,16,10,0,0,0,0,0,0,0,0,0,0,0,0,0,0,0,0,0,0,0,0,0,0,0,0,0,0,0,0],"split_type":[0,0,0,0,0,0,0,0,0,0,0,0,0,0,0,0,0,0,0,0,0,0,0,0,0,0,0,0,0,0,0,0,0,0,0,0,0,0,0,0,0,0,0,0,0,0,0,0,0,0,0,0,0,0,0,0,0],"sum_hessian":[8.901E3,7.302E3,1.599E3,2.532E3,4.77E3,1.471E3,1.28E2,1.106E3,1.426E3,1.416E3,3.354E3,1.432E3,3.9E1,1.07E2,2.1E1,4.19E2,6.87E2,6.07E2,8.19E2,3.44E2,1.072E3,1.127E3,2.227E3,1.413E3,1.9E1,8E0,3.1E1,4.7E1,6E1,7E0,1.4E1,7E1,3.49E2,1.98E2,4.89E2,4.24E2,1.83E2,5.16E2,3.03E2,2.46E2,9.8E1,5.35E2,5.37E2,3.14E2,8.13E2,1.043E3,1.184E3,1.1E3,3.13E2,5E0,1.4E1,1.3E1,1.8E1,8E0,3.9E1,2.7E1,3.3E1],"tree_param":{"num_deleted":"0","num_feature":"22","num_nodes":"57","size_leaf_vector":"1"}},{"base_weights":[3.6273547E-3,1.16397925E-1,-1.0716649E-1,2.6106203E-1,-5.3419997E-3,3.262659E-2,-1.9717099E-1,4.567021E-1,4.9254235E-2,3.889985E-2,-4.8908535E-1,-2.8439103E-2,3.718088E-1,-2.6415431E-1,-1.300915E-1,8.599396E-1,2.9468295E-1,1.9527271E-1,-7.729624E-2,7.764411E-2,-2.6819664E-1,-4.504155E-1,-1.1090415E0,-1.00320965E-1,8.0840394E-2,2.8965145E-1,3.0240592E-1,-2.334519E-1,-5.1067966E-1,1.754056E-2,-2.1654768E-1,4.9105037E-2,2.0491795E-1,6.6704385E-2,1.7510986E-2,5.5679746E-2,6.9457605E-3,9.392828E-2,-1.0757846E-2,9.848769E-4,2.136412E-2,-1.5488155E-2,-4.025753E-2,-4.594254E-2,2.6134243E-2,-4.2435102E-2,-1.21404484E-1,-3.662768E-3,-2.4927856E-2,7.7970795E-2,7.123432E-4,-9.080262E-3,4.3126386E-2,-1.5748506E-2,-3.0928332E-2,-8.279975E-2,-4.5793325E-2,5.263416E-2,-2.5107048E-4,-1.7207567E-2,-3.7867144E-2],"categories":[],"categories_nodes":[],"categories_segments":[],"categories_sizes":[],"default_left":[0,0,0,0,0,0,0,0,0,0,0,0,0,0,0,0,0,0,0,0,0,0,0,0,0,0,0,0,0,0,0,0,0,0,0,0,0,0,0,0,0,0,0,0,0,0,0,0,0,0,0,0,0,0,0,0,0,0,0,0,0],"id":12,"left_children":[1,3,5,7,9,11,13,15,17,19,21,23,25,27,29,31,33,35,37,39,41,43,45,47,49,-1,51,53,55,57,59,-1,-1,-1,-1,-1,-1,-1,-1,-1,-1,-1,-1,-1,-1,-1,-1,-1,-1,-1,-1,-1,-1,-1,-1,-1,-1,-1,-1,-1,-1],"loss_changes":[1.1017459E2,7.6963196E1,5.5971207E1,8.2729385E1,5.0826664E1,3.611228E1,1.2124245E1,6.75614E1,1.7754654E1,2.5911364E1,4.271221E0,1.1618116E1,4.5733086E1,1.0121544E1,1.7285854E1,1.29287E2,3.292025E1,2.0247759E1,1.5954943E1,1.7820095E1,3.6530685E0,1.3320999E0,2.756605E-1,8.45381E0,3.023574E1,0E0,1.3212845E1,6.892906E0,2.1147003E0,5.1125755E0,6.0921555E0,0E0,0E0,0E0,0E0,0E0,0E0,0E0,0E0,0E0,0E0,0E0,0E0,0E0,0E0,0E0,0E0,0E0,0E0,0E0,0E0,0E0,0E0,0E0,0E0,0E0,0E0,0E0,0E0,0E0,0E0],"parents":[2147483647,0,0,1,1,2,2,3,3,4,4,5,5,6,6,7,7,8,8,9,9,10,10,11,11,12,12,13,13,14,14,15,15,16,16,17,17,18,18,19,19,20,20,21,21,22,22,23,23,24,24,26,26,27,27,28,28,29,29,30,30],"right_children":[2,4,6,8,10,12,14,16,18,20,22,24,26,28,30,32,34,36,38,40,42,44,46,48,50,-1,52,54,56,58,60,-1,-1,-1,-1,-1,-1,-1,-1,-1,-1,-1,-1,-1,-1,-1,-1,-1,-1,-1,-1,-1,-1,-1,-1,-1,-1,-1,-1,-1,-1],"split_conditions":[1.2E1,4E0,-5.275019E-1,9E0,1.1E1,1E0,1.6E1,1.2E1,1.8E1,2.5E1,7E0,1.9E1,-2.88865E0,1.9E1,1.7E1,1E1,-8.131961E-1,1.19747475E-1,-1.5176607E0,6E0,3.1E1,1E0,-5.9245384E-1,2.1E1,2E1,2.8965145E-1,1.9E1,-1.0368604E-1,1.4E1,-1.2415692E0,2.7E1,4.9105037E-2,2.0491795E-1,6.6704385E-2,1.7510986E-2,5.5679746E-2,6.9457605E-3,9.392828E-2,-1.0757846E-2,9.848769E-4,2.136412E-2,-1.5488155E-2,-4.025753E-2,-4.594254E-2,2.6134243E-2,-4.2435102E-2,-1.21404484E-1,-3.662768E-3,-2.4927856E-2,7.7970795E-2,7.123432E-4,-9.080262E-3,4.3126386E-2,-1.5748506E-2,-3.0928332E-2,-8.279975E-2,-4.5793325E-2,5.263416E-2,-2.5107048E-4,-1.7207567E-2,-3.7867144E-2],"split_indices":[20,18,12,1,20,8,20,19,19,1,1,19,12,1,1,19,14,17,12,18,1,2,10,1,19,0,20,14,20,10,1,0,0,0,0,0,0,0,0,0,0,0,0,0,0,0,0,0,0,0,0,0,0,0,0,0,0,0,0,0,0],"split_type":[0,0,0,0,0,0,0,0,0,0,0,0,0,0,0,0,0,0,0,0,0,0,0,0,0,0,0,0,0,0,0,0,0,0,0,0,0,0,0,0,0,0,0,0,0,0,0,0,0,0,0,0,0,0,0,0,0,0,0,0,0],"sum_hessian":[8.816E3,4.369E3,4.447E3,1.996E3,2.373E3,1.742E3,2.705E3,1.037E3,9.59E2,2.175E3,1.98E2,1.477E3,2.65E2,1.352E3,1.353E3,2.96E2,7.41E2,4.45E2,5.14E2,1.932E3,2.43E2,1.88E2,1E1,8.91E2,5.86E2,6E0,2.59E2,1.204E3,1.48E2,5E2,8.53E2,2.27E2,6.9E1,1.79E2,5.62E2,1.14E2,3.31E2,1.4E1,5E2,1.29E3,6.42E2,1.33E2,1.1E2,1.86E2,2E0,2E0,8E0,6.25E2,2.66E2,5.5E1,5.31E2,6.4E1,1.95E2,6.03E2,6.01E2,1.9E1,1.29E2,1.8E1,4.82E2,6.71E2,1.82E2],"tree_param":{"num_deleted":"0","num_feature":"22","num_nodes":"61","size_leaf_vector":"1"}},{"base_weights":[2.3756288E-3,-2.4686618E-2,1.041268E0,-8.1458725E-2,2.1801622E-1,6.914782E-1,2.2586985E0,1.5158801E-1,-1.7910938E-1,2.0314077E-1,1.258227E0,5.433106E-1,1.6134086E0,1.2869409E0,2.8127775E0,-1.2959307E-1,5.223519E-1,-4.4238856E-1,-1.0924562E-1,1.6999331E-1,4.3287727E-1,4.8580074E-1,4.7535962E-1,4.151309E-1,1.0190227E0,7.689517E-1,2.5414984E0,7.9718417E-1,1.6969793E-1,2.9607528E-1,1.4511571E0,-2.6508449E-2,3.1695864E-4,4.2015832E-2,1.1054615E-1,-5.4246254E-2,-3.3508297E-2,1.0994308E-2,-1.7944077E-2,9.964521E-3,3.0414244E-2,5.7392795E-2,9.28088E-3,1.4675193E-1,1.35599775E-2,3.3304293E-2,5.8339626E-2,5.22137E-2,1.2211465E-1,9.997865E-2,5.2962285E-2,6.669573E-3,3.0840442E-1,2.6405526E-2,8.863178E-2,1.6136716E-1,4.0054966E-2],"categories":[],"categories_nodes":[],"categories_segments":[],"categories_sizes":[],"default_left":[0,0,0,0,0,0,0,0,0,0,0,0,0,0,0,0,0,0,0,0,0,0,0,0,0,0,0,0,0,0,0,0,0,0,0,0,0,0,0,0,0,0,0,0,0,0,0,0,0,0,0,0,0,0,0,0,0],"id":13,"left_children":[1,3,5,7,9,11,13,15,17,19,21,23,25,27,29,31,33,35,37,39,41,-1,43,45,47,49,51,53,-1,-1,55,-1,-1,-1,-1,-1,-1,-1,-1,-1,-1,-1,-1,-1,-1,-1,-1,-1,-1,-1,-1,-1,-1,-1,-1,-1,-1],"loss_changes":[2.5027518E2,1.1956222E2,9.467909E1,1.6005551E2,2.5198486E1,2.3301651E1,2.3301636E1,2.1659866E2,9.111072E1,1.2285858E1,6.2508156E1,8.967373E0,1.6855282E1,2.663578E0,1.9495544E0,2.1262896E1,5.2928253E1,1.097554E1,6.030201E1,1.337043E1,9.731976E0,0E0,6.5429244E0,1.5046482E0,2.576229E0,2.4392605E-1,1.4563927E1,2.886796E-1,0E0,0E0,2.0733929E-1,0E0,0E0,0E0,0E0,0E0,0E0,0E0,0E0,0E0,0E0,0E0,0E0,0E0,0E0,0E0,0E0,0E0,0E0,0E0,0E0,0E0,0E0,0E0,0E0,0E0,0E0],"parents":[2147483647,0,0,1,1,2,2,3,3,4,4,5,5,6,6,7,7,8,8,9,9,10,10,11,11,12,12,13,13,14,14,15,15,16,16,17,17,18,18,19,19,20,20,22,22,23,23,24,24,25,25,26,26,27,27,30,30],"right_children":[2,4,6,8,10,12,14,16,18,20,22,24,26,28,30,32,34,36,38,40,42,-1,44,46,48,50,52,54,-1,-1,56,-1,-1,-1,-1,-1,-1,-1,-1,-1,-1,-1,-1,-1,-1,-1,-1,-1,-1,-1,-1,-1,-1,-1,-1,-1,-1],"split_conditions":[1.22E2,6.8E1,1E0,5E0,1E0,1.9E1,-4.9206004E-1,1.1E1,2.4E1,1E0,1.3930278E-2,1.55E2,5E0,1.58E2,4.194923E-1,7E0,3.6E1,1.7E1,1.2E1,9.3E1,1.0540215E0,4.8580074E-1,1E0,-2.9900372E-1,-9.083322E-1,-1.5473317E-1,1.4E1,1.25E2,1.6969793E-1,2.9607528E-1,1.8E1,-2.6508449E-2,3.1695864E-4,4.2015832E-2,1.1054615E-1,-5.4246254E-2,-3.3508297E-2,1.0994308E-2,-1.7944077E-2,9.964521E-3,3.0414244E-2,5.7392795E-2,9.28088E-3,1.4675193E-1,1.35599775E-2,3.3304293E-2,5.8339626E-2,5.22137E-2,1.2211465E-1,9.997865E-2,5.2962285E-2,6.669573E-3,3.0840442E-1,2.6405526E-2,8.863178E-2,1.6136716E-1,4.0054966E-2],"split_indices":[0,0,8,1,2,1,15,0,0,8,15,0,18,0,11,0,0,0,1,0,15,0,5,12,12,15,19,0,0,0,1,0,0,0,0,0,0,0,0,0,0,0,0,0,0,0,0,0,0,0,0,0,0,0,0,0,0],"split_type":[0,0,0,0,0,0,0,0,0,0,0,0,0,0,0,0,0,0,0,0,0,0,0,0,0,0,0,0,0,0,0,0,0,0,0,0,0,0,0,0,0,0,0,0,0,0,0,0,0,0,0,0,0,0,0,0,0],"sum_hessian":[8.9E3,8.675E3,2.25E2,7.031E3,1.644E3,1.76E2,4.9E1,2.076E3,4.955E3,1.622E3,2.2E1,1.53E2,2.3E1,1.9E1,3E1,1.181E3,8.95E2,1.038E3,3.917E3,1.419E3,2.03E2,3E0,1.9E1,1.22E2,3.1E1,1.3E1,1E1,1E1,9E0,2.6E1,4E0,5.84E2,5.97E2,7.63E2,1.32E2,5.35E2,5.03E2,9.5E2,2.967E3,9.32E2,4.87E2,1.43E2,6E1,4E0,1.5E1,8.4E1,3.8E1,1E1,2.1E1,5E0,8E0,2E0,8E0,2E0,8E0,3E0,1E0],"tree_param":{"num_deleted":"0","num_feature":"22","num_nodes":"57","size_leaf_vector":"1"}},{"base_weights":[9.985076E-3,-2.5875237E-2,5.9295785E-1,8.476396E-2,-1.3329268E-1,4.2831433E-1,1.8059175E0,-1.7472172E-1,1.49807E-1,-2.6706877E-1,-5.44868E-3,3.5703868E-1,1.8775548E0,2.4058833E0,1.0609249E0,-2.0501897E-1,3.6702543E-1,2.3879766E-2,6.785839E-1,-3.1806663E-1,-2.1789461E-1,-6.6713266E-2,1.1117487E-1,7.0332235E-1,2.8717828E-1,2.100686E0,7.433971E-2,1.803012E0,3.0091283E-1,1.4234364E0,5.052617E-1,-3.73188E-2,-1.3798586E-2,7.33648E-2,1.313251E-2,-1.139575E-2,2.2066033E-2,5.5716734E-2,1.1439751E0,1.0203264E-2,-3.3634286E-2,5.357829E-1,-2.3355806E-2,-9.107594E-3,1.7574001E-2,8.472767E-3,9.38853E-2,2.868612E-2,8.5798316E-2,2.676797E-2,5.910517E-2,2.7839446E-1,1.6763031E-1,1.932411E-1,4.68747E-2,1.7783521E-1,8.018621E-2,2.8637106E-2,7.129057E-2],"categories":[],"categories_nodes":[],"categories_segments":[],"categories_sizes":[],"default_left":[0,0,0,0,0,0,0,0,0,0,0,0,0,0,0,0,0,0,0,0,0,0,0,0,0,0,0,0,0,0,0,0,0,0,0,0,0,0,0,0,0,0,0,0,0,0,0,0,0,0,0,0,0,0,0,0,0,0,0],"id":14,"left_children":[1,3,5,7,9,11,13,15,17,19,21,23,25,27,29,31,33,35,37,39,41,43,45,47,49,51,-1,53,-1,55,57,-1,-1,-1,-1,-1,-1,-1,-1,-1,-1,-1,-1,-1,-1,-1,-1,-1,-1,-1,-1,-1,-1,-1,-1,-1,-1,-1,-1],"loss_changes":[1.850716E2,9.912869E1,1.01675644E2,6.93768E1,7.237619E1,4.6122536E1,2.4712708E1,1.3599934E1,2.1879004E2,5.1167755E0,1.5476111E1,1.0272949E1,3.7527466E0,6.5759125E0,5.122387E0,8.752632E0,3.7058287E0,7.203855E1,8.1938696E2,7.811943E0,9.347719E1,8.403676E0,1.6250221E1,4.3914185E0,1.9866734E0,2.626419E-1,0E0,2.3745804E0,0E0,2.324318E0,3.867116E-1,0E0,0E0,0E0,0E0,0E0,0E0,0E0,0E0,0E0,0E0,0E0,0E0,0E0,0E0,0E0,0E0,0E0,0E0,0E0,0E0,0E0,0E0,0E0,0E0,0E0,0E0,0E0,0E0],"parents":[2147483647,0,0,1,1,2,2,3,3,4,4,5,5,6,6,7,7,8,8,9,9,10,10,11,11,12,12,13,13,14,14,15,15,16,16,17,17,18,18,19,19,20,20,21,21,22,22,23,23,24,24,25,25,27,27,29,29,30,30],"right_children":[2,4,6,8,10,12,14,16,18,20,22,24,26,28,30,32,34,36,38,40,42,44,46,48,50,52,-1,54,-1,56,58,-1,-1,-1,-1,-1,-1,-1,-1,-1,-1,-1,-1,-1,-1,-1,-1,-1,-1,-1,-1,-1,-1,-1,-1,-1,-1,-1,-1],"split_conditions":[1.02E2,1.2E1,1E0,9E0,4.6E1,1E0,1.8E1,2.6306667E0,8E0,2.5E1,7E1,-5.9245384E-1,8.932815E-1,1.5E2,5E0,5E0,2E1,4.9E1,3.4E1,-1.8839301E0,1.3E1,1E0,1E0,7E0,1.52E2,-1.7254235E0,7.433971E-2,4.194923E-1,3.0091283E-1,3.8000986E-1,-1.4414947E0,-3.73188E-2,-1.3798586E-2,7.33648E-2,1.313251E-2,-1.139575E-2,2.2066033E-2,5.5716734E-2,1.1439751E0,1.0203264E-2,-3.3634286E-2,5.357829E-1,-2.3355806E-2,-9.107594E-3,1.7574001E-2,8.472767E-3,9.38853E-2,2.868612E-2,8.5798316E-2,2.676797E-2,5.910517E-2,2.7839446E-1,1.6763031E-1,1.932411E-1,4.68747E-2,1.7783521E-1,8.018621E-2,2.8637106E-2,7.129057E-2],"split_indices":[0,20,8,0,0,9,19,17,20,0,0,10,11,0,20,0,21,0,0,16,20,9,9,19,0,14,0,11,0,11,12,0,0,0,0,0,0,0,0,0,0,0,0,0,0,0,0,0,0,0,0,0,0,0,0,0,0,0,0],"split_type":[0,0,0,0,0,0,0,0,0,0,0,0,0,0,0,0,0,0,0,0,0,0,0,0,0,0,0,0,0,0,0,0,0,0,0,0,0,0,0,0,0,0,0,0,0,0,0,0,0,0,0,0,0,0,0,0,0,0,0],"sum_hessian":[8.851E3,8.339E3,5.12E2,4.108E3,4.231E3,4.52E2,6E1,8.23E2,3.285E3,2.067E3,2.164E3,4.32E2,2E1,3.2E1,2.8E1,7.8E2,4.3E1,2.654E3,6.31E2,1.012E3,1.055E3,1.419E3,7.45E2,7.1E1,3.61E2,1.6E1,4E0,1.8E1,1.4E1,1.6E1,1.2E1,2.21E2,5.59E2,1.6E1,2.7E1,1.561E3,1.093E3,6.25E2,6E0,4.2E1,9.7E2,2E0,1.053E3,1.29E3,1.29E2,7.23E2,2.2E1,2E1,5.1E1,3.41E2,2E1,4E0,1.2E1,1.6E1,2E0,9E0,7E0,7E0,5E0],"tree_param":{"num_deleted":"0","num_feature":"22","num_nodes":"59","size_leaf_vector":"1"}},{"base_weights":[5.7890075E-3,9.117521E-2,-7.7493496E-2,2.1067175E-1,-8.939743E-3,2.0458015E-2,-1.4208573E-1,3.8119727E-1,5.892912E-2,4.0746365E-2,-2.565949E-1,-8.403498E-3,1.8267384E-1,-1.2947229E-1,-4.1340572E-1,2.8209883E-1,1.0640976E0,3.2879338E-1,-1.7494585E-2,-3.2822676E-2,1.7005178E-1,-1.3867854E-1,-3.7621015E-1,1.4283602E-3,-4.2194417E-1,1.0671147E0,7.504277E-2,-1.8323044E-1,-9.49117E-2,-4.9375054E-1,-1.7953852E-1,5.174877E-2,1.5973223E-2,5.331987E-1,3.907935E-2,-9.677197E-3,6.519245E-2,1.38045E-1,-3.820885E-3,-3.7282654E-3,1.0931968E-1,1.2172849E-2,8.112835E-2,-1.0649181E-2,-4.8078846E-2,-1.6553221E-2,-4.818964E-2,-2.4279272E-3,1.4717603E-2,-8.327776E-3,-4.8914146E-2,2.0811995E-3,1.9159348E-1,-1.356819E-2,2.7997056E-2,1.2551955E-2,-2.1152636E-2,-6.376294E-3,-2.8840045E-2,-2.747058E-2,-6.0806077E-2,-8.529176E-3,-2.6845455E-2],"categories":[],"categories_nodes":[],"categories_segments":[],"categories_sizes":[],"default_left":[0,0,0,0,0,0,0,0,0,0,0,0,0,0,0,0,0,0,0,0,0,0,0,0,0,0,0,0,0,0,0,0,0,0,0,0,0,0,0,0,0,0,0,0,0,0,0,0,0,0,0,0,0,0,0,0,0,0,0,0,0,0,0],"id":15,"left_children":[1,3,5,7,9,11,13,15,17,19,21,23,25,27,29,31,33,35,37,39,41,43,45,47,49,51,53,55,57,59,61,-1,-1,-1,-1,-1,-1,-1,-1,-1,-1,-1,-1,-1,-1,-1,-1,-1,-1,-1,-1,-1,-1,-1,-1,-1,-1,-1,-1,-1,-1,-1,-1],"loss_changes":[6.267787E1,5.2066566E1,2.8233562E1,5.13155E1,2.9161053E1,8.307037E0,9.148987E0,6.29077E1,2.1681604E1,1.8783997E1,5.533247E0,6.1278734E0,2.5431728E1,4.759308E0,2.1473637E0,2.344999E1,3.3699957E2,3.19662E1,2.379781E1,6.3634853E0,2.2087526E1,2.1620915E0,4.284321E0,5.5226502E0,7.557764E-1,2.5715687E1,1.0401989E1,8.806587E0,9.425817E0,2.0363998E0,2.4526465E-1,0E0,0E0,0E0,0E0,0E0,0E0,0E0,0E0,0E0,0E0,0E0,0E0,0E0,0E0,0E0,0E0,0E0,0E0,0E0,0E0,0E0,0E0,0E0,0E0,0E0,0E0,0E0,0E0,0E0,0E0,0E0,0E0],"parents":[2147483647,0,0,1,1,2,2,3,3,4,4,5,5,6,6,7,7,8,8,9,9,10,10,11,11,12,12,13,13,14,14,15,15,16,16,17,17,18,18,19,19,20,20,21,21,22,22,23,23,24,24,25,25,26,26,27,27,28,28,29,29,30,30],"right_children":[2,4,6,8,10,12,14,16,18,20,22,24,26,28,30,32,34,36,38,40,42,44,46,48,50,52,54,56,58,60,62,-1,-1,-1,-1,-1,-1,-1,-1,-1,-1,-1,-1,-1,-1,-1,-1,-1,-1,-1,-1,-1,-1,-1,-1,-1,-1,-1,-1,-1,-1,-1,-1],"split_conditions":[1.2E1,4E0,-5.275019E-1,1.8E1,1E1,1E0,7E0,1E0,-8.131961E-1,1.4311524E-1,1.1E1,1E0,-1.7254235E0,1.5E1,1.7E1,1.19747475E-1,-9.9805033E-1,6E0,-1.5176607E0,3.8861263E0,2.9E1,2.8E1,2E1,2.3E1,7.352821E-1,5E0,1.8E1,2E0,1E0,4E0,-8.2229954E-1,5.174877E-2,1.5973223E-2,5.331987E-1,3.907935E-2,-9.677197E-3,6.519245E-2,1.38045E-1,-3.820885E-3,-3.7282654E-3,1.0931968E-1,1.2172849E-2,8.112835E-2,-1.0649181E-2,-4.8078846E-2,-1.6553221E-2,-4.818964E-2,-2.4279272E-3,1.4717603E-2,-8.327776E-3,-4.8914146E-2,2.0811995E-3,1.9159348E-1,-1.356819E-2,2.7997056E-2,1.2551955E-2,-2.1152636E-2,-6.376294E-3,-2.8840045E-2,-2.747058E-2,-6.0806077E-2,-8.529176E-3,-2.6845455E-2],"split_indices":[20,18,12,19,20,9,18,9,14,11,20,2,14,20,20,17,15,20,12,17,19,19,21,20,10,18,19,18,9,19,16,0,0,0,0,0,0,0,0,0,0,0,0,0,0,0,0,0,0,0,0,0,0,0,0,0,0,0,0,0,0,0,0],"split_type":[0,0,0,0,0,0,0,0,0,0,0,0,0,0,0,0,0,0,0,0,0,0,0,0,0,0,0,0,0,0,0,0,0,0,0,0,0,0,0,0,0,0,0,0,0,0,0,0,0,0,0,0,0,0,0,0,0,0,0,0,0,0,0],"sum_hessian":[8.812E3,4.351E3,4.461E3,1.983E3,2.368E3,1.773E3,2.688E3,9.33E2,1.05E3,1.973E3,3.95E2,1.506E3,2.67E2,2.57E3,1.18E2,8.16E2,1.17E2,2.31E2,8.19E2,1.258E3,7.15E2,2E2,1.95E2,1.472E3,3.4E1,2.8E1,2.39E2,1.004E3,1.566E3,8.7E1,3.1E1,2.78E2,5.38E2,1.5E1,1.02E2,1E2,1.31E2,1.1E1,8.08E2,1.254E3,4E0,6.66E2,4.9E1,1.84E2,1.6E1,6.6E1,1.29E2,1.252E3,2.2E2,6E0,2.8E1,1.3E1,1.5E1,1.18E2,1.21E2,8.4E1,9.2E2,1.35E3,2.16E2,3.1E1,5.6E1,1.6E1,1.5E1],"tree_param":{"num_deleted":"0","num_feature":"22","num_nodes":"63","size_leaf_vector":"1"}},{"base_weights":[-1.9446741E-3,-5.1690698E-2,3.4556025E-1,2.188258E-1,-9.446005E-2,2.8211677E-1,1.2536418E0,-1.7359243E-3,8.1838703E-1,-2.1402308E-1,2.0634865E-3,2.6572114E-1,1.7857356E0,8.046496E-1,2.0655613E0,-1.3369149E-1,1.1123739E-1,2.8690878E-1,9.908944E-1,-1.3494577E-1,-3.681334E-1,4.1312367E-1,-4.7249418E-2,2.2164306E-1,6.9041884E-1,3.7469215E0,1.2978342E-1,6.4510316E-1,1.6469781E0,8.6190677E-1,2.4857652E0,-9.656497E-2,-1.0940048E-2,5.9713375E-2,5.666589E-3,1.614615E-2,9.564883E-2,8.902938E-2,1.1209412E0,-2.4781724E-2,3.5825581E-3,-4.690976E-2,-2.8299252E-2,3.286918E-1,3.3779796E-2,-1.0676474E-2,6.9055343E-3,1.5128875E-2,3.3536922E-2,8.800085E-2,8.498284E-3,4.2742896E-1,8.1872515E-2,1.9286161E-2,-1.2434286E-2,9.4309025E-2,4.2545386E-2,4.3559242E-2,1.776277E-1,1.9089533E-2,9.304948E-2,1.0705391E-1,2.8136486E-1],"categories":[],"categories_nodes":[],"categories_segments":[],"categories_sizes":[],"default_left":[0,0,0,0,0,0,0,0,0,0,0,0,0,0,0,0,0,0,0,0,0,0,0,0,0,0,0,0,0,0,0,0,0,0,0,0,0,0,0,0,0,0,0,0,0,0,0,0,0,0,0,0,0,0,0,0,0,0,0,0,0,0,0],"id":16,"left_children":[1,3,5,7,9,11,13,15,17,19,21,23,25,27,29,31,33,35,37,39,41,43,45,47,49,51,53,55,57,59,61,-1,-1,-1,-1,-1,-1,-1,-1,-1,-1,-1,-1,-1,-1,-1,-1,-1,-1,-1,-1,-1,-1,-1,-1,-1,-1,-1,-1,-1,-1,-1,-1],"loss_changes":[1.5281754E2,8.949005E1,6.3422653E1,1.3964716E2,7.706888E1,2.5065773E1,2.458522E1,1.1538335E1,2.5753922E1,3.630304E1,7.493955E1,1.9053558E1,3.523764E1,5.388275E0,1.0502022E1,7.1090097E0,1.1023373E1,5.809346E0,2.1000996E2,3.803888E1,8.557983E0,8.461209E1,2.2856617E1,7.3983116E0,1.0944519E1,4.221718E0,1.3618976E-1,2.3477688E0,3.2268333E-1,1.9055986E-1,5.3404007E0,0E0,0E0,0E0,0E0,0E0,0E0,0E0,0E0,0E0,0E0,0E0,0E0,0E0,0E0,0E0,0E0,0E0,0E0,0E0,0E0,0E0,0E0,0E0,0E0,0E0,0E0,0E0,0E0,0E0,0E0,0E0,0E0],"parents":[2147483647,0,0,1,1,2,2,3,3,4,4,5,5,6,6,7,7,8,8,9,9,10,10,11,11,12,12,13,13,14,14,15,15,16,16,17,17,18,18,19,19,20,20,21,21,22,22,23,23,24,24,25,25,26,26,27,27,28,28,29,29,30,30],"right_children":[2,4,6,8,10,12,14,16,18,20,22,24,26,28,30,32,34,36,38,40,42,44,46,48,50,52,54,56,58,60,62,-1,-1,-1,-1,-1,-1,-1,-1,-1,-1,-1,-1,-1,-1,-1,-1,-1,-1,-1,-1,-1,-1,-1,-1,-1,-1,-1,-1,-1,-1,-1,-1],"split_conditions":[8.1E1,2E0,1.45E2,1.2E1,3.7E1,1E0,1E0,7E0,8E0,1.2E1,9E0,1E0,1E0,6E0,3E0,1E0,2E0,4E1,3.2E1,2E1,2.7E1,-1.4186007E0,6.2E1,1.05E2,1.5319238E0,1.1E1,4.1072446E-1,-4.1542238E-1,1.47E2,1.55E2,1.5E2,-9.656497E-2,-1.0940048E-2,5.9713375E-2,5.666589E-3,1.614615E-2,9.564883E-2,8.902938E-2,1.1209412E0,-2.4781724E-2,3.5825581E-3,-4.690976E-2,-2.8299252E-2,3.286918E-1,3.3779796E-2,-1.0676474E-2,6.9055343E-3,1.5128875E-2,3.3536922E-2,8.800085E-2,8.498284E-3,4.2742896E-1,8.1872515E-2,1.9286161E-2,-1.2434286E-2,9.4309025E-2,4.2545386E-2,4.3559242E-2,1.776277E-1,1.9089533E-2,9.304948E-2,1.0705391E-1,2.8136486E-1],"split_indices":[0,1,0,0,0,2,8,0,20,1,1,8,5,18,18,0,18,0,0,0,0,10,0,0,10,1,10,10,0,0,0,0,0,0,0,0,0,0,0,0,0,0,0,0,0,0,0,0,0,0,0,0,0,0,0,0,0,0,0,0,0,0,0],"split_type":[0,0,0,0,0,0,0,0,0,0,0,0,0,0,0,0,0,0,0,0,0,0,0,0,0,0,0,0,0,0,0,0,0,0,0,0,0,0,0,0,0,0,0,0,0,0,0,0,0,0,0,0,0,0,0,0,0,0,0,0,0,0,0],"sum_hessian":[8.838E3,7.732E3,1.106E3,1.055E3,6.677E3,1.035E3,7.1E1,7.72E2,2.83E2,2.982E3,3.695E3,1.025E3,1E1,4.7E1,2.4E1,3.56E2,4.16E2,7E1,2.13E2,1.972E3,1.01E3,3.95E2,3.3E3,9.3E2,9.5E1,4E0,6E0,4.1E1,6E0,7E0,1.7E1,9E0,3.47E2,4.1E1,3.75E2,6E1,1E1,2.12E2,1E0,1.187E3,7.85E2,4.6E2,5.5E2,9E0,3.86E2,2.183E3,1.117E3,5.76E2,3.54E2,7.2E1,2.3E1,3E0,1E0,5E0,1E0,1.6E1,2.5E1,1E0,5E0,1E0,6E0,4E0,1.3E1],"tree_param":{"num_deleted":"0","num_feature":"22","num_nodes":"63","size_leaf_vector":"1"}},{"base_weights":[2.3556687E-3,-1.613712E-2,7.3179203E-1,-6.703739E-2,1.2076117E-1,4.5641282E-1,1.6975847E0,1.8744016E-2,-1.6863659E-1,1.00090116E-1,7.0114195E-1,3.217538E-1,2.0682876E0,8.9648706E-1,2.0345538E0,-2.2888426E-1,1.0798175E-1,-2.0683366E-1,-7.5924955E-2,8.77088E-2,9.052093E-1,1.8837982E0,5.052796E-1,2.9047737E-1,9.5940225E-2,3.1206438E-1,1.4405166E-1,6.113107E-1,1.5991883E-1,1.3601445E0,2.195959E-1,-3.882234E-2,-1.2931551E-2,-1.2869731E-2,2.8372524E-2,-1.9500634E-2,-3.8724948E-2,-1.0040478E-2,1.1915877E-2,1.812527E-2,2.3503904E-3,1.0341668E-2,3.1209204E-1,-8.388477E-3,2.0889549E-1,3.6940463E-2,9.78861E-2,3.9911322E-2,2.0787282E-2,1.2793303E-2,6.409311E-2,1.6023658E-1,6.567766E-2],"categories":[],"categories_nodes":[],"categories_segments":[],"categories_sizes":[],"default_left":[0,0,0,0,0,0,0,0,0,0,0,0,0,0,0,0,0,0,0,0,0,0,0,0,0,0,0,0,0,0,0,0,0,0,0,0,0,0,0,0,0,0,0,0,0,0,0,0,0,0,0,0,0],"id":17,"left_children":[1,3,5,7,9,11,13,15,17,19,21,23,25,27,29,31,33,35,37,39,41,43,45,47,-1,-1,-1,49,-1,51,-1,-1,-1,-1,-1,-1,-1,-1,-1,-1,-1,-1,-1,-1,-1,-1,-1,-1,-1,-1,-1,-1,-1],"loss_changes":[1.1893358E2,5.99273E1,5.7204292E1,5.463952E1,2.7895023E1,3.6450665E1,1.1133423E1,7.5157196E1,1.0147865E1,2.2369524E1,1.7579178E1,2.8923092E0,4.092964E0,2.2286997E0,6.053314E-1,1.4244343E1,1.0402351E2,4.2604446E0,4.0187044E0,1.3323E1,6.0079628E1,4.6157494E0,4.1427536E0,1.2900286E0,0E0,0E0,0E0,1.0413599E-1,0E0,4.8093796E-1,0E0,0E0,0E0,0E0,0E0,0E0,0E0,0E0,0E0,0E0,0E0,0E0,0E0,0E0,0E0,0E0,0E0,0E0,0E0,0E0,0E0,0E0,0E0],"parents":[2147483647,0,0,1,1,2,2,3,3,4,4,5,5,6,6,7,7,8,8,9,9,10,10,11,11,12,12,13,13,14,14,15,15,16,16,17,17,18,18,19,19,20,20,21,21,22,22,23,23,27,27,29,29],"right_children":[2,4,6,8,10,12,14,16,18,20,22,24,26,28,30,32,34,36,38,40,42,44,46,48,-1,-1,-1,50,-1,52,-1,-1,-1,-1,-1,-1,-1,-1,-1,-1,-1,-1,-1,-1,-1,-1,-1,-1,-1,-1,-1,-1,-1],"split_conditions":[1.22E2,6E1,1E0,1.2E1,1E0,1E0,-1.0368604E-1,5E0,4.6E1,1E0,-1.7254235E0,1.75E2,1.3843975E0,1.64E2,3E0,4E1,1.1E1,7E0,1E0,1.6E1,-1.3666318E-1,6.1E1,8.5E1,-9.086469E-2,9.5940225E-2,3.1206438E-1,1.4405166E-1,1.25E2,1.5991883E-1,8.828084E-1,2.195959E-1,-3.882234E-2,-1.2931551E-2,-1.2869731E-2,2.8372524E-2,-1.9500634E-2,-3.8724948E-2,-1.0040478E-2,1.1915877E-2,1.812527E-2,2.3503904E-3,1.0341668E-2,3.1209204E-1,-8.388477E-3,2.0889549E-1,3.6940463E-2,9.78861E-2,3.9911322E-2,2.0787282E-2,1.2793303E-2,6.409311E-2,1.6023658E-1,6.567766E-2],"split_indices":[0,0,8,20,9,9,14,20,0,2,14,0,10,0,18,0,0,18,9,20,16,0,0,10,0,0,0,0,0,10,0,0,0,0,0,0,0,0,0,0,0,0,0,0,0,0,0,0,0,0,0,0,0],"split_type":[0,0,0,0,0,0,0,0,0,0,0,0,0,0,0,0,0,0,0,0,0,0,0,0,0,0,0,0,0,0,0,0,0,0,0,0,0,0,0,0,0,0,0,0,0,0,0,0,0,0,0,0,0],"sum_hessian":[8.815E3,8.598E3,2.17E2,6.268E3,2.33E3,1.7E2,4.7E1,3.399E3,2.869E3,2.251E3,7.9E1,1.58E2,1.2E1,1.5E1,3.2E1,9E2,2.499E3,2.031E3,8.38E2,2.218E3,3.3E1,1E1,6.9E1,1.52E2,6E0,3E0,9E0,1.2E1,3E0,8E0,2.4E1,3.45E2,5.55E2,1.065E3,1.434E3,1.908E3,1.23E2,7.45E2,9.3E1,9.02E2,1.316E3,2.5E1,8E0,1E0,9E0,5.5E1,1.4E1,6.4E1,8.8E1,1E0,1.1E1,5E0,3E0],"tree_param":{"num_deleted":"0","num_feature":"22","num_nodes":"53","size_leaf_vector":"1"}},{"base_weights":[5.536487E-3,-1.398718E-2,7.168501E-1,2.0462155E-1,-4.4079676E-2,5.7753986E-1,1.4311975E0,1.8673511E-2,6.8866324E-1,-1.7770883E-1,5.3082038E-2,4.697712E-1,1.8753681E0,8.196511E-1,2.1384225E0,8.4553033E-1,-8.425038E-3,3.9655334E-1,1.0353057E0,-8.464693E-2,-2.789876E-1,1.2612938E0,3.6072355E-2,5.7816625E-1,1.9409883E-1,2.8865954E-1,1.3820116E-1,5.857465E-1,1.2371972E0,3.1570446E-2,2.3604045E0,-1.377277E-2,1.11153126E-1,-2.0851525E-2,4.6475446E-3,2.0827685E-2,5.798729E-2,8.808462E-2,1.0634755E0,-1.9006992E-2,1.1273591E-2,-4.739497E-2,-2.511563E-2,7.985737E-2,6.284043E-1,1.8875157E-2,-2.3630036E-3,7.279363E-2,3.719474E-2,1.432795E-2,3.7973084E-2,2.2078888E-2,6.221127E-2,3.696383E-2,1.3201839E-1,6.19622E-2,2.4404874E-1],"categories":[],"categories_nodes":[],"categories_segments":[],"categories_sizes":[],"default_left":[0,0,0,0,0,0,0,0,0,0,0,0,0,0,0,0,0,0,0,0,0,0,0,0,0,0,0,0,0,0,0,0,0,0,0,0,0,0,0,0,0,0,0,0,0,0,0,0,0,0,0,0,0,0,0,0,0],"id":18,"left_children":[1,3,5,7,9,11,13,15,17,19,21,23,25,27,29,31,33,35,37,39,41,43,45,47,49,-1,-1,51,53,-1,55,-1,-1,-1,-1,-1,-1,-1,-1,-1,-1,-1,-1,-1,-1,-1,-1,-1,-1,-1,-1,-1,-1,-1,-1,-1,-1],"loss_changes":[1.232056E2,5.6814217E1,2.2758705E1,9.404403E1,9.856824E1,2.7092033E1,1.4682274E1,1.694653E1,2.8954193E1,3.0099297E1,9.029803E1,5.4457436E0,3.4941216E0,1.4239664E0,6.1331863E0,6.430229E0,8.061731E0,5.367075E0,1.8635233E2,3.470951E1,8.182816E0,1.3675345E2,3.9528465E1,3.8370056E0,4.5501184E-1,0E0,0E0,7.49979E-2,1.598072E-2,0E0,5.789261E-1,0E0,0E0,0E0,0E0,0E0,0E0,0E0,0E0,0E0,0E0,0E0,0E0,0E0,0E0,0E0,0E0,0E0,0E0,0E0,0E0,0E0,0E0,0E0,0E0,0E0,0E0],"parents":[2147483647,0,0,1,1,2,2,3,3,4,4,5,5,6,6,7,7,8,8,9,9,10,10,11,11,12,12,13,13,14,14,15,15,16,16,17,17,18,18,19,19,20,20,21,21,22,22,23,23,24,24,27,27,28,28,30,30],"right_children":[2,4,6,8,10,12,14,16,18,20,22,24,26,28,30,32,34,36,38,40,42,44,46,48,50,-1,-1,52,54,-1,56,-1,-1,-1,-1,-1,-1,-1,-1,-1,-1,-1,-1,-1,-1,-1,-1,-1,-1,-1,-1,-1,-1,-1,-1,-1,-1],"split_conditions":[1.22E2,2E0,1.62E2,1.2E1,3.9E1,1E0,1.6E1,-2.1493378E0,9E0,9E0,4E0,1E0,-2.0700426E0,1.82E2,-5.347746E-1,-6.465335E-1,5E0,8E0,2.5E1,2.1E1,1.4E1,1E0,1.3E1,4.162694E-1,2.4689202E0,2.8865954E-1,1.3820116E-1,1.66E2,-2.5078194E0,3.1570446E-2,6E0,-1.377277E-2,1.11153126E-1,-2.0851525E-2,4.6475446E-3,2.0827685E-2,5.798729E-2,8.808462E-2,1.0634755E0,-1.9006992E-2,1.1273591E-2,-4.739497E-2,-2.511563E-2,7.985737E-2,6.284043E-1,1.8875157E-2,-2.3630036E-3,7.279363E-2,3.719474E-2,1.432795E-2,3.7973084E-2,2.2078888E-2,6.221127E-2,3.696383E-2,1.3201839E-1,6.19622E-2,2.4404874E-1],"split_indices":[0,1,0,0,0,9,20,16,20,1,1,7,14,0,16,11,0,20,0,0,0,9,1,16,15,0,0,0,12,0,1,0,0,0,0,0,0,0,0,0,0,0,0,0,0,0,0,0,0,0,0,0,0,0,0,0,0],"split_type":[0,0,0,0,0,0,0,0,0,0,0,0,0,0,0,0,0,0,0,0,0,0,0,0,0,0,0,0,0,0,0,0,0,0,0,0,0,0,0,0,0,0,0,0,0,0,0,0,0,0,0,0,0,0,0,0,0],"sum_hessian":[8.87E3,8.634E3,2.36E2,1.044E3,7.59E3,1.99E2,3.7E1,7.55E2,2.89E2,3.195E3,4.395E3,1.85E2,1.4E1,2.1E1,1.6E1,2.3E1,7.32E2,1.58E2,1.31E2,1.666E3,1.529E3,6E1,4.335E3,1.32E2,5.3E1,3E0,1.1E1,1.5E1,6E0,2E0,1.4E1,5E0,1.8E1,1.57E2,5.75E2,7.9E1,7.9E1,1.3E2,1E0,1.086E3,5.8E2,1.89E2,1.34E3,5.6E1,4E0,1.218E3,3.117E3,7.5E1,5.7E1,4.3E1,1E1,2E0,1.3E1,1E0,5E0,1E0,1.3E1],"tree_param":{"num_deleted":"0","num_feature":"22","num_nodes":"57","size_leaf_vector":"1"}},{"base_weights":[8.81208E-4,-4.2068437E-2,2.7434328E-1,4.7181264E-2,-1.2010489E-1,1.9956878E-1,8.192268E-1,-1.8409666E-2,2.5481775E-1,-2.4304001E-1,-3.7812725E-2,1.5950732E-1,1.1845125E0,4.7132266E-1,1.574142E0,1.4180087E-1,-1.1297868E-1,1.7230731E0,2.1930225E-1,-2.0224716E-1,-3.8425076E-1,-6.037601E-2,2.0792632E-1,1.4776099E-1,1.216058E0,8.236393E-1,1.7551168E0,6.955555E-1,1.1758451E-1,7.081371E-1,1.8013395E0,8.505205E-4,5.5416662E-2,-1.8191632E-2,2.9447551E-3,8.835679E-3,6.609551E-1,1.8478885E-2,1.13810174E-1,-3.5257783E-2,-1.4930363E-2,-5.358244E-2,-3.36865E-2,1.5668465E-4,-1.4467239E-2,1.1426906E-2,6.595682E-2,2.9706234E-2,8.691344E-3,3.4946674E-1,3.21404E-2,2.0956269E-2,1.0711682E-1,2.6086915E-1,1.4231291E-1,1.1727686E-1,3.758536E-2,5.408407E-2,-5.1308126E-4,8.730575E-2,3.3562128E-2,1.8854003E-1,2.762258E-2],"categories":[],"categories_nodes":[],"categories_segments":[],"categories_sizes":[],"default_left":[0,0,0,0,0,0,0,0,0,0,0,0,0,0,0,0,0,0,0,0,0,0,0,0,0,0,0,0,0,0,0,0,0,0,0,0,0,0,0,0,0,0,0,0,0,0,0,0,0,0,0,0,0,0,0,0,0,0,0,0,0,0,0],"id":19,"left_children":[1,3,5,7,9,11,13,15,17,19,21,23,25,27,29,31,33,35,37,39,41,43,45,47,49,51,53,55,57,59,61,-1,-1,-1,-1,-1,-1,-1,-1,-1,-1,-1,-1,-1,-1,-1,-1,-1,-1,-1,-1,-1,-1,-1,-1,-1,-1,-1,-1,-1,-1,-1,-1],"loss_changes":[1.0348586E2,5.3042084E1,4.8565613E1,4.8393246E1,4.1094547E1,4.1360638E1,3.7077972E1,4.0938744E1,4.4102512E1,9.305954E0,1.351385E1,1.2392244E1,6.9969673E0,7.8501835E0,7.578331E0,5.5126747E1,1.6687033E1,1.5917609E2,2.6236568E1,1.0023502E1,2.4339066E0,1.1649525E1,8.596038E0,9.086054E0,2.1301035E1,3.879568E0,5.3813934E-1,8.865738E0,2.0803757E0,3.8277292E-1,3.966278E0,0E0,0E0,0E0,0E0,0E0,0E0,0E0,0E0,0E0,0E0,0E0,0E0,0E0,0E0,0E0,0E0,0E0,0E0,0E0,0E0,0E0,0E0,0E0,0E0,0E0,0E0,0E0,0E0,0E0,0E0,0E0,0E0],"parents":[2147483647,0,0,1,1,2,2,3,3,4,4,5,5,6,6,7,7,8,8,9,9,10,10,11,11,12,12,13,13,14,14,15,15,16,16,17,17,18,18,19,19,20,20,21,21,22,22,23,23,24,24,25,25,26,26,27,27,28,28,29,29,30,30],"right_children":[2,4,6,8,10,12,14,16,18,20,22,24,26,28,30,32,34,36,38,40,42,44,46,48,50,52,54,56,58,60,62,-1,-1,-1,-1,-1,-1,-1,-1,-1,-1,-1,-1,-1,-1,-1,-1,-1,-1,-1,-1,-1,-1,-1,-1,-1,-1,-1,-1,-1,-1,-1,-1],"split_conditions":[7.9E1,1.1E1,1E0,3.2E1,4.4E1,1E0,1.21E2,2E0,-1.4186007E0,2.5E1,1E0,1E0,2.1E1,7.166946E-1,-8.293869E-1,1.2E1,2E1,1E0,7E0,2.3E1,2.7E1,2E1,6.2E1,-2.6789615E-1,1.3930278E-2,8.8E1,-2.0700426E0,7E0,3.017483E-1,2E1,6.169045E-1,8.505205E-4,5.5416662E-2,-1.8191632E-2,2.9447551E-3,8.835679E-3,6.609551E-1,1.8478885E-2,1.13810174E-1,-3.5257783E-2,-1.4930363E-2,-5.358244E-2,-3.36865E-2,1.5668465E-4,-1.4467239E-2,1.1426906E-2,6.595682E-2,2.9706234E-2,8.691344E-3,3.4946674E-1,3.21404E-2,2.0956269E-2,1.0711682E-1,2.6086915E-1,1.4231291E-1,1.1727686E-1,3.758536E-2,5.408407E-2,-5.1308126E-4,8.730575E-2,3.3562128E-2,1.8854003E-1,2.762258E-2],"split_indices":[0,1,8,0,0,9,0,1,10,1,9,2,1,15,15,0,0,9,18,0,0,1,0,10,15,0,14,20,14,20,11,0,0,0,0,0,0,0,0,0,0,0,0,0,0,0,0,0,0,0,0,0,0,0,0,0,0,0,0,0,0,0,0],"split_type":[0,0,0,0,0,0,0,0,0,0,0,0,0,0,0,0,0,0,0,0,0,0,0,0,0,0,0,0,0,0,0,0,0,0,0,0,0,0,0,0,0,0,0,0,0,0,0,0,0,0,0,0,0,0,0,0,0,0,0,0,0,0,0],"sum_hessian":[8.809E3,7.614E3,1.195E3,3.552E3,4.062E3,1.052E3,1.43E2,2.7E3,8.52E2,1.628E3,2.434E3,1.012E3,4E1,9.9E1,4.4E1,1.002E3,1.698E3,1.9E1,8.33E2,1.265E3,3.63E2,2.23E3,2.04E2,1.002E3,1E1,2.6E1,1.4E1,6E1,3.9E1,1E1,3.4E1,7.58E2,2.44E2,1.144E3,5.54E2,1.5E1,4E0,8.04E2,2.9E1,3.28E2,9.37E2,8.4E1,2.79E2,1.286E3,9.44E2,1.7E2,3.4E1,2.89E2,7.13E2,2E0,8E0,8E0,1.8E1,2E0,1.2E1,2.3E1,3.7E1,8E0,3.1E1,6E0,4E0,3.2E1,2E0],"tree_param":{"num_deleted":"0","num_feature":"22","num_nodes":"63","size_leaf_vector":"1"}},{"base_weights":[-8.294302E-4,3.0695492E-2,-1.3643524E-1,1.0385186E-1,-2.1476569E-2,-1.18838884E-1,-3.8950452E-1,1.2953052E-1,-7.535393E-2,1.8821098E-1,-3.500278E-2,-1.3171673E-1,1.12066664E-1,-3.2638404E-1,-6.509155E-1,1.3064124E-1,1.2586798E-1,1.370742E-1,-1.3904214E-1,4.7848037E-1,8.816409E-3,1.7846607E-1,-4.6719313E-2,-1.4453122E-1,5.439774E-2,-1.1947984E-1,5.2511483E-1,-3.4500566E-1,3.224381E-1,-6.796832E-2,-2.613376E-2,1.54399965E-2,-1.3791411E-3,-6.560584E-3,3.768634E-2,-1.0086912E-2,-4.3211564E-2,7.754156E-3,6.6562526E-2,-3.8567295E-3,1.0364602E-1,-1.4043498E-2,8.522188E-2,-1.3145014E-2,4.3210541E-4,-1.0936714E-2,-1.9623248E-2,1.3568924E-1,1.2250064E-3,-1.3789492E-2,4.282595E-2,1.511786E-1,2.6730914E-2,-4.1797042E-2,-1.9244025E-2,3.911866E-2,9.2470525E-3],"categories":[],"categories_nodes":[],"categories_segments":[],"categories_sizes":[],"default_left":[0,0,0,0,0,0,0,0,0,0,0,0,0,0,0,0,0,0,0,0,0,0,0,0,0,0,0,0,0,0,0,0,0,0,0,0,0,0,0,0,0,0,0,0,0,0,0,0,0,0,0,0,0,0,0,0,0],"id":20,"left_children":[1,3,5,7,9,11,13,15,17,19,21,23,25,27,29,-1,31,33,35,37,39,41,43,45,47,49,51,53,55,-1,-1,-1,-1,-1,-1,-1,-1,-1,-1,-1,-1,-1,-1,-1,-1,-1,-1,-1,-1,-1,-1,-1,-1,-1,-1,-1,-1],"loss_changes":[3.780341E1,2.7387188E1,7.3814754E0,1.3755226E1,1.1887755E1,4.656496E0,1.5695934E0,1.1098587E1,5.0924973E0,1.3222259E1,9.852728E0,3.535225E0,8.000848E0,1.186554E0,4.651928E-2,0E0,1.0386414E1,4.252967E0,3.1896005E0,7.22665E0,7.733557E0,4.4166073E1,1.614032E1,2.494688E0,5.2535014E0,6.037344E-1,7.2269697E0,8.8804054E-1,1.1256546E-2,0E0,0E0,0E0,0E0,0E0,0E0,0E0,0E0,0E0,0E0,0E0,0E0,0E0,0E0,0E0,0E0,0E0,0E0,0E0,0E0,0E0,0E0,0E0,0E0,0E0,0E0,0E0,0E0],"parents":[2147483647,0,0,1,1,2,2,3,3,4,4,5,5,6,6,7,7,8,8,9,9,10,10,11,11,12,12,13,13,14,14,16,16,17,17,18,18,19,19,20,20,21,21,22,22,23,23,24,24,25,25,26,26,27,27,28,28],"right_children":[2,4,6,8,10,12,14,16,18,20,22,24,26,28,30,-1,32,34,36,38,40,42,44,46,48,50,52,54,56,-1,-1,-1,-1,-1,-1,-1,-1,-1,-1,-1,-1,-1,-1,-1,-1,-1,-1,-1,-1,-1,-1,-1,-1,-1,-1,-1,-1],"split_conditions":[2.1E1,1E1,3.7E1,1E0,1E0,1E0,4.5E1,-3.2523744E0,3E0,-5.091204E-1,-1.4186007E0,2.103483E0,-6.135944E-2,1.0719854E0,1E0,1.3064124E-1,1E0,6.9115514E-1,6.169045E-1,-8.439457E-1,2.8444474E0,-1.317735E0,1.5E1,2.6E1,2E0,2.2E1,4.194923E-1,1.3E1,3.8E1,-6.796832E-2,-2.613376E-2,1.54399965E-2,-1.3791411E-3,-6.560584E-3,3.768634E-2,-1.0086912E-2,-4.3211564E-2,7.754156E-3,6.6562526E-2,-3.8567295E-3,1.0364602E-1,-1.4043498E-2,8.522188E-2,-1.3145014E-2,4.3210541E-4,-1.0936714E-2,-1.9623248E-2,1.3568924E-1,1.2250064E-3,-1.3789492E-2,4.282595E-2,1.511786E-1,2.6730914E-2,-4.1797042E-2,-1.9244025E-2,3.911866E-2,9.2470525E-3],"split_indices":[1,20,1,3,1,8,1,11,1,14,10,15,10,12,4,0,4,12,11,11,13,11,20,1,19,19,11,19,1,0,0,0,0,0,0,0,0,0,0,0,0,0,0,0,0,0,0,0,0,0,0,0,0,0,0,0,0],"split_type":[0,0,0,0,0,0,0,0,0,0,0,0,0,0,0,0,0,0,0,0,0,0,0,0,0,0,0,0,0,0,0,0,0,0,0,0,0,0,0,0,0,0,0,0,0,0,0,0,0,0,0,0,0,0,0,0,0],"sum_hessian":[8.841E3,7.174E3,1.667E3,2.986E3,4.188E3,1.56E3,1.07E2,2.612E3,3.74E2,2.53E2,3.935E3,1.478E3,8.2E1,8.8E1,1.9E1,7E0,2.605E3,8.6E1,2.88E2,9.6E1,1.57E2,2.04E2,3.731E3,1.383E3,9.5E1,5.3E1,2.9E1,8.6E1,2E0,1.7E1,2E0,2.163E3,4.42E2,4.7E1,3.9E1,2.56E2,3.2E1,3.1E1,6.5E1,1.51E2,6E0,1.39E2,6.5E1,1.402E3,2.329E3,8.25E2,5.58E2,2E0,9.3E1,5.2E1,1E0,5E0,2.4E1,5.7E1,2.9E1,1E0,1E0],"tree_param":{"num_deleted":"0","num_feature":"22","num_nodes":"57","size_leaf_vector":"1"}},{"base_weights":[-1.7203965E-3,-4.423265E-2,1.9213983E-1,-2.957524E-1,-3.3896804E-2,1.4772063E-1,7.385991E-1,-1.0041586E0,-2.5235596E-1,-5.8386166E-2,5.341156E-2,1.3732438E-1,9.706369E-1,4.8247257E-1,1.2862688E0,-1.1498808E0,1.0597547E-2,-2.6912084E-1,9.214062E-1,-7.751968E-2,5.2108098E-2,2.608858E-1,1.3413823E-2,1.09393924E-1,3.5379964E-1,2.4929192E0,1.7524859E-3,3.9847383E-1,1.2096516E0,7.505361E-1,1.6587064E0,-2.7615532E-2,-1.1958476E-1,5.178962E-2,-5.0199986E-2,8.891809E-3,-2.971357E-2,1.4735752E-1,-3.6755048E-2,-2.6354755E-3,-1.2200198E-2,-2.2479442E-4,1.5489861E-2,1.4297381E-2,1.5061907E-1,5.0627943E-2,-1.409276E-3,4.463884E-3,1.8508587E-2,4.90617E-2,4.103534E-3,3.1346384E-1,-6.786972E-2,-6.9386484E-3,1.1522434E-2,3.219038E-2,9.995099E-2,3.3872485E-2,1.2856804E-1,5.9341896E-2,1.6322051E-1,1.8135694E-1,5.471467E-2],"categories":[],"categories_nodes":[],"categories_segments":[],"categories_sizes":[],"default_left":[0,0,0,0,0,0,0,0,0,0,0,0,0,0,0,0,0,0,0,0,0,0,0,0,0,0,0,0,0,0,0,0,0,0,0,0,0,0,0,0,0,0,0,0,0,0,0,0,0,0,0,0,0,0,0,0,0,0,0,0,0,0,0],"id":21,"left_children":[1,3,5,7,9,11,13,15,17,19,21,23,25,27,29,31,33,35,37,39,41,43,45,47,49,51,53,55,57,59,61,-1,-1,-1,-1,-1,-1,-1,-1,-1,-1,-1,-1,-1,-1,-1,-1,-1,-1,-1,-1,-1,-1,-1,-1,-1,-1,-1,-1,-1,-1,-1,-1],"loss_changes":[7.207985E1,1.8637405E1,3.807276E1,8.446674E0,1.4736942E1,1.2323153E1,1.5931595E1,2.3781452E0,5.5216694E0,1.1382359E1,1.2527236E1,8.661858E0,2.6544115E1,4.526718E0,6.137577E0,2.3203468E-1,1.0401037E0,2.6844788E0,3.3885014E0,1.0438772E1,4.4422398E0,3.5612732E1,1.7183914E1,6.2459707E0,6.9976864E0,1.6374474E1,1.0486225E-1,3.1298552E0,9.423256E-2,1.3863487E0,2.6226387E0,0E0,0E0,0E0,0E0,0E0,0E0,0E0,0E0,0E0,0E0,0E0,0E0,0E0,0E0,0E0,0E0,0E0,0E0,0E0,0E0,0E0,0E0,0E0,0E0,0E0,0E0,0E0,0E0,0E0,0E0,0E0,0E0],"parents":[2147483647,0,0,1,1,2,2,3,3,4,4,5,5,6,6,7,7,8,8,9,9,10,10,11,11,12,12,13,13,14,14,15,15,16,16,17,17,18,18,19,19,20,20,21,21,22,22,23,23,24,24,25,25,26,26,27,27,28,28,29,29,30,30],"right_children":[2,4,6,8,10,12,14,16,18,20,22,24,26,28,30,32,34,36,38,40,42,44,46,48,50,52,54,56,58,60,62,-1,-1,-1,-1,-1,-1,-1,-1,-1,-1,-1,-1,-1,-1,-1,-1,-1,-1,-1,-1,-1,-1,-1,-1,-1,-1,-1,-1,-1,-1,-1,-1],"split_conditions":[7.2E1,5E0,1.37E2,1E0,6.9115514E-1,1E0,1E0,1.0719854E0,7.5297815E-1,1E0,6E0,1E0,1E0,1.9441897E0,-3.233966E-1,-7.118376E-1,2E1,-2.2322164E0,2E1,-4.0963888E-1,5.0446546E-1,6.563869E-1,-9.62393E-1,9.3E1,6.595597E-1,8.4E1,-3.7516978E-1,1.81E2,1.39E2,1.81E2,4.194923E-1,-2.7615532E-2,-1.1958476E-1,5.178962E-2,-5.0199986E-2,8.891809E-3,-2.971357E-2,1.4735752E-1,-3.6755048E-2,-2.6354755E-3,-1.2200198E-2,-2.2479442E-4,1.5489861E-2,1.4297381E-2,1.5061907E-1,5.0627943E-2,-1.409276E-3,4.463884E-3,1.8508587E-2,4.90617E-2,4.103534E-3,3.1346384E-1,-6.786972E-2,-6.9386484E-3,1.1522434E-2,3.219038E-2,9.995099E-2,3.3872485E-2,1.2856804E-1,5.9341896E-2,1.6322051E-1,1.8135694E-1,5.471467E-2],"split_indices":[0,0,0,0,12,2,8,12,13,8,19,8,5,15,15,14,21,14,21,11,14,11,11,0,16,0,12,0,0,0,11,0,0,0,0,0,0,0,0,0,0,0,0,0,0,0,0,0,0,0,0,0,0,0,0,0,0,0,0,0,0,0,0],"split_type":[0,0,0,0,0,0,0,0,0,0,0,0,0,0,0,0,0,0,0,0,0,0,0,0,0,0,0,0,0,0,0,0,0,0,0,0,0,0,0,0,0,0,0,0,0,0,0,0,0,0,0,0,0,0,0,0,0,0,0,0,0,0,0],"sum_hessian":[8.744E3,7.172E3,1.572E3,2.82E2,6.89E3,1.455E3,1.17E2,1.5E1,2.67E2,5.381E3,1.509E3,1.438E3,1.7E1,8.1E1,3.6E1,1.3E1,2E0,2.64E2,3E0,4.587E3,7.94E2,2.43E2,1.266E3,1.275E3,1.63E2,6E0,1.1E1,7.4E1,7E0,1.6E1,2E1,1E0,1.2E1,1E0,1E0,1.9E1,2.45E2,2E0,1E0,2.134E3,2.453E3,5.2E2,2.74E2,2.23E2,2E1,6.6E1,1.2E3,6.88E2,5.87E2,1.13E2,5E1,5E0,1E0,7E0,4E0,6.7E1,7E0,1E0,6E0,1.5E1,1E0,1.7E1,3E0],"tree_param":{"num_deleted":"0","num_feature":"22","num_nodes":"63","size_leaf_vector":"1"}},{"base_weights":[4.9493522E-3,-1.3244359E-2,4.0420315E-1,1.0017383E-1,-5.586196E-2,2.705897E-1,1.1659752E0,-5.5465735E-2,2.7088922E-1,-1.4402437E-1,5.1214855E-2,2.0449357E-1,1.4677311E0,1.4962897E0,6.494472E-1,1.1023683E-1,-1.22880824E-1,2.0604502E-1,7.521443E-1,-3.0492124E-1,-1.062003E-1,3.4670696E-2,4.1586256E-1,4.0341678E-1,1.2943669E-1,2.4213277E-1,9.880609E-2,5.6371685E-2,1.6018423E0,2.515313E-1,8.7142795E-1,5.5611427E-3,5.6935888E-2,-1.3440571E-2,7.7570595E-2,2.8342379E-3,3.6394767E-2,9.517434E-1,5.408317E-2,-4.8063736E-2,-2.5374955E-2,4.6878666E-2,-1.1999983E-2,1.9336184E-2,4.922789E-4,1.3020293E-1,3.322812E-2,3.3447042E-2,7.5954504E-2,1.1672904E-2,5.8016516E-2,4.64484E-2,1.6250448E-1,4.1116555E-3,2.9899543E-2,1.4027055E-1,5.5071753E-2],"categories":[],"categories_nodes":[],"categories_segments":[],"categories_sizes":[],"default_left":[0,0,0,0,0,0,0,0,0,0,0,0,0,0,0,0,0,0,0,0,0,0,0,0,0,0,0,0,0,0,0,0,0,0,0,0,0,0,0,0,0,0,0,0,0,0,0,0,0,0,0,0,0,0,0,0,0],"id":22,"left_children":[1,3,5,7,9,11,13,15,17,19,21,23,25,27,29,31,33,35,37,39,41,43,45,47,49,-1,-1,-1,51,53,55,-1,-1,-1,-1,-1,-1,-1,-1,-1,-1,-1,-1,-1,-1,-1,-1,-1,-1,-1,-1,-1,-1,-1,-1,-1,-1],"loss_changes":[6.400038E1,4.0738438E1,3.876917E1,6.117933E1,5.783774E1,2.5653322E1,8.75338E0,1.3474423E1,3.410988E1,2.0415817E1,1.6678312E1,4.6061153E0,5.383583E0,2.4438248E0,1.9007215E0,8.721163E0,8.97944E0,2.7179554E1,2.3564078E2,5.6237335E0,2.1654106E1,1.249954E1,8.455402E0,1.8330231E0,1.2381942E0,0E0,0E0,0E0,3.6880493E-2,8.757782E-2,1.7832975E0,0E0,0E0,0E0,0E0,0E0,0E0,0E0,0E0,0E0,0E0,0E0,0E0,0E0,0E0,0E0,0E0,0E0,0E0,0E0,0E0,0E0,0E0,0E0,0E0,0E0,0E0],"parents":[2147483647,0,0,1,1,2,2,3,3,4,4,5,5,6,6,7,7,8,8,9,9,10,10,11,11,12,12,13,13,14,14,15,15,16,16,17,17,18,18,19,19,20,20,21,21,22,22,23,23,24,24,28,28,29,29,30,30],"right_children":[2,4,6,8,10,12,14,16,18,20,22,24,26,28,30,32,34,36,38,40,42,44,46,48,50,-1,-1,-1,52,54,56,-1,-1,-1,-1,-1,-1,-1,-1,-1,-1,-1,-1,-1,-1,-1,-1,-1,-1,-1,-1,-1,-1,-1,-1,-1,-1],"split_conditions":[1.1E2,6E0,1E0,1.1E1,5.3E1,1E0,1.8E1,1E0,4.3E1,2E1,1E0,-2.6789615E-1,-3.233966E-1,-8.293869E-1,2.5E1,1.3752071E0,3.2583966E0,8E0,-1.4186007E0,1.2E1,-1.4186007E0,1.1E1,-9.9805033E-1,1.58E2,1.2177491E0,2.4213277E-1,9.880609E-2,5.6371685E-2,6E0,1.15E2,7.352821E-1,5.5611427E-3,5.6935888E-2,-1.3440571E-2,7.7570595E-2,2.8342379E-3,3.6394767E-2,9.517434E-1,5.408317E-2,-4.8063736E-2,-2.5374955E-2,4.6878666E-2,-1.1999983E-2,1.9336184E-2,4.922789E-4,1.3020293E-1,3.322812E-2,3.3447042E-2,7.5954504E-2,1.1672904E-2,5.8016516E-2,4.64484E-2,1.6250448E-1,4.1116555E-3,2.9899543E-2,1.4027055E-1,5.5071753E-2],"split_indices":[0,1,8,0,0,9,19,1,0,0,9,10,15,15,19,17,17,20,10,20,10,1,15,0,13,0,0,0,1,0,10,0,0,0,0,0,0,0,0,0,0,0,0,0,0,0,0,0,0,0,0,0,0,0,0,0,0],"split_type":[0,0,0,0,0,0,0,0,0,0,0,0,0,0,0,0,0,0,0,0,0,0,0,0,0,0,0,0,0,0,0,0,0,0,0,0,0,0,0,0,0,0,0,0,0,0,0,0,0,0,0,0,0,0,0,0,0],"sum_hessian":[8.809E3,8.426E3,3.83E2,2.301E3,6.125E3,3.27E2,5.6E1,1.204E3,1.097E3,3.359E3,2.766E3,3.11E2,1.6E1,3.3E1,2.3E1,3.48E2,8.56E2,9.68E2,1.29E2,6.38E2,2.721E3,2.647E3,1.19E2,8.4E1,2.27E2,4E0,1.2E1,4E0,2.9E1,9E0,1.4E1,3.12E2,3.6E1,8.46E2,1E1,4.56E2,5.12E2,2E0,1.27E2,1.42E2,4.96E2,6.3E1,2.658E3,4.17E2,2.23E3,9E0,1.1E2,7.2E1,1.2E1,2.22E2,5E0,1E0,2.8E1,2E0,7E0,4E0,1E1],"tree_param":{"num_deleted":"0","num_feature":"22","num_nodes":"57","size_leaf_vector":"1"}},{"base_weights":[-6.166372E-4,-2.2991179E-2,2.6521203E-1,-5.1045407E-2,5.6840904E-2,1.8701741E-1,9.421002E-1,-3.2391993E-4,-9.229453E-2,4.0703975E-2,4.0916002E-1,1.4619648E-1,1.1912436E0,1.2599173E0,5.7920504E-1,1.2758893E-1,-5.16077E-2,-1.1063063E-1,-8.327004E-3,1.9104935E-2,2.3331635E-1,6.351469E-1,1.6520351E-2,4.48984E-1,1.2060663E-1,1.8707246E0,8.608209E-1,1.0067848E0,1.7667046E-1,9.293196E-1,2.701531E-1,2.5886323E-3,4.5756415E-2,-2.1850623E-3,-2.2063462E-2,-9.194121E-3,-1.7004473E-2,-1.0913822E-2,1.3879234E-2,-5.479372E-4,1.6116789E-2,9.670922E-3,2.6337776E-1,1.8678294E-1,4.603559E-2,2.9592646E-2,-2.3434408E-2,6.048258E-2,4.95723E-3,1.0828438E-2,4.5928184E-2,6.5232165E-2,2.2276214E-1,1.7461538E-2,9.356832E-2,3.0138765E-2,1.1939751E-1,1.4293824E-1,6.435169E-2,1.4797595E-2,3.566639E-2],"categories":[],"categories_nodes":[],"categories_segments":[],"categories_sizes":[],"default_left":[0,0,0,0,0,0,0,0,0,0,0,0,0,0,0,0,0,0,0,0,0,0,0,0,0,0,0,0,0,0,0,0,0,0,0,0,0,0,0,0,0,0,0,0,0,0,0,0,0,0,0,0,0,0,0,0,0,0,0,0,0],"id":23,"left_children":[1,3,5,7,9,11,13,15,17,19,21,23,25,27,29,31,33,35,37,39,41,43,45,47,49,51,53,55,-1,57,59,-1,-1,-1,-1,-1,-1,-1,-1,-1,-1,-1,-1,-1,-1,-1,-1,-1,-1,-1,-1,-1,-1,-1,-1,-1,-1,-1,-1,-1,-1],"loss_changes":[5.2709507E1,1.8309614E1,3.623897E1,1.2655788E1,1.2070397E1,2.5159792E1,7.4589844E0,1.781003E1,5.1353073E0,8.457476E0,8.24153E0,4.556081E0,3.7780228E0,2.9678268E0,3.536067E0,2.606376E1,9.742828E0,3.024685E0,8.899083E0,6.3921933E0,6.696892E1,1.1852381E1,2.5226057E0,2.8332891E0,2.2455492E0,1.5907841E0,7.612915E-1,3.2053242E0,0E0,1.3668776E0,1.5861511E-1,0E0,0E0,0E0,0E0,0E0,0E0,0E0,0E0,0E0,0E0,0E0,0E0,0E0,0E0,0E0,0E0,0E0,0E0,0E0,0E0,0E0,0E0,0E0,0E0,0E0,0E0,0E0,0E0,0E0,0E0],"parents":[2147483647,0,0,1,1,2,2,3,3,4,4,5,5,6,6,7,7,8,8,9,9,10,10,11,11,12,12,13,13,14,14,15,15,16,16,17,17,18,18,19,19,20,20,21,21,22,22,23,23,24,24,25,25,26,26,27,27,29,29,30,30],"right_children":[2,4,6,8,10,12,14,16,18,20,22,24,26,28,30,32,34,36,38,40,42,44,46,48,50,52,54,56,-1,58,60,-1,-1,-1,-1,-1,-1,-1,-1,-1,-1,-1,-1,-1,-1,-1,-1,-1,-1,-1,-1,-1,-1,-1,-1,-1,-1,-1,-1,-1,-1],"split_conditions":[9.5E1,5.7E1,1E0,4E0,1E0,1E0,1.8E1,1.2E1,2.3E1,6.9115514E-1,2E1,-7.3998004E-1,-3.233966E-1,1.67E2,8.828084E-1,1E1,1E0,4.1072446E-1,2.4667935E-2,1E0,7E0,-9.9805033E-1,-5.7900923E-1,-6.465335E-1,1.61E2,1.06E2,1E2,3.5125715E-1,1.7667046E-1,-9.62393E-1,-1.6699928E0,2.5886323E-3,4.5756415E-2,-2.1850623E-3,-2.2063462E-2,-9.194121E-3,-1.7004473E-2,-1.0913822E-2,1.3879234E-2,-5.479372E-4,1.6116789E-2,9.670922E-3,2.6337776E-1,1.8678294E-1,4.603559E-2,2.9592646E-2,-2.3434408E-2,6.048258E-2,4.95723E-3,1.0828438E-2,4.5928184E-2,6.5232165E-2,2.2276214E-1,1.7461538E-2,9.356832E-2,3.0138765E-2,1.1939751E-1,1.4293824E-1,6.435169E-2,1.4797595E-2,3.566639E-2],"split_indices":[0,0,8,18,9,9,19,19,19,12,19,10,15,0,10,19,4,10,11,8,18,15,16,11,0,0,0,15,0,11,12,0,0,0,0,0,0,0,0,0,0,0,0,0,0,0,0,0,0,0,0,0,0,0,0,0,0,0,0,0,0],"split_type":[0,0,0,0,0,0,0,0,0,0,0,0,0,0,0,0,0,0,0,0,0,0,0,0,0,0,0,0,0,0,0,0,0,0,0,0,0,0,0,0,0,0,0,0,0,0,0,0,0,0,0,0,0,0,0,0,0,0,0,0,0],"sum_hessian":[8.86E3,8.173E3,6.87E2,6.048E3,2.125E3,6.17E2,7E1,2.713E3,3.335E3,2.033E3,9.2E1,5.94E2,2.3E1,3.6E1,3.4E1,7.76E2,1.937E3,2.737E3,5.98E2,1.829E3,2.04E2,5.8E1,3.4E1,4.5E1,5.49E2,6E0,1.7E1,2.6E1,1E1,1.5E1,1.9E1,5.94E2,1.82E2,1.648E3,2.89E2,2.084E3,6.53E2,3.55E2,2.43E2,1.56E3,2.69E2,1.94E2,1E1,6E0,5.2E1,1.6E1,1.8E1,3.2E1,1.3E1,5.31E2,1.8E1,2E0,4E0,2E0,1.5E1,6E0,2E1,4E0,1.1E1,9E0,1E1],"tree_param":{"num_deleted":"0","num_feature":"22","num_nodes":"61","size_leaf_vector":"1"}},{"base_weights":[2.711323E-3,-1.54884625E-2,2.4897458E-1,1.2122552E-1,-5.3521346E-2,1.9158898E-1,7.878662E-1,-5.448309E-3,4.0868765E-1,-2.0724234E-1,-5.011683E-3,1.4958239E-1,1.0308148E0,1.1436119E0,4.1771647E-1,-1.804955E-1,6.834644E-2,6.7015857E-1,1.4283033E-1,-2.809656E-1,-1.371716E-1,3.3555844E-1,-2.5588403E-2,1.381219E-1,7.9002976E-1,1.364651E0,6.4719445E-1,3.1877041E-3,1.1821783E0,6.213749E-1,2.6710504E-1,-8.444522E-2,-1.4791665E-2,3.116985E-3,4.1716978E-2,5.5482607E-2,3.1516263E-1,6.106942E-3,7.764854E-2,-2.8781459E-2,4.8614427E-2,-5.091372E-3,-2.7592713E-2,2.5308076E-1,2.4420286E-2,1.3169016E-3,-1.0948301E-2,4.6226494E-2,1.2137049E-2,8.853396E-2,3.0429706E-2,1.7364455E-2,1.4494312E-1,7.264184E-2,-1.9135822E-2,4.3079186E-2,1.2551129E-1,1.9753018E-2,8.08606E-2,2.8915703E-2,-6.491518E-3],"categories":[],"categories_nodes":[],"categories_segments":[],"categories_sizes":[],"default_left":[0,0,0,0,0,0,0,0,0,0,0,0,0,0,0,0,0,0,0,0,0,0,0,0,0,0,0,0,0,0,0,0,0,0,0,0,0,0,0,0,0,0,0,0,0,0,0,0,0,0,0,0,0,0,0,0,0,0,0,0,0],"id":24,"left_children":[1,3,5,7,9,11,13,15,17,19,21,23,25,27,29,31,33,35,37,39,41,43,45,47,49,51,53,-1,55,57,59,-1,-1,-1,-1,-1,-1,-1,-1,-1,-1,-1,-1,-1,-1,-1,-1,-1,-1,-1,-1,-1,-1,-1,-1,-1,-1,-1,-1,-1,-1],"loss_changes":[3.9467323E1,4.2643433E1,1.858937E1,6.500109E1,4.7842773E1,1.919972E1,7.159687E0,1.6030117E1,3.7858894E1,7.9116974E0,3.4192715E1,3.7369528E0,2.4465275E0,1.2057114E0,7.542262E-1,7.8352833E0,1.1308115E1,7.69547E1,1.40444145E1,4.0751114E0,9.453239E0,5.5134388E1,1.4961768E1,2.7457008E0,1.472497E-1,1.0609741E0,1.0690742E0,0E0,9.9376297E-1,7.9255867E-1,1.5788293E-1,0E0,0E0,0E0,0E0,0E0,0E0,0E0,0E0,0E0,0E0,0E0,0E0,0E0,0E0,0E0,0E0,0E0,0E0,0E0,0E0,0E0,0E0,0E0,0E0,0E0,0E0,0E0,0E0,0E0,0E0],"parents":[2147483647,0,0,1,1,2,2,3,3,4,4,5,5,6,6,7,7,8,8,9,9,10,10,11,11,12,12,13,13,14,14,15,15,16,16,17,17,18,18,19,19,20,20,21,21,22,22,23,23,24,24,25,25,26,26,28,28,29,29,30,30],"right_children":[2,4,6,8,10,12,14,16,18,20,22,24,26,28,30,32,34,36,38,40,42,44,46,48,50,52,54,-1,56,58,60,-1,-1,-1,-1,-1,-1,-1,-1,-1,-1,-1,-1,-1,-1,-1,-1,-1,-1,-1,-1,-1,-1,-1,-1,-1,-1,-1,-1,-1,-1],"split_conditions":[9.8E1,4E0,1E0,1.3E1,2.8E1,1E0,1.8E1,6E0,-3.233966E-1,1.8E1,7E0,1.74E2,2E1,9.9E1,8.828084E-1,1E0,1.3752071E0,4.3E1,3.2583966E0,3.8861263E0,1.3E1,-1.4186007E0,2.1E1,-9.4651675E-1,-4.1542238E-1,5E0,2.4E1,3.1877041E-3,-8.293869E-1,-1.0368604E-1,1.5E1,-8.444522E-2,-1.4791665E-2,3.116985E-3,4.1716978E-2,5.5482607E-2,3.1516263E-1,6.106942E-3,7.764854E-2,-2.8781459E-2,4.8614427E-2,-5.091372E-3,-2.7592713E-2,2.5308076E-1,2.4420286E-2,1.3169016E-3,-1.0948301E-2,4.6226494E-2,1.2137049E-2,8.853396E-2,3.0429706E-2,1.7364455E-2,1.4494312E-1,7.264184E-2,-1.9135822E-2,4.3079186E-2,1.2551129E-1,1.9753018E-2,8.08606E-2,2.8915703E-2,-6.491518E-3],"split_indices":[0,1,8,0,0,9,19,0,15,0,1,0,19,0,10,0,17,0,17,17,1,10,1,10,10,1,1,0,15,14,1,0,0,0,0,0,0,0,0,0,0,0,0,0,0,0,0,0,0,0,0,0,0,0,0,0,0,0,0,0,0],"split_type":[0,0,0,0,0,0,0,0,0,0,0,0,0,0,0,0,0,0,0,0,0,0,0,0,0,0,0,0,0,0,0,0,0,0,0,0,0,0,0,0,0,0,0,0,0,0,0,0,0,0,0,0,0,0,0,0,0,0,0,0,0],"sum_hessian":[8.804E3,8.199E3,6.05E2,1.784E3,6.415E3,5.48E2,5.7E1,1.239E3,5.45E2,1.538E3,4.877E3,5.23E2,2.5E1,2.8E1,2.9E1,3.67E2,8.72E2,2.74E2,2.71E2,7.48E2,7.9E2,2.77E2,4.6E3,5.15E2,8E0,1.2E1,1.3E1,1E0,2.7E1,1.1E1,1.8E1,1.6E1,3.51E2,7.89E2,8.3E1,2.63E2,1.1E1,2.41E2,3E1,7.42E2,6E0,4.88E2,3.02E2,1E1,2.67E2,3.147E3,1.453E3,2.4E1,4.91E2,6E0,2E0,1E0,1.1E1,1.2E1,1E0,3E0,2.4E1,4E0,7E0,1.7E1,1E0],"tree_param":{"num_deleted":"0","num_feature":"22","num_nodes":"61","size_leaf_vector":"1"}},{"base_weights":[-2.793901E-4,-2.9619332E-2,1.3857488E-1,2.2780532E-2,-8.453348E-2,9.929014E-2,3.94787E-1,-1.7156059E-1,8.2192406E-2,-1.206208E-1,-3.5313103E-2,7.840334E-2,6.6956484E-1,2.4048604E-1,8.529745E-1,-3.3920598E-1,-1.1853431E-1,-1.1927878E-1,1.479063E-1,-8.068746E-1,-1.1787318E-1,-4.8297178E-2,1.0464299E-1,1.9049976E-2,1.8926841E-1,1.0933294E0,2.5291884E-1,3.887979E-1,1.4139458E-2,3.9341575E-1,1.051818E0,-3.208577E-2,-6.722517E-2,5.0393533E-2,-1.278567E-2,-1.3755661E-2,3.811874E-2,7.0842127E-3,4.241347E-2,-1.1050647E-1,6.4022794E-2,9.402663E-2,-1.1937149E-2,-6.2135435E-3,7.6396554E-3,1.0877831E-1,7.234536E-3,-4.4539473E-3,5.3193024E-3,1.700206E-2,1.8644701E-1,1.626041E-2,1.2807135E-1,8.775957E-4,6.8597555E-2,7.367013E-2,1.7582476E-2,-4.9382616E-3,2.573675E-2,1.6415268E-2,7.8637265E-2,1.0850047E-1,-3.8264156E-3],"categories":[],"categories_nodes":[],"categories_segments":[],"categories_sizes":[],"default_left":[0,0,0,0,0,0,0,0,0,0,0,0,0,0,0,0,0,0,0,0,0,0,0,0,0,0,0,0,0,0,0,0,0,0,0,0,0,0,0,0,0,0,0,0,0,0,0,0,0,0,0,0,0,0,0,0,0,0,0,0,0,0,0],"id":25,"left_children":[1,3,5,7,9,11,13,15,17,19,21,23,25,27,29,31,33,35,37,39,41,43,45,47,49,51,53,55,57,59,61,-1,-1,-1,-1,-1,-1,-1,-1,-1,-1,-1,-1,-1,-1,-1,-1,-1,-1,-1,-1,-1,-1,-1,-1,-1,-1,-1,-1,-1,-1,-1,-1],"loss_changes":[3.5895836E1,2.0932817E1,1.5431057E1,4.3000496E1,6.3049145E0,1.5837066E1,1.4217421E1,7.7115345E0,3.777657E1,3.7684212E0,2.738123E0,8.471711E0,8.021788E0,5.1642637E0,4.2465935E0,1.0614643E0,3.9175587E0,6.473938E0,4.5758965E1,4.1595855E0,3.3496609E0,2.3808205E0,3.9857001E0,1.826125E0,1.4160545E1,3.8030205E0,2.6371727E0,6.761218E0,9.7063106E-1,1.4024532E0,1.307682E0,0E0,0E0,0E0,0E0,0E0,0E0,0E0,0E0,0E0,0E0,0E0,0E0,0E0,0E0,0E0,0E0,0E0,0E0,0E0,0E0,0E0,0E0,0E0,0E0,0E0,0E0,0E0,0E0,0E0,0E0,0E0,0E0],"parents":[2147483647,0,0,1,1,2,2,3,3,4,4,5,5,6,6,7,7,8,8,9,9,10,10,11,11,12,12,13,13,14,14,15,15,16,16,17,17,18,18,19,19,20,20,21,21,22,22,23,23,24,24,25,25,26,26,27,27,28,28,29,29,30,30],"right_children":[2,4,6,8,10,12,14,16,18,20,22,24,26,28,30,32,34,36,38,40,42,44,46,48,50,52,54,56,58,60,62,-1,-1,-1,-1,-1,-1,-1,-1,-1,-1,-1,-1,-1,-1,-1,-1,-1,-1,-1,-1,-1,-1,-1,-1,-1,-1,-1,-1,-1,-1,-1,-1],"split_conditions":[7.2E1,1.2E1,1E0,4E0,4.6E1,1E0,1.1E2,3.5E1,8E0,1E0,1E0,-1.4667158E-1,2E1,7.166946E-1,-4.9206004E-1,1.4557827E0,-3.4542584E0,5.5821713E-2,9E0,1E0,2E0,1E0,1.5E1,8.5E1,7E0,-9.4651675E-1,1.1E2,7E0,9.3E1,1.67E2,4.162694E-1,-3.208577E-2,-6.722517E-2,5.0393533E-2,-1.278567E-2,-1.3755661E-2,3.811874E-2,7.0842127E-3,4.241347E-2,-1.1050647E-1,6.4022794E-2,9.402663E-2,-1.1937149E-2,-6.2135435E-3,7.6396554E-3,1.0877831E-1,7.234536E-3,-4.4539473E-3,5.3193024E-3,1.700206E-2,1.8644701E-1,1.626041E-2,1.2807135E-1,8.775957E-4,6.8597555E-2,7.367013E-2,1.7582476E-2,-4.9382616E-3,2.573675E-2,1.6415268E-2,7.8637265E-2,1.0850047E-1,-3.8264156E-3],"split_indices":[0,20,8,20,0,9,0,0,0,0,9,12,19,15,15,16,16,13,20,3,0,8,20,0,18,10,0,20,0,0,16,0,0,0,0,0,0,0,0,0,0,0,0,0,0,0,0,0,0,0,0,0,0,0,0,0,0,0,0,0,0,0,0],"split_type":[0,0,0,0,0,0,0,0,0,0,0,0,0,0,0,0,0,0,0,0,0,0,0,0,0,0,0,0,0,0,0,0,0,0,0,0,0,0,0,0,0,0,0,0,0,0,0,0,0,0,0,0,0,0,0,0,0,0,0,0,0,0,0],"sum_hessian":[8.809E3,7.273E3,1.536E3,3.722E3,3.551E3,1.333E3,2.03E2,8.71E2,2.851E3,2.048E3,1.503E3,1.287E3,4.6E1,1.53E2,5E1,2.08E2,6.63E2,7.01E2,2.15E3,7E0,2.041E3,1.376E3,1.27E2,8.39E2,4.48E2,2.2E1,2.4E1,9.2E1,6.1E1,1.6E1,3.4E1,1.99E2,9E0,9E0,6.54E2,6.77E2,2.4E1,1.682E3,4.68E2,6E0,1E0,2E0,2.039E3,1.239E3,1.37E2,3E0,1.24E2,2.93E2,5.46E2,4.44E2,4E0,4E0,1.8E1,1.6E1,8E0,3.4E1,5.8E1,4.9E1,1.2E1,1.1E1,5E0,3.3E1,1E0],"tree_param":{"num_deleted":"0","num_feature":"22","num_nodes":"63","size_leaf_vector":"1"}},{"base_weights":[1.5606394E-3,-2.8481813E-2,1.16415404E-1,8.682327E-2,-7.676779E-2,9.7341344E-2,6.486412E-1,-3.7264597E-2,2.8815824E-1,-2.3875883E-1,-4.6197448E-2,8.174912E-2,6.0911316E-1,1.7931087E0,4.7356302E-1,-6.0071684E-2,3.506595E-1,9.5148005E-2,4.9623504E-1,-3.8295308E-1,-1.8677485E-1,-6.408955E-3,-1.5728602E-1,5.6376163E-2,2.475986E-1,3.4766138E-1,8.996544E-1,1.944807E-1,3.656104E-2,7.384937E-1,1.3947017E-1,5.346718E-3,-1.0787715E-2,-8.257588E-2,4.1470382E-2,-1.1060051E-2,3.939608E-2,2.7883885E-2,1.0233563E-1,7.896916E-2,-3.9252546E-2,-1.4739505E-2,-3.9778806E-2,8.717032E-3,-3.5363566E-3,-1.13687515E-2,-2.6494825E-2,1.4603029E-3,1.5769532E-2,1.272386E-2,5.331264E-2,1.1079533E-2,4.664964E-2,1.1180659E-1,4.1140582E-2,-2.110672E-3,8.2063325E-2,4.330132E-3,6.575736E-2],"categories":[],"categories_nodes":[],"categories_segments":[],"categories_sizes":[],"default_left":[0,0,0,0,0,0,0,0,0,0,0,0,0,0,0,0,0,0,0,0,0,0,0,0,0,0,0,0,0,0,0,0,0,0,0,0,0,0,0,0,0,0,0,0,0,0,0,0,0,0,0,0,0,0,0,0,0,0,0],"id":26,"left_children":[1,3,5,7,9,11,13,15,17,19,21,23,25,27,29,31,33,35,37,39,41,43,45,47,49,51,53,-1,-1,55,57,-1,-1,-1,-1,-1,-1,-1,-1,-1,-1,-1,-1,-1,-1,-1,-1,-1,-1,-1,-1,-1,-1,-1,-1,-1,-1,-1,-1],"loss_changes":[3.0388584E1,3.8874207E1,1.8473879E1,5.1501175E1,2.4358358E1,1.4026327E1,1.1774244E1,1.131037E1,3.1519295E1,5.782688E0,1.8302406E1,7.194503E0,3.6372757E0,1.0213509E0,4.8536415E0,6.551668E0,5.6917925E0,2.5189009E1,4.3031242E1,2.622326E0,4.72773E0,8.267215E0,5.0956287E0,6.2913036E0,7.7332754E0,7.646055E-1,2.0993576E0,0E0,0E0,1.9515114E0,1.2669867E0,0E0,0E0,0E0,0E0,0E0,0E0,0E0,0E0,0E0,0E0,0E0,0E0,0E0,0E0,0E0,0E0,0E0,0E0,0E0,0E0,0E0,0E0,0E0,0E0,0E0,0E0,0E0,0E0],"parents":[2147483647,0,0,1,1,2,2,3,3,4,4,5,5,6,6,7,7,8,8,9,9,10,10,11,11,12,12,13,13,14,14,15,15,16,16,17,17,18,18,19,19,20,20,21,21,22,22,23,23,24,24,25,25,26,26,29,29,30,30],"right_children":[2,4,6,8,10,12,14,16,18,20,22,24,26,28,30,32,34,36,38,40,42,44,46,48,50,52,54,-1,-1,56,58,-1,-1,-1,-1,-1,-1,-1,-1,-1,-1,-1,-1,-1,-1,-1,-1,-1,-1,-1,-1,-1,-1,-1,-1,-1,-1,-1,-1],"split_conditions":[6.8E1,5E0,1E0,1.2E1,2E1,1.53E2,-1.9281406E0,5.5821713E-2,8E0,1.2E1,2.2E1,1E0,1E0,3.3E1,6.0582405E-1,1E0,1E0,3.2E1,1E0,-2.85755E0,1.6E1,1E1,3E1,1.5799268E-1,8.9E1,6.0582405E-1,1.8E1,1.944807E-1,3.656104E-2,-8.439457E-1,1E2,5.346718E-3,-1.0787715E-2,-8.257588E-2,4.1470382E-2,-1.1060051E-2,3.939608E-2,2.7883885E-2,1.0233563E-1,7.896916E-2,-3.9252546E-2,-1.4739505E-2,-3.9778806E-2,8.717032E-3,-3.5363566E-3,-1.13687515E-2,-2.6494825E-2,1.4603029E-3,1.5769532E-2,1.272386E-2,5.331264E-2,1.1079533E-2,4.664964E-2,1.1180659E-1,4.1140582E-2,-2.110672E-3,8.2063325E-2,4.330132E-3,6.575736E-2],"split_indices":[0,1,9,0,0,0,14,13,20,20,1,8,8,1,14,1,0,0,9,11,1,1,1,12,0,14,19,0,0,11,0,0,0,0,0,0,0,0,0,0,0,0,0,0,0,0,0,0,0,0,0,0,0,0,0,0,0,0,0],"split_type":[0,0,0,0,0,0,0,0,0,0,0,0,0,0,0,0,0,0,0,0,0,0,0,0,0,0,0,0,0,0,0,0,0,0,0,0,0,0,0,0,0,0,0,0,0,0,0,0,0,0,0,0,0,0,0,0,0,0,0],"sum_hessian":[8.805E3,6.98E3,1.825E3,2.06E3,4.92E3,1.763E3,6.2E1,1.275E3,7.85E2,7.8E2,4.14E3,1.712E3,5.1E1,7E0,5.5E1,1.205E3,7E1,4.08E2,3.77E2,2.05E2,5.75E2,3.049E3,1.091E3,1.486E3,2.26E2,2.8E1,2.3E1,6E0,1E0,3E1,2.5E1,3.57E2,8.48E2,3E0,6.7E1,2.42E2,1.66E2,2.68E2,1.09E2,1E0,2.04E2,4.86E2,8.9E1,7.2E2,2.329E3,7.78E2,3.13E2,1.053E3,4.33E2,1.6E2,6.6E1,1E1,1.8E1,1.5E1,8E0,3E0,2.7E1,2.2E1,3E0],"tree_param":{"num_deleted":"0","num_feature":"22","num_nodes":"59","size_leaf_vector":"1"}},{"base_weights":[2.7228945E-3,-2.1878067E-2,1.3745596E-1,2.5709046E-2,-6.9844395E-2,1.0115682E-1,4.167297E-1,-8.579136E-2,8.1180915E-2,-1.05767146E-1,-2.5772296E-2,9.113232E-2,8.3978057E-1,5.137066E-1,6.678916E-2,-1.5683436E-1,5.564702E-2,8.795021E-3,4.9315533E-1,-7.016882E-1,-1.03372484E-1,-4.028492E-2,1.3779095E-1,-7.364992E-2,1.2473037E-1,1.8610561E0,4.0909685E-2,6.2298137E-1,2.4583285E-1,1.967721E-2,2.524259E-1,-2.6680404E-2,-1.1115263E-2,-1.2183674E-2,1.5308921E-2,1.0936284E-4,1.02338515E-1,3.2456625E-2,1.5964358E0,-9.749416E-2,6.0554314E-2,1.6821483E-1,-1.05077345E-2,-1.8993995E-4,-7.347837E-3,1.2609941E-1,7.6250844E-3,-1.6462428E-2,5.0973925E-3,1.870851E-2,4.8534516E-3,2.4640535E-1,-8.784642E-2,2.103771E-2,-6.177308E-3,4.1975904E-2,8.686369E-2,5.4615582E-3,4.446391E-2,-1.0894302E-2,5.796697E-3,2.8829623E-2,1.0850009E-2],"categories":[],"categories_nodes":[],"categories_segments":[],"categories_sizes":[],"default_left":[0,0,0,0,0,0,0,0,0,0,0,0,0,0,0,0,0,0,0,0,0,0,0,0,0,0,0,0,0,0,0,0,0,0,0,0,0,0,0,0,0,0,0,0,0,0,0,0,0,0,0,0,0,0,0,0,0,0,0,0,0,0,0],"id":27,"left_children":[1,3,5,7,9,11,13,15,17,19,21,23,25,27,29,31,33,35,37,39,41,43,45,47,49,51,53,55,57,59,61,-1,-1,-1,-1,-1,-1,-1,-1,-1,-1,-1,-1,-1,-1,-1,-1,-1,-1,-1,-1,-1,-1,-1,-1,-1,-1,-1,-1,-1,-1,-1,-1],"loss_changes":[2.9174475E1,1.6991032E1,1.3734564E1,2.312082E1,5.8661633E0,8.838292E0,5.259733E0,1.2488603E1,7.442922E1,2.8414574E0,3.960188E0,6.591921E0,1.2977739E1,3.4180107E0,3.0113277E-1,4.1248665E0,7.2131248E0,1.65953E1,9.677055E2,3.4480138E0,6.371395E0,1.9505808E0,9.304444E0,2.2985816E0,4.6850786E0,1.3728048E1,1.8700947E-1,3.9287338E0,1.3822782E0,1.4913538E-1,4.858464E-3,0E0,0E0,0E0,0E0,0E0,0E0,0E0,0E0,0E0,0E0,0E0,0E0,0E0,0E0,0E0,0E0,0E0,0E0,0E0,0E0,0E0,0E0,0E0,0E0,0E0,0E0,0E0,0E0,0E0,0E0,0E0,0E0],"parents":[2147483647,0,0,1,1,2,2,3,3,4,4,5,5,6,6,7,7,8,8,9,9,10,10,11,11,12,12,13,13,14,14,15,15,16,16,17,17,18,18,19,19,20,20,21,21,22,22,23,23,24,24,25,25,26,26,27,27,28,28,29,29,30,30],"right_children":[2,4,6,8,10,12,14,16,18,20,22,24,26,28,30,32,34,36,38,40,42,44,46,48,50,52,54,56,58,60,62,-1,-1,-1,-1,-1,-1,-1,-1,-1,-1,-1,-1,-1,-1,-1,-1,-1,-1,-1,-1,-1,-1,-1,-1,-1,-1,-1,-1,-1,-1,-1,-1],"split_conditions":[7.6E1,1.2E1,1.32E2,5E0,4.6E1,1E0,1E0,5.6E1,3.6E1,1E0,1E0,1E0,1E0,1E0,2.4689202E0,3.5E1,2E1,6.3302293E0,9E0,1E0,2E0,4.1072446E-1,1.7E1,1.06E2,1.9E1,8.4E1,5.0446546E-1,1.8E1,-8.3216614E-1,-4.9206004E-1,1.39E2,-2.6680404E-2,-1.1115263E-2,-1.2183674E-2,1.5308921E-2,1.0936284E-4,1.02338515E-1,3.2456625E-2,1.5964358E0,-9.749416E-2,6.0554314E-2,1.6821483E-1,-1.05077345E-2,-1.8993995E-4,-7.347837E-3,1.2609941E-1,7.6250844E-3,-1.6462428E-2,5.0973925E-3,1.870851E-2,4.8534516E-3,2.4640535E-1,-8.784642E-2,2.103771E-2,-6.177308E-3,4.1975904E-2,8.686369E-2,5.4615582E-3,4.446391E-2,-1.0894302E-2,5.796697E-3,2.8829623E-2,1.0850009E-2],"split_indices":[0,20,0,20,0,2,7,0,0,0,9,20,5,6,15,0,21,13,20,3,0,10,20,0,20,0,14,20,12,15,0,0,0,0,0,0,0,0,0,0,0,0,0,0,0,0,0,0,0,0,0,0,0,0,0,0,0,0,0,0,0,0,0],"split_type":[0,0,0,0,0,0,0,0,0,0,0,0,0,0,0,0,0,0,0,0,0,0,0,0,0,0,0,0,0,0,0,0,0,0,0,0,0,0,0,0,0,0,0,0,0,0,0,0,0,0,0,0,0,0,0,0,0,0,0,0,0,0,0],"sum_hessian":[8.8E3,7.442E3,1.358E3,3.736E3,3.706E3,1.203E3,1.55E2,1.241E3,2.495E3,2.041E3,1.665E3,1.188E3,1.5E1,1.21E2,3.4E1,8.26E2,4.15E2,2.123E3,3.72E2,7E0,2.034E3,1.53E3,1.35E2,2.01E2,9.87E2,6E0,9E0,8.5E1,3.6E1,2.8E1,6E0,2.41E2,5.85E2,1.47E2,2.68E2,2.108E3,1.5E1,3.69E2,3E0,6E0,1E0,1E0,2.033E3,7.1E2,8.2E2,6E0,1.29E2,1.16E2,8.5E1,5.42E2,4.45E2,5E0,1E0,3E0,6E0,4.8E1,3.7E1,1.9E1,1.7E1,6E0,2.2E1,4E0,2E0],"tree_param":{"num_deleted":"0","num_feature":"22","num_nodes":"63","size_leaf_vector":"1"}},{"base_weights":[2.9577618E-3,-2.8948514E-2,8.179792E-2,6.98674E-2,-7.75034E-2,6.61476E-2,4.878361E-1,-2.1413825E-2,2.6964858E-1,-1.6783364E-1,-3.7098553E-2,5.65047E-2,5.676078E-1,1.3266405E0,3.244623E-1,3.5618165E-1,-4.453895E-2,6.568971E-2,6.04872E-1,-1.3754086E-1,-2.78594E-1,5.4634345E-1,-4.7712173E-2,1.2692451E-1,4.7684084E-3,4.803496E-1,1.3637315E-1,-1.3804281E-2,1.441121E0,1.8454936E-1,6.432363E-1,1.8355523E-3,8.834614E-2,3.3352093E-3,-1.3533977E-2,-2.2709278E-2,2.1676946E-2,5.1567405E-2,3.5639337E-1,-2.4259744E-2,-9.017477E-3,-2.5102714E-2,-3.9637137E-2,3.3933422E-1,1.0122744E-2,-6.9161935E-4,-1.169971E-2,-3.8930986E-3,2.9548988E-2,-2.2077763E-3,8.294252E-3,3.7034195E-2,1.2423394E-1,1.68148E-1,6.7217894E-2,4.8861275E-3,4.533539E-2,8.037795E-2,2.2167731E-2],"categories":[],"categories_nodes":[],"categories_segments":[],"categories_sizes":[],"default_left":[0,0,0,0,0,0,0,0,0,0,0,0,0,0,0,0,0,0,0,0,0,0,0,0,0,0,0,0,0,0,0,0,0,0,0,0,0,0,0,0,0,0,0,0,0,0,0,0,0,0,0,0,0,0,0,0,0,0,0],"id":28,"left_children":[1,3,5,7,9,11,13,15,17,19,21,23,25,27,29,31,33,35,37,39,41,43,45,47,49,51,-1,-1,53,55,57,-1,-1,-1,-1,-1,-1,-1,-1,-1,-1,-1,-1,-1,-1,-1,-1,-1,-1,-1,-1,-1,-1,-1,-1,-1,-1,-1,-1],"loss_changes":[2.2151308E1,3.008405E1,1.6089418E1,3.7681908E1,1.5337444E1,1.1785964E1,1.2451191E1,1.2406489E1,4.426518E1,4.320137E0,1.8021275E1,8.739575E0,2.5404758E0,2.714098E0,3.449339E0,1.4590351E1,9.467612E0,1.7919563E1,6.2827988E1,5.0637207E0,8.030968E-1,6.555322E1,8.068981E0,2.8416317E1,2.906398E0,3.144373E0,0E0,0E0,1.4572563E0,2.056842E0,1.4461031E0,0E0,0E0,0E0,0E0,0E0,0E0,0E0,0E0,0E0,0E0,0E0,0E0,0E0,0E0,0E0,0E0,0E0,0E0,0E0,0E0,0E0,0E0,0E0,0E0,0E0,0E0,0E0,0E0],"parents":[2147483647,0,0,1,1,2,2,3,3,4,4,5,5,6,6,7,7,8,8,9,9,10,10,11,11,12,12,13,13,14,14,15,15,16,16,17,17,18,18,19,19,20,20,21,21,22,22,23,23,24,24,25,25,28,28,29,29,30,30],"right_children":[2,4,6,8,10,12,14,16,18,20,22,24,26,28,30,32,34,36,38,40,42,44,46,48,50,52,-1,-1,54,56,58,-1,-1,-1,-1,-1,-1,-1,-1,-1,-1,-1,-1,-1,-1,-1,-1,-1,-1,-1,-1,-1,-1,-1,-1,-1,-1,-1,-1],"split_conditions":[6E1,5E0,1E0,1.4E1,2.8E1,1.58E2,-1.7254235E0,2E0,8E0,1.6E1,-1.4186007E0,1.6E1,1.91E2,6.1E1,-3.7516978E-1,9.692019E-1,1.5086176E-1,2.4E1,4.3E1,1.4E1,2.9E1,7E0,2E1,2E0,8.8E1,6E0,1.3637315E-1,-1.3804281E-2,3.3E1,8.5E1,7.5297815E-1,1.8355523E-3,8.834614E-2,3.3352093E-3,-1.3533977E-2,-2.2709278E-2,2.1676946E-2,5.1567405E-2,3.5639337E-1,-2.4259744E-2,-9.017477E-3,-2.5102714E-2,-3.9637137E-2,3.3933422E-1,1.0122744E-2,-6.9161935E-4,-1.169971E-2,-3.8930986E-3,2.9548988E-2,